{"learner":{"attributes":{"best_iteration":"1","best_score":"0.17678943467407346","scikit_learn":"{\"_estimator_type\": \"classifier\"}"},"feature_names":["n_early_buyers","n_reliable_wallets","avg_wallet_score","max_wallet_score","pct_high_score_wallets","pct_negative_wallets","pct_new_wallets","avg_cooccurrence_score","total_volume_sol","avg_buy_size_sol","std_buy_size_sol","concentration_top5","n_tier1_buyers","creator_is_buyer","buys_in_first_20s","buys_20s_to_60s","buys_60s_to_180s","acceleration_ratio","time_to_5th_buy","hour_utc","day_of_week"],"feature_types":["int","int","float","float","float","float","float","float","float","float","float","float","int","int","int","int","int","float","float","int","int"],"gradient_booster":{"model":{"gbtree_model_param":{"num_parallel_tree":"1","num_trees":"22"},"iteration_indptr":[0,1,2,3,4,5,6,7,8,9,10,11,12,13,14,15,16,17,18,19,20,21,22],"tree_info":[0,0,0,0,0,0,0,0,0,0,0,0,0,0,0,0,0,0,0,0,0,0],"trees":[{"base_weights":[-2.0859258E-2,-1.1039249E0,1.2138966E0,-1.4737371E0,-4.5433867E-1,6.108227E-1,1.5374894E0,-1.6196913E0,-9.596921E-1,1.6979076E-1,-1.7615607E0,7.8346574E-1,-1.0438999E0,1.570421E0,-4.8083618E-1,-8.2183085E-2,5.179884E-2,-3.3334456E-2,-9.791667E-2,-3.6369346E-2,2.7779285E-2,-9.334035E-2,-8.23199E-3,-3.6636998E-3,4.5270246E-2,1.5172946E-2,-9.626168E-2,7.921222E-2,-7.647059E-2,-8.82353E-2,5.7211544E-2],"categories":[],"categories_nodes":[],"categories_segments":[],"categories_sizes":[],"default_left":[0,0,0,0,0,0,0,0,0,0,0,0,0,0,0,0,0,0,0,0,0,0,0,0,0,0,0,0,0,0,0],"id":0,"left_children":[1,3,5,7,9,11,13,15,17,19,21,23,25,27,29,-1,-1,-1,-1,-1,-1,-1,-1,-1,-1,-1,-1,-1,-1,-1,-1],"loss_changes":[3.768072E3,3.599087E2,2.5599976E2,7.017383E1,4.4574435E2,1.3263583E2,5.7663452E1,4.9010376E1,6.1274857E1,1.2862651E2,2.9360718E1,4.3776825E1,5.285972E1,3.8532227E1,3.2295097E1,0E0,0E0,0E0,0E0,0E0,0E0,0E0,0E0,0E0,0E0,0E0,0E0,0E0,0E0,0E0,0E0],"parents":[2147483647,0,0,1,1,2,2,3,3,4,4,5,5,6,6,7,7,8,8,9,9,10,10,11,11,12,12,13,13,14,14],"right_children":[2,4,6,8,10,12,14,16,18,20,22,24,26,28,30,-1,-1,-1,-1,-1,-1,-1,-1,-1,-1,-1,-1,-1,-1,-1,-1],"split_conditions":[2.326E-1,1.55506E-1,3.0272E-1,8.10048E-1,2E1,1.75E2,2.93E2,1.664562E0,2.2E1,6.6667E-2,3.92733E-1,3.1915E-2,5E0,9.37395E-1,1.066878E0,-8.2183085E-2,5.179884E-2,-3.3334456E-2,-9.791667E-2,-3.6369346E-2,2.7779285E-2,-9.334035E-2,-8.23199E-3,-3.6636998E-3,4.5270246E-2,1.5172946E-2,-9.626168E-2,7.921222E-2,-7.647059E-2,-8.82353E-2,5.7211544E-2],"split_indices":[3,3,3,9,15,1,0,10,0,6,11,6,19,11,10,0,0,0,0,0,0,0,0,0,0,0,0,0,0,0,0],"split_type":[0,0,0,0,0,0,0,0,0,0,0,0,0,0,0,0,0,0,0,0,0,0,0,0,0,0,0,0,0,0,0],"sum_hessian":[2.8156238E3,1.5000028E3,1.3156208E3,9.550309E2,5.449719E2,4.6042416E2,8.5519666E2,7.421573E2,2.128736E2,3.6944946E2,1.7552248E2,4.174017E2,4.3022472E1,8.416854E2,1.3511236E1,7.3589606E2,6.261236E0,1.658736E2,4.7E1,1.1082865E2,2.586208E2,1.6451123E2,1.1011236E1,5.2056183E1,3.6534552E2,1.7272472E1,2.575E1,8.384354E2,3.25E0,7.5E0,6.011236E0],"tree_param":{"num_deleted":"0","num_feature":"21","num_nodes":"31","size_leaf_vector":"1"}},{"base_weights":[3.9766375E-2,-1.8928744E0,1.2680018E0,-9.738257E-2,-1.098107E0,4.2038062E-1,1.6755943E0,-1.4839605E0,-3.21759E-1,-5.3231448E-2,1.474158E0,1.3687915E0,1.7607759E0,-9.229347E-2,-5.467161E-2,1.6019007E-2,-8.5079454E-2,-3.0238662E-2,4.4624195E-2,7.965308E-2,-8.431768E-2,5.354737E-2,7.958488E-2,-5.6939173E-2,8.829325E-2],"categories":[],"categories_nodes":[],"categories_segments":[],"categories_sizes":[],"default_left":[0,0,0,0,0,0,0,0,0,0,0,0,0,0,0,0,0,0,0,0,0,0,0,0,0],"id":1,"left_children":[1,3,5,-1,7,9,11,13,15,17,19,21,23,-1,-1,-1,-1,-1,-1,-1,-1,-1,-1,-1,-1],"loss_changes":[6.904047E3,4.7063477E1,6.1367676E2,0E0,2.2038528E1,2.8894214E2,2.8964355E1,5.0389404E0,2.3787483E1,2.0932872E2,7.014392E1,1.59140625E1,1.5824219E1,0E0,0E0,0E0,0E0,0E0,0E0,0E0,0E0,0E0,0E0,0E0,0E0],"parents":[2147483647,0,0,1,1,2,2,4,4,5,5,6,6,7,7,8,8,9,9,10,10,11,11,12,12],"right_children":[2,4,6,-1,8,10,12,14,16,18,20,22,24,-1,-1,-1,-1,-1,-1,-1,-1,-1,-1,-1,-1],"split_conditions":[1E0,1E0,2.364E-1,-9.738257E-2,1E0,8.7721E-2,2.81067E-1,3E0,7.0654E-2,3.26087E-1,8.4E1,2.66667E-1,2.67288E-1,-9.229347E-2,-5.467161E-2,1.6019007E-2,-8.5079454E-2,-3.0238662E-2,4.4624195E-2,7.965308E-2,-8.431768E-2,5.354737E-2,7.958488E-2,-5.6939173E-2,8.829325E-2],"split_indices":[7,6,3,0,13,2,3,20,9,5,18,5,9,0,0,0,0,0,0,0,0,0,0,0,0],"split_type":[0,0,0,0,0,0,0,0,0,0,0,0,0,0,0,0,0,0,0,0,0,0,0,0,0],"sum_hessian":[2.9065017E3,1.1291818E3,1.7773198E3,1.0550173E3,7.416441E1,5.777903E2,1.1995295E3,4.89328E1,2.523161E1,3.9928445E2,1.785058E2,2.643774E2,9.3515216E2,2.3462831E1,2.546997E1,1.7742498E1,7.4891114E0,2.5242851E2,1.4685594E2,1.725116E2,5.994205E0,1.1565089E2,1.4872653E2,1.2480679E0,9.339041E2],"tree_param":{"num_deleted":"0","num_feature":"21","num_nodes":"25","size_leaf_vector":"1"}},{"base_weights":[2.1474601E-3,-1.8067555E0,1.1846416E0,-1.133548E0,-9.3003206E-2,3.1618655E-1,1.6000923E0,-1.5210773E0,1.4537121E-1,-4.1431373E-1,8.9671236E-1,1.2874185E0,1.6883886E0,-9.040054E-2,-2.2819376E-2,-7.693168E-2,3.699852E-2,-6.3563794E-2,5.015515E-2,2.6351472E-2,7.7900335E-2,7.088279E-2,7.1868496E-3,-5.534075E-2,8.467421E-2],"categories":[],"categories_nodes":[],"categories_segments":[],"categories_sizes":[],"default_left":[0,0,0,0,0,0,0,0,0,0,0,0,0,0,0,0,0,0,0,0,0,0,0,0,0],"id":2,"left_children":[1,3,5,7,-1,9,11,13,15,17,19,21,23,-1,-1,-1,-1,-1,-1,-1,-1,-1,-1,-1,-1],"loss_changes":[6.08178E3,3.822705E1,6.198262E2,4.2363434E1,0E0,2.3683134E2,2.9927002E1,1.9136932E1,2.1851847E1,3.020118E2,7.520981E1,3.856079E1,1.474292E1,0E0,0E0,0E0,0E0,0E0,0E0,0E0,0E0,0E0,0E0,0E0,0E0],"parents":[2147483647,0,0,1,1,2,2,3,3,5,5,6,6,7,7,8,8,9,9,10,10,11,11,12,12],"right_children":[2,4,6,8,-1,10,12,14,16,18,20,22,24,-1,-1,-1,-1,-1,-1,-1,-1,-1,-1,-1,-1],"split_conditions":[1E0,6.93E-2,2.364E-1,4.9383E-2,-9.3003206E-2,7.0896E-2,2.81067E-1,1E0,1.3E1,3.96396E-1,9.6063E-2,7.21875E0,2.67288E-1,-9.040054E-2,-2.2819376E-2,-7.693168E-2,3.699852E-2,-6.3563794E-2,5.015515E-2,2.6351472E-2,7.7900335E-2,7.088279E-2,7.1868496E-3,-5.534075E-2,8.467421E-2],"split_indices":[7,8,3,9,0,2,3,13,19,5,2,17,9,0,0,0,0,0,0,0,0,0,0,0,0],"split_type":[0,0,0,0,0,0,0,0,0,0,0,0,0,0,0,0,0,0,0,0,0,0,0,0,0],"sum_hessian":[2.8412583E3,1.1229358E3,1.7183225E3,8.4029686E1,1.0389061E3,5.565906E2,1.1617319E3,6.434344E1,1.9686253E1,2.4658656E2,3.1000403E2,2.5925226E2,9.024796E2,5.0134148E1,1.4209289E1,4.7228026E0,1.496345E1,1.5373958E2,9.284698E1,1.9999687E2,1.1000715E2,2.325329E2,2.6719366E1,1.2487669E0,9.0123083E2],"tree_param":{"num_deleted":"0","num_feature":"21","num_nodes":"25","size_leaf_vector":"1"}},{"base_weights":[-3.1635873E-2,-1.7151392E0,1.1164217E0,-8.967625E-1,-8.919039E-2,9.000801E-1,1.5711328E0,-4.8125446E-1,-8.5842595E-2,9.8159516E-1,-1.0554814E0,-5.831982E-2,1.5797814E0,-8.333376E-2,-5.969103E-3,2.3015568E-2,5.7051696E-2,-9.3265094E-2,8.703625E-3,3.1893548E-2,8.025481E-2],"categories":[],"categories_nodes":[],"categories_segments":[],"categories_sizes":[],"default_left":[0,0,0,0,0,0,0,0,0,0,0,0,0,0,0,0,0,0,0,0,0],"id":3,"left_children":[1,3,5,7,-1,9,11,13,-1,15,17,-1,19,-1,-1,-1,-1,-1,-1,-1,-1],"loss_changes":[5.355262E3,6.153247E1,1.6064404E2,2.9493088E1,0E0,1.7935345E2,1.4385376E1,2.5730343E1,0E0,8.876953E1,4.537538E1,0E0,1.1578247E1,0E0,0E0,0E0,0E0,0E0,0E0,0E0,0E0],"parents":[2147483647,0,0,1,1,2,2,3,3,5,5,6,6,7,7,9,9,10,10,12,12],"right_children":[2,4,6,8,-1,10,12,14,-1,16,18,-1,20,-1,-1,-1,-1,-1,-1,-1,-1],"split_conditions":[1E0,6.93E-2,3.96396E-1,1E0,-8.919039E-2,2.15E1,1.95122E-1,2E0,-8.5842595E-2,1.1483617E1,7.13773E-1,-5.831982E-2,1.3514E-2,-8.333376E-2,-5.969103E-3,2.3015568E-2,5.7051696E-2,-9.3265094E-2,8.703625E-3,3.1893548E-2,8.025481E-2],"split_indices":[7,8,5,1,0,17,17,20,0,8,10,0,6,0,0,0,0,0,0,0,0],"split_type":[0,0,0,0,0,0,0,0,0,0,0,0,0,0,0,0,0,0,0,0,0],"sum_hessian":[2.768796E3,1.1224093E3,1.6463867E3,8.797726E1,1.034432E3,1.1176246E3,5.28762E2,5.944538E1,2.853188E1,1.0733802E3,4.424442E1,1.2436674E0,5.275184E2,1.3059478E1,4.6385902E1,2.5231738E2,8.2106287E2,2.636355E1,1.7880869E1,1.4492102E1,5.1302625E2],"tree_param":{"num_deleted":"0","num_feature":"21","num_nodes":"21","size_leaf_vector":"1"}},{"base_weights":[4.5719624E-2,-1.6497535E0,1.1119528E0,-9.5655394E-1,-8.585276E-2,3.3433366E-1,1.4564619E0,-5.7489216E-1,-8.3125904E-2,-1.1283323E-1,1.3363402E0,1.1513983E0,1.5671295E0,-8.1907384E-2,-1.3654935E-2,-2.24094E-2,5.064095E-2,6.915542E-2,-7.254796E-2,4.8028953E-2,7.5162165E-2,6.620573E-2,8.056929E-2],"categories":[],"categories_nodes":[],"categories_segments":[],"categories_sizes":[],"default_left":[0,0,0,0,0,0,0,0,0,0,0,0,0,0,0,0,0,0,0,0,0,0,0],"id":4,"left_children":[1,3,5,7,-1,9,11,13,-1,15,17,19,21,-1,-1,-1,-1,-1,-1,-1,-1,-1,-1],"loss_changes":[5.1647812E3,4.9817627E1,4.693894E2,2.5953697E1,0E0,2.4200854E2,3.9220215E1,2.08446E1,0E0,1.4169159E2,2.3729126E1,2.0526855E1,7.426758E0,0E0,0E0,0E0,0E0,0E0,0E0,0E0,0E0,0E0,0E0],"parents":[2147483647,0,0,1,1,2,2,3,3,5,5,6,6,7,7,9,9,10,10,11,11,12,12],"right_children":[2,4,6,8,-1,10,12,14,-1,16,18,20,22,-1,-1,-1,-1,-1,-1,-1,-1,-1,-1],"split_conditions":[1E0,1E0,2.15467E-1,7.0654E-2,-8.585276E-2,8.7721E-2,2.81067E-1,8E0,-8.3125904E-2,2.85714E-1,2.2E1,8.08056E-1,5.37556E-1,-8.1907384E-2,-1.3654935E-2,-2.24094E-2,5.064095E-2,6.915542E-2,-7.254796E-2,4.8028953E-2,7.5162165E-2,6.620573E-2,8.056929E-2],"split_indices":[7,1,3,9,0,2,3,19,0,6,19,10,10,0,0,0,0,0,0,0,0,0,0],"split_type":[0,0,0,0,0,0,0,0,0,0,0,0,0,0,0,0,0,0,0,0,0,0,0],"sum_hessian":[2.8549763E3,1.1020314E3,1.7529451E3,9.8871994E1,1.00315936E3,5.3878375E2,1.2141613E3,6.535422E1,3.3517776E1,3.7314655E2,1.6563725E2,3.2624515E2,8.879161E2,1.3469938E1,5.188428E1,2.8795938E2,8.518714E1,1.6339935E2,2.2378998E0,2.1394467E2,1.1230046E2,1.4155377E2,7.463623E2],"tree_param":{"num_deleted":"0","num_feature":"21","num_nodes":"23","size_leaf_vector":"1"}},{"base_weights":[-1.2161703E-2,-1.6095678E0,1.0338534E0,-9.994245E-1,-8.292217E-2,8.2674897E-1,1.4470198E0,-1.3656081E0,1.819478E-1,-8.557309E-1,1.0601252E0,1.5076859E0,-1.2906861E-1,-4.4555902E-2,-8.376288E-2,-6.6960745E-2,2.8087988E-2,-6.7062624E-2,1.5283327E-2,3.153247E-2,7.301805E-2,7.801236E-2,6.252002E-2,3.9759915E-2,-8.94485E-2],"categories":[],"categories_nodes":[],"categories_segments":[],"categories_sizes":[],"default_left":[0,0,0,0,0,0,0,0,0,0,0,0,0,0,0,0,0,0,0,0,0,0,0,0,0],"id":5,"left_children":[1,3,5,7,-1,9,11,13,15,17,19,21,23,-1,-1,-1,-1,-1,-1,-1,-1,-1,-1,-1,-1],"loss_changes":[4.597026E3,3.0807861E1,1.410658E2,3.6265114E1,0E0,4.3665833E2,5.314453E1,7.8624496E0,1.2644033E1,7.6950096E1,1.6667847E2,5.2613525E0,3.432635E1,0E0,0E0,0E0,0E0,0E0,0E0,0E0,0E0,0E0,0E0,0E0,0E0],"parents":[2147483647,0,0,1,1,2,2,3,3,5,5,6,6,7,7,8,8,9,9,10,10,11,11,12,12],"right_children":[2,4,6,8,-1,10,12,14,16,18,20,22,24,-1,-1,-1,-1,-1,-1,-1,-1,-1,-1,-1,-1],"split_conditions":[1E0,6.93E-2,8.7721E-2,4.9383E-2,-8.292217E-2,1.33333E-1,6.7E1,9.524E-3,9.524E-3,2.5284851E1,4E-1,9E0,8.10669E-1,-4.4555902E-2,-8.376288E-2,-6.6960745E-2,2.8087988E-2,-6.7062624E-2,1.5283327E-2,3.153247E-2,7.301805E-2,7.801236E-2,6.252002E-2,3.9759915E-2,-8.94485E-2],"split_indices":[7,8,2,9,0,5,18,6,6,8,5,18,11,0,0,0,0,0,0,0,0,0,0,0,0],"split_type":[0,0,0,0,0,0,0,0,0,0,0,0,0,0,0,0,0,0,0,0,0,0,0,0,0],"sum_hessian":[2.7492136E3,1.0876646E3,1.6615491E3,8.2256355E1,1.0054082E3,1.1087673E3,5.527817E2,6.267375E1,1.95826E1,1.3473749E2,9.7402985E2,5.323347E2,2.044697E1,2.6280602E1,3.639315E1,3.4078848E0,1.6174713E1,9.490686E1,3.9830624E1,4.710944E2,5.029355E2,4.3782623E2,9.4508514E1,1.3468417E1,6.978553E0],"tree_param":{"num_deleted":"0","num_feature":"21","num_nodes":"25","size_leaf_vector":"1"}},{"base_weights":[2.0790031E-2,-1.5398245E0,1.0060806E0,-8.9761543E-1,-8.0334954E-2,2.383209E-1,1.3494734E0,-5.003163E-1,-7.790393E-2,-2.7507943E-1,1.1998982E0,1.0345349E0,1.4576328E0,-5.759505E-3,-7.998165E-2,-5.288996E-2,1.3764265E-2,6.245762E-2,-7.402917E-2,5.877294E-2,-4.8776087E-4,-5.789677E-2,7.3137976E-2],"categories":[],"categories_nodes":[],"categories_segments":[],"categories_sizes":[],"default_left":[0,0,0,0,0,0,0,0,0,0,0,0,0,0,0,0,0,0,0,0,0,0,0],"id":6,"left_children":[1,3,5,7,-1,9,11,13,-1,15,17,19,21,-1,-1,-1,-1,-1,-1,-1,-1,-1,-1],"loss_changes":[4.2226094E3,4.420215E1,4.4347888E2,2.6116196E1,0E0,2.5774963E2,3.8104492E1,2.7535269E1,0E0,1.4708069E2,2.5836365E1,4.4267914E1,1.3268066E1,0E0,0E0,0E0,0E0,0E0,0E0,0E0,0E0,0E0,0E0],"parents":[2147483647,0,0,1,1,2,2,3,3,5,5,6,6,7,7,9,9,10,10,11,11,12,12],"right_children":[2,4,6,8,-1,10,12,14,-1,16,18,20,22,-1,-1,-1,-1,-1,-1,-1,-1,-1,-1],"split_conditions":[1E0,2E0,2.2035E-1,7.0654E-2,-8.0334954E-2,2.5641E-1,2.81067E-1,4E0,-7.790393E-2,1.55506E-1,4.266667E0,7.21875E0,2.67288E-1,-5.759505E-3,-7.998165E-2,-5.288996E-2,1.3764265E-2,6.245762E-2,-7.402917E-2,5.877294E-2,-4.8776087E-4,-5.789677E-2,7.3137976E-2],"split_indices":[7,0,3,9,0,6,3,20,0,3,7,17,9,0,0,0,0,0,0,0,0,0,0],"split_type":[0,0,0,0,0,0,0,0,0,0,0,0,0,0,0,0,0,0,0,0,0,0,0],"sum_hessian":[2.7441216E3,1.0617845E3,1.682337E3,1.0149843E2,9.602861E2,5.2043616E2,1.1619008E3,6.4472664E1,3.7025764E1,3.3975168E2,1.806845E2,2.9972565E2,8.621752E2,4.8563927E1,1.5908735E1,1.3988602E2,1.9986565E2,1.7794864E2,2.735845E0,2.639771E2,3.5748535E1,1.2467113E0,8.6092847E2],"tree_param":{"num_deleted":"0","num_feature":"21","num_nodes":"23","size_leaf_vector":"1"}},{"base_weights":[1.8694451E-2,-1.4942223E0,9.6788126E-1,-8.3198696E-1,-7.797271E-2,1.853523E-1,1.3119963E0,-5.047461E-1,-7.5333096E-2,-5.196174E-1,6.4763314E-1,1.0886441E0,1.4104936E0,-7.6799735E-2,-9.468346E-3,-4.9913906E-2,4.7207665E-2,2.019699E-2,6.31187E-2,4.5087736E-2,7.081698E-2,-6.610975E-2,7.085603E-2],"categories":[],"categories_nodes":[],"categories_segments":[],"categories_sizes":[],"default_left":[0,0,0,0,0,0,0,0,0,0,0,0,0,0,0,0,0,0,0,0,0,0,0],"id":7,"left_children":[1,3,5,7,-1,9,11,13,-1,15,17,19,21,-1,-1,-1,-1,-1,-1,-1,-1,-1,-1],"loss_changes":[3.9288323E3,4.4266113E1,4.5245276E2,2.059388E1,0E0,1.6805447E2,2.4148926E1,2.1381056E1,0E0,1.4413705E2,4.612024E1,2.0872955E1,1.6484253E1,0E0,0E0,0E0,0E0,0E0,0E0,0E0,0E0,0E0,0E0],"parents":[2147483647,0,0,1,1,2,2,3,3,5,5,6,6,7,7,9,9,10,10,11,11,12,12],"right_children":[2,4,6,8,-1,10,12,14,-1,16,18,20,22,-1,-1,-1,-1,-1,-1,-1,-1,-1,-1],"split_conditions":[1E0,1E0,2.2035E-1,7.0654E-2,-7.797271E-2,6.6937E-2,2.8768E-1,2E0,-7.5333096E-2,5.02793E-1,9.6063E-2,8.61E-2,3.10098E-1,-7.6799735E-2,-9.468346E-3,-4.9913906E-2,4.7207665E-2,2.019699E-2,6.31187E-2,4.5087736E-2,7.081698E-2,-6.610975E-2,7.085603E-2],"split_indices":[7,1,3,9,0,2,3,20,0,5,2,2,9,0,0,0,0,0,0,0,0,0,0],"split_type":[0,0,0,0,0,0,0,0,0,0,0,0,0,0,0,0,0,0,0,0,0,0,0],"sum_hessian":[2.733871E3,1.0537368E3,1.6801343E3,9.572183E1,9.58015E2,5.136396E2,1.1664946E3,6.5634796E1,3.0087034E1,2.0337401E2,3.102656E2,3.6067694E2,8.058177E2,1.4465195E1,5.11696E1,1.5349751E2,4.9876484E1,2.2337369E2,8.68919E1,2.3207373E2,1.2860321E2,1.4691447E0,8.043486E2],"tree_param":{"num_deleted":"0","num_feature":"21","num_nodes":"23","size_leaf_vector":"1"}},{"base_weights":[-2.7874692E-3,-1.45228E0,9.1842693E-1,-7.0789653E-1,-7.585426E-2,5.7208705E-1,1.1623423E0,-8.624985E-1,9.412142E-1,-2.8199568E-1,1.2133006E0,9.06406E-1,1.442004E0,-2.3149086E-2,-7.931122E-2,-4.621802E-2,7.142113E-2,-7.490382E-2,1.6305355E-2,4.5849588E-2,6.80964E-2,-1.94119E-2,6.636453E-2,2.4959309E-2,7.267634E-2],"categories":[],"categories_nodes":[],"categories_segments":[],"categories_sizes":[],"default_left":[0,0,0,0,0,0,0,0,0,0,0,0,0,0,0,0,0,0,0,0,0,0,0,0,0],"id":8,"left_children":[1,3,5,7,-1,9,11,13,15,17,19,21,23,-1,-1,-1,-1,-1,-1,-1,-1,-1,-1,-1,-1],"loss_changes":[3.5392976E3,4.861133E1,1.3624048E2,2.2320156E1,0E0,3.681796E2,6.668591E1,2.1717987E1,8.32731E0,2.14083E2,1.5654907E1,2.7225742E2,4.187439E0,0E0,0E0,0E0,0E0,0E0,0E0,0E0,0E0,0E0,0E0,0E0,0E0],"parents":[2147483647,0,0,1,1,2,2,3,3,5,5,6,6,7,7,8,8,9,9,10,10,11,11,12,12],"right_children":[2,4,6,8,-1,10,12,14,16,18,20,22,24,-1,-1,-1,-1,-1,-1,-1,-1,-1,-1,-1,-1],"split_conditions":[1E0,6.93E-2,2.7754887E1,6.1602E-2,-7.585426E-2,8.7721E-2,6.8008E-2,1.6E1,1E1,1.36364E-1,1.0178958E1,3.96396E-1,1.134399E0,-2.3149086E-2,-7.931122E-2,-4.621802E-2,7.142113E-2,-7.490382E-2,1.6305355E-2,4.5849588E-2,6.80964E-2,-1.94119E-2,6.636453E-2,2.4959309E-2,7.267634E-2],"split_indices":[7,8,8,9,0,2,2,19,19,5,8,5,7,0,0,0,0,0,0,0,0,0,0,0,0],"split_type":[0,0,0,0,0,0,0,0,0,0,0,0,0,0,0,0,0,0,0,0,0,0,0,0,0],"sum_hessian":[2.6485776E3,1.028966E3,1.6196116E3,8.3361145E1,9.456048E2,6.70666E2,9.489456E2,7.66521E1,6.7090435E0,2.8783548E2,3.828305E2,4.9770502E2,4.5124057E2,5.044486E1,2.6207245E1,1.2034899E0,5.5055532E0,9.546385E1,1.9237163E2,1.3027647E2,2.5255405E2,1.2212502E2,3.7558E2,5.983439E0,4.4525714E2],"tree_param":{"num_deleted":"0","num_feature":"21","num_nodes":"25","size_leaf_vector":"1"}},{"base_weights":[-9.137712E-3,-1.4511334E0,8.9051056E-1,-1.1308732E0,-7.403004E-2,1.4771473E-1,1.2354416E0,-7.73524E-2,-8.724264E-1,3.688381E-1,-1.1387999E0,-4.923167E-1,1.2507653E0,5.3424304E-3,-7.180795E-2,5.1907938E-2,-3.1223241E-3,-1.3447202E-2,-9.2896186E-2,6.2307168E-2,-1.0350727E-1,5.698991E-2,7.280149E-2],"categories":[],"categories_nodes":[],"categories_segments":[],"categories_sizes":[],"default_left":[0,0,0,0,0,0,0,0,0,0,0,0,0,0,0,0,0,0,0,0,0,0,0],"id":9,"left_children":[1,3,5,7,-1,9,11,-1,13,15,17,19,21,-1,-1,-1,-1,-1,-1,-1,-1,-1,-1],"loss_changes":[3.3572434E3,7.70874E0,4.0813E2,8.116341E0,0E0,1.4450795E2,2.942517E1,0E0,3.1391293E1,1.2504824E2,4.612272E1,3.0787724E1,2.2914429E1,0E0,0E0,0E0,0E0,0E0,0E0,0E0,0E0,0E0,0E0],"parents":[2147483647,0,0,1,1,2,2,3,3,5,5,6,6,8,8,9,9,10,10,11,11,12,12],"right_children":[2,4,6,8,-1,10,12,-1,14,16,18,20,22,-1,-1,-1,-1,-1,-1,-1,-1,-1,-1],"split_conditions":[1E0,2E0,2.2035E-1,4.9383E-2,-7.403004E-2,2.6E1,3.33333E-1,-7.73524E-2,7.0654E-2,1.304202E0,2E0,3.80592E-1,4.31818E-1,5.3424304E-3,-7.180795E-2,5.1907938E-2,-3.1223241E-3,-1.3447202E-2,-9.2896186E-2,6.2307168E-2,-1.0350727E-1,5.698991E-2,7.280149E-2],"split_indices":[7,0,3,9,0,14,17,0,9,7,20,10,5,0,0,0,0,0,0,0,0,0,0],"split_type":[0,0,0,0,0,0,0,0,0,0,0,0,0,0,0,0,0,0,0,0,0,0,0],"sum_hessian":[2.5858958E3,9.932532E2,1.5926426E3,8.700772E1,9.062454E2,5.054986E2,1.0871439E3,3.142247E1,5.5585255E1,4.3196646E2,7.353216E1,9.28367E0,1.0778604E3,2.0603985E1,3.498127E1,1.6871953E2,2.6324692E2,3.3900238E1,3.963192E1,4.5170155E0,4.7666554E0,7.038876E2,3.7397272E2],"tree_param":{"num_deleted":"0","num_feature":"21","num_nodes":"23","size_leaf_vector":"1"}},{"base_weights":[-1.9928953E-3,-7.151719E-1,8.633663E-1,-1.1967356E0,-3.8016817E-1,-1.2347673E0,9.786344E-1,-9.5335364E-1,-7.593049E-2,-7.722634E-1,3.0483514E-1,-7.214492E-2,2.121931E-2,6.3776463E-1,1.2157573E0,-5.3347167E-2,2.7699847E-2,-2.4764745E-2,-5.9705563E-2,-5.600339E-3,3.6350466E-2,5.44991E-2,-5.914208E-2,1.3590755E-2,4.230831E-2,6.122827E-2,-5.378099E-2],"categories":[],"categories_nodes":[],"categories_segments":[],"categories_sizes":[],"default_left":[0,0,0,0,0,0,0,0,0,0,0,0,0,0,0,0,0,0,0,0,0,0,0,0,0,0,0],"id":10,"left_children":[1,3,5,7,9,11,13,15,-1,17,19,-1,21,23,25,-1,-1,-1,-1,-1,-1,-1,-1,-1,-1,-1,-1],"loss_changes":[1.5575548E3,2.227442E2,2.7697064E2,4.298108E1,2.1977585E2,1.5668755E1,8.663257E1,5.6345917E1,0E0,6.017874E1,5.257121E1,0E0,1.35009165E1,3.376512E1,1.4166565E1,0E0,0E0,0E0,0E0,0E0,0E0,0E0,0E0,0E0,0E0,0E0,0E0],"parents":[2147483647,0,0,1,1,2,2,3,3,4,4,5,5,6,6,7,7,9,9,10,10,12,12,13,13,14,14],"right_children":[2,4,6,8,10,12,14,16,-1,18,20,-1,22,24,26,-1,-1,-1,-1,-1,-1,-1,-1,-1,-1,-1,-1],"split_conditions":[2.364E-1,5.9363E-2,3.6515E-2,6.2E1,1.56433E-1,3.9656E-1,3.232E-1,5.9E1,-7.593049E-2,1.5E1,8.6991E-2,-7.214492E-2,4.12057E-1,6.4749E-2,9.37395E-1,-5.3347167E-2,2.7699847E-2,-2.4764745E-2,-5.9705563E-2,-5.600339E-3,3.6350466E-2,5.44991E-2,-5.914208E-2,1.3590755E-2,4.230831E-2,6.122827E-2,-5.378099E-2],"split_indices":[3,2,2,0,3,3,3,0,0,19,2,0,3,2,11,0,0,0,0,0,0,0,0,0,0,0,0],"split_type":[0,0,0,0,0,0,0,0,0,0,0,0,0,0,0,0,0,0,0,0,0,0,0,0,0,0,0],"sum_hessian":[2.5217615E3,1.3825321E3,1.1392294E3,5.661402E2,8.163919E2,5.8822292E1,1.0804071E3,3.2463358E2,2.415066E2,5.191205E2,2.9727145E2,5.0332775E1,8.48952E0,4.4475317E2,6.35654E2,3.0215613E2,2.2477451E1,3.1468494E2,2.0443552E2,1.4995003E2,1.4732141E2,4.547637E0,3.9418824E0,1.6221342E2,2.8253973E2,6.3368365E2,1.9703289E0],"tree_param":{"num_deleted":"0","num_feature":"21","num_nodes":"27","size_leaf_vector":"1"}},{"base_weights":[3.1998727E-2,-1.3580184E0,8.6977315E-1,-5.8453983E-1,-7.139789E-2,3.518569E-1,1.1778986E0,-1.9826087E-1,-6.986588E-2,1.0084215E0,-2.9153716E-2,9.1030186E-1,1.2610267E0,-6.992814E-2,4.983057E-3,-9.039872E-2,5.936692E-2,-3.447297E-2,2.8981363E-2,5.196608E-2,-7.822914E-3,3.0710427E-2,6.444532E-2],"categories":[],"categories_nodes":[],"categories_segments":[],"categories_sizes":[],"default_left":[0,0,0,0,0,0,0,0,0,0,0,0,0,0,0,0,0,0,0,0,0,0,0],"id":11,"left_children":[1,3,5,7,-1,9,11,13,-1,15,17,19,21,-1,-1,-1,-1,-1,-1,-1,-1,-1,-1],"loss_changes":[2.9521226E3,5.0737305E1,2.5199963E2,2.5074148E1,0E0,1.479794E2,2.0902954E1,2.0128801E1,0E0,1.1159744E2,1.5123068E2,3.2994583E1,1.2800537E1,0E0,0E0,0E0,0E0,0E0,0E0,0E0,0E0,0E0,0E0],"parents":[2147483647,0,0,1,1,2,2,3,3,5,5,6,6,7,7,9,9,10,10,11,11,12,12],"right_children":[2,4,6,8,-1,10,12,14,-1,16,18,20,22,-1,-1,-1,-1,-1,-1,-1,-1,-1,-1],"split_conditions":[1E0,6.93E-2,2.364E-1,1E0,-7.139789E-2,1.290323E0,2.81067E-1,5.804E-3,-6.986588E-2,2.6219E-1,1.748E-1,7.21875E0,1.167741E0,-6.992814E-2,4.983057E-3,-9.039872E-2,5.936692E-2,-3.447297E-2,2.8981363E-2,5.196608E-2,-7.822914E-3,3.0710427E-2,6.444532E-2],"split_indices":[7,8,3,1,0,7,3,9,0,11,3,17,7,0,0,0,0,0,0,0,0,0,0],"split_type":[0,0,0,0,0,0,0,0,0,0,0,0,0,0,0,0,0,0,0,0,0,0,0],"sum_hessian":[2.5330393E3,9.523312E2,1.5807081E3,7.974682E1,8.7258435E2,5.9042596E2,9.902822E2,5.489939E1,2.484743E1,2.1620709E2,3.7421884E2,2.3754704E2,7.5273517E2,1.018212E1,4.471727E1,1.2370668E1,2.0383643E2,1.7944925E2,1.947696E2,2.1193964E2,2.5607407E1,3.2055923E1,7.2067926E2],"tree_param":{"num_deleted":"0","num_feature":"21","num_nodes":"23","size_leaf_vector":"1"}},{"base_weights":[-3.17237E-2,-1.3677353E0,8.059635E-1,-6.925922E-1,-1.3863523E0,2.395164E-1,1.1058339E0,-6.950193E-2,1.3168132E0,-1.1402694E0,-6.9932856E-2,9.1103524E-1,-1.5472801E-1,7.900758E-1,1.2235795E0,-4.61338E-2,1.0314187E-1,-7.4742E-2,4.6817686E-2,5.0605036E-2,-8.211482E-2,-4.3943767E-2,1.873595E-2,1.8974746E-2,5.4799136E-2,2.7268413E-2,6.275872E-2],"categories":[],"categories_nodes":[],"categories_segments":[],"categories_sizes":[],"default_left":[0,0,0,0,0,0,0,0,0,0,0,0,0,0,0,0,0,0,0,0,0,0,0,0,0,0,0],"id":12,"left_children":[1,3,5,7,9,11,13,-1,15,17,-1,19,21,23,25,-1,-1,-1,-1,-1,-1,-1,-1,-1,-1,-1,-1],"loss_changes":[2.7067568E3,1.0754761E1,2.5223883E2,3.9683056E1,1.1486816E0,1.3670337E2,3.5160522E1,0E0,1.438824E1,3.7154797E1,0E0,5.0940125E1,1.2526746E2,3.308783E1,1.4442505E1,0E0,0E0,0E0,0E0,0E0,0E0,0E0,0E0,0E0,0E0,0E0,0E0],"parents":[2147483647,0,0,1,1,2,2,3,3,4,4,5,5,6,6,8,8,9,9,11,11,12,12,13,13,14,14],"right_children":[2,4,6,8,10,12,14,-1,16,18,-1,20,22,24,26,-1,-1,-1,-1,-1,-1,-1,-1,-1,-1,-1,-1],"split_conditions":[1E0,9.867E-3,2.2248E-1,5.804E-3,6.93E-2,8E0,2.81067E-1,-6.950193E-2,3E0,6.1602E-2,-6.9932856E-2,4.266667E0,6.5678E-2,2.66667E-1,1.197587E0,-4.61338E-2,1.0314187E-1,-7.4742E-2,4.6817686E-2,5.0605036E-2,-8.211482E-2,-4.3943767E-2,1.873595E-2,1.8974746E-2,5.4799136E-2,2.7268413E-2,6.275872E-2],"split_indices":[7,8,3,9,8,1,3,0,20,9,0,7,2,5,7,0,0,0,0,0,0,0,0,0,0,0,0],"split_type":[0,0,0,0,0,0,0,0,0,0,0,0,0,0,0,0,0,0,0,0,0,0,0,0,0,0,0],"sum_hessian":[2.4165764E3,9.310422E2,1.4855344E3,2.6009571E1,9.050326E2,5.14831E2,9.7070337E2,1.953677E1,6.4728017E0,4.7559906E1,8.574727E2,1.8996007E2,3.248709E2,2.657507E2,7.049527E2,1.5582628E0,4.914539E0,4.086297E1,6.696938E0,1.8330801E2,6.6520457E0,1.3692828E2,1.8794263E2,1.1441979E2,1.5133092E2,3.2191677E1,6.72761E2],"tree_param":{"num_deleted":"0","num_feature":"21","num_nodes":"27","size_leaf_vector":"1"}},{"base_weights":[3.8745084E-3,-1.2995241E0,7.786718E-1,-6.465544E-1,-6.863092E-2,1.9250672E-1,1.1057723E0,-3.7620363E-1,-6.878962E-2,-9.513315E-2,9.6934706E-1,7.8762645E-1,1.208141E0,-6.929928E-2,8.269764E-5,-4.375562E-2,1.8112337E-2,5.1574375E-2,-7.697659E-2,4.662161E-2,-3.1810448E-2,6.0720958E-2,-7.5688325E-2],"categories":[],"categories_nodes":[],"categories_segments":[],"categories_sizes":[],"default_left":[0,0,0,0,0,0,0,0,0,0,0,0,0,0,0,0,0,0,0,0,0,0,0],"id":13,"left_children":[1,3,5,7,-1,9,11,13,-1,15,17,19,21,-1,-1,-1,-1,-1,-1,-1,-1,-1,-1],"loss_changes":[2.4469373E3,4.2228516E1,2.911595E2,1.7784504E1,0E0,1.21984825E2,3.080774E1,2.6368334E1,0E0,1.4266231E2,2.458258E1,5.013057E1,1.4413818E1,0E0,0E0,0E0,0E0,0E0,0E0,0E0,0E0,0E0,0E0],"parents":[2147483647,0,0,1,1,2,2,3,3,5,5,6,6,7,7,9,9,10,10,11,11,12,12],"right_children":[2,4,6,8,-1,10,12,14,-1,16,18,20,22,-1,-1,-1,-1,-1,-1,-1,-1,-1,-1],"split_conditions":[1E0,2E0,2.364E-1,1.9E1,-6.863092E-2,2.66667E-1,2.8536E-1,8E0,-6.878962E-2,1.55506E-1,1.1E2,7.21875E0,4.75E1,-6.929928E-2,8.269764E-5,-4.375562E-2,1.8112337E-2,5.1574375E-2,-7.697659E-2,4.662161E-2,-3.1810448E-2,6.0720958E-2,-7.5688325E-2],"split_indices":[7,0,3,19,0,6,3,19,0,3,18,17,17,0,0,0,0,0,0,0,0,0,0],"split_type":[0,0,0,0,0,0,0,0,0,0,0,0,0,0,0,0,0,0,0,0,0,0,0],"sum_hessian":[2.421021E3,9.023576E2,1.5186635E3,9.183329E1,8.105243E2,5.445022E2,9.7416125E2,6.810177E1,2.373152E1,3.9800925E2,1.4649294E2,2.3926324E2,7.34898E2,1.781777E1,5.0284E1,1.4678333E2,2.5122592E2,1.435269E2,2.9660394E0,2.1748944E2,2.17738E1,7.337594E2,1.1386013E0],"tree_param":{"num_deleted":"0","num_feature":"21","num_nodes":"23","size_leaf_vector":"1"}},{"base_weights":[-1.5965104E-3,-1.2930083E0,7.5723183E-1,-5.625604E-1,-6.747704E-2,8.772433E-2,1.0487429E0,-1.540795E-1,-6.862256E-2,8.101782E-1,-4.1757572E-1,-1.0301409E-1,1.0649819E0,-6.621626E-2,1.77588E-2,-8.243457E-2,4.7567055E-2,-4.7131207E-2,1.1093278E-2,3.9256882E-2,5.931005E-2],"categories":[],"categories_nodes":[],"categories_segments":[],"categories_sizes":[],"default_left":[0,0,0,0,0,0,0,0,0,0,0,0,0,0,0,0,0,0,0,0,0],"id":14,"left_children":[1,3,5,7,-1,9,11,13,-1,15,17,-1,19,-1,-1,-1,-1,-1,-1,-1,-1],"loss_changes":[2.3266848E3,3.5528076E1,2.9178516E2,2.1239168E1,0E0,1.6634131E2,5.4790894E1,2.6827982E1,0E0,6.6647194E1,9.026767E1,0E0,3.424695E1,0E0,0E0,0E0,0E0,0E0,0E0,0E0,0E0],"parents":[2147483647,0,0,1,1,2,2,3,3,5,5,6,6,7,7,9,9,10,10,12,12],"right_children":[2,4,6,8,-1,10,12,14,-1,16,18,-1,20,-1,-1,-1,-1,-1,-1,-1,-1],"split_conditions":[1E0,4.9388E-2,2.0454E-1,1.6E1,-6.747704E-2,1.304202E0,3.33333E-1,2E0,-6.862256E-2,2.57632E-1,6.393E-1,-1.0301409E-1,2.81067E-1,-6.621626E-2,1.77588E-2,-8.243457E-2,4.7567055E-2,-4.7131207E-2,1.1093278E-2,3.9256882E-2,5.931005E-2],"split_indices":[7,8,3,19,0,7,17,20,0,11,10,0,3,0,0,0,0,0,0,0,0],"split_type":[0,0,0,0,0,0,0,0,0,0,0,0,0,0,0,0,0,0,0,0,0],"sum_hessian":[2.3722664E3,8.777551E2,1.4945112E3,6.3839844E1,8.139153E2,4.5373297E2,1.0407783E3,4.322759E1,2.0612253E1,1.8649211E2,2.6724088E2,4.7538886E0,1.0360244E3,1.2622091E1,3.0605497E1,9.545356E0,1.7694675E2,1.464862E2,1.2075468E2,3.1539215E2,7.2063226E2],"tree_param":{"num_deleted":"0","num_feature":"21","num_nodes":"21","size_leaf_vector":"1"}},{"base_weights":[1.6938534E-2,-1.2490517E0,7.48293E-1,-4.856818E-1,-6.6223286E-2,8.374718E-2,1.0321425E0,-6.659557E-2,-1.6579215E-1,-3.6937216E-1,9.285658E-1,7.990632E-1,1.1482656E0,1.5855188E-2,-6.7975834E-2,-2.9569535E-2,4.5117285E-2,6.393283E-2,2.2175787E-2,2.93894E-2,5.4237407E-2,-9.468105E-2,5.7887305E-2],"categories":[],"categories_nodes":[],"categories_segments":[],"categories_sizes":[],"default_left":[0,0,0,0,0,0,0,0,0,0,0,0,0,0,0,0,0,0,0,0,0,0,0],"id":15,"left_children":[1,3,5,7,-1,9,11,-1,13,15,17,19,21,-1,-1,-1,-1,-1,-1,-1,-1,-1,-1],"loss_changes":[2.1452285E3,4.8197144E1,2.7692737E2,2.0854872E1,0E0,1.6901273E2,2.6931396E1,0E0,3.3657906E1,8.171056E1,2.5602066E1,2.0212967E1,2.1931824E1,0E0,0E0,0E0,0E0,0E0,0E0,0E0,0E0,0E0,0E0],"parents":[2147483647,0,0,1,1,2,2,3,3,5,5,6,6,8,8,9,9,10,10,11,11,12,12],"right_children":[2,4,6,8,-1,10,12,-1,14,16,18,20,22,-1,-1,-1,-1,-1,-1,-1,-1,-1,-1],"split_conditions":[1E0,6.93E-2,2.0454E-1,2E0,-6.6223286E-2,2.5641E-1,2.81067E-1,-6.659557E-2,4E0,5.02793E-1,1E1,3.07692E-1,3.77326E-1,1.5855188E-2,-6.7975834E-2,-2.9569535E-2,4.5117285E-2,6.393283E-2,2.2175787E-2,2.93894E-2,5.4237407E-2,-9.468105E-2,5.7887305E-2],"split_indices":[7,8,3,20,0,6,3,0,20,5,19,5,10,0,0,0,0,0,0,0,0,0,0],"split_type":[0,0,0,0,0,0,0,0,0,0,0,0,0,0,0,0,0,0,0,0,0,0,0],"sum_hessian":[2.3149333E3,8.473846E2,1.4675487E3,7.685626E1,7.705283E2,4.3961688E2,1.0279319E3,2.0215347E1,5.664092E1,2.8650983E2,1.5310707E2,3.444474E2,6.834845E2,4.0850193E1,1.5790723E1,2.4438046E2,4.212936E1,8.7974365E1,6.51327E1,1.9976831E2,1.4467908E2,1.5060779E0,6.819784E2],"tree_param":{"num_deleted":"0","num_feature":"21","num_nodes":"23","size_leaf_vector":"1"}},{"base_weights":[-1.4078508E-2,-1.227479E0,7.0631176E-1,-4.7252938E-1,-6.517458E-2,-1.6723509E-1,8.866742E-1,-6.387542E-2,-1.4592263E-1,6.5615517E-1,-7.874173E-1,6.1180985E-1,1.1043938E0,6.9102864E-3,-6.7019E-2,4.6483677E-2,-4.196338E-2,-6.2233623E-2,-4.8844274E-3,4.0532347E-2,1.4475518E-3,-3.4068976E-2,5.6246288E-2],"categories":[],"categories_nodes":[],"categories_segments":[],"categories_sizes":[],"default_left":[0,0,0,0,0,0,0,0,0,0,0,0,0,0,0,0,0,0,0,0,0,0,0],"id":16,"left_children":[1,3,5,7,-1,9,11,-1,13,15,17,19,21,-1,-1,-1,-1,-1,-1,-1,-1,-1,-1],"loss_changes":[1.9428851E3,4.6899414E1,2.1988672E2,2.0139408E1,0E0,1.2282887E2,6.851257E1,0E0,1.9233084E1,4.309305E1,4.310901E1,5.945987E1,2.4375061E1,0E0,0E0,0E0,0E0,0E0,0E0,0E0,0E0,0E0,0E0],"parents":[2147483647,0,0,1,1,2,2,3,3,5,5,6,6,8,8,9,9,10,10,11,11,12,12],"right_children":[2,4,6,8,-1,10,12,-1,14,16,18,20,22,-1,-1,-1,-1,-1,-1,-1,-1,-1,-1],"split_conditions":[1E0,6.93E-2,1.55506E-1,9.6731E-2,-6.517458E-2,1.304202E0,2.81067E-1,-6.387542E-2,4E0,3E0,6.87077E-1,5.08E0,1.095777E0,6.9102864E-3,-6.7019E-2,4.6483677E-2,-4.196338E-2,-6.2233623E-2,-4.8844274E-3,4.0532347E-2,1.4475518E-3,-3.4068976E-2,5.6246288E-2],"split_indices":[7,8,3,2,0,7,3,0,20,15,10,17,7,0,0,0,0,0,0,0,0,0,0],"split_type":[0,0,0,0,0,0,0,0,0,0,0,0,0,0,0,0,0,0,0,0,0,0,0],"sum_hessian":[2.2206787E3,8.270018E2,1.393677E3,7.631051E1,7.506913E2,2.3852162E2,1.1551554E3,2.1184982E1,5.5125526E1,1.02447845E2,1.3607378E2,5.122569E2,6.428985E2,4.5246845E1,9.878678E0,8.692692E1,1.5520931E1,8.134295E1,5.4730824E1,3.8166464E2,1.3059225E2,6.941799E0,6.359567E2],"tree_param":{"num_deleted":"0","num_feature":"21","num_nodes":"23","size_leaf_vector":"1"}},{"base_weights":[7.6408437E-3,-1.2266568E0,6.927483E-1,-5.1549596E-1,-6.4347945E-2,4.6832538E-1,1.1132206E0,-6.484428E-2,-1.5816042E-1,-2.5985742E-1,8.261216E-1,1.1565368E0,-6.026762E-1,6.296972E-2,-2.1775369E-2,3.3879E-2,-2.9353619E-2,3.017739E-2,6.0549993E-2,5.0671216E-2,6.2382974E-2,-9.206019E-2,5.7334047E-2],"categories":[],"categories_nodes":[],"categories_segments":[],"categories_sizes":[],"default_left":[0,0,0,0,0,0,0,0,0,0,0,0,0,0,0,0,0,0,0,0,0,0,0],"id":17,"left_children":[1,3,5,7,-1,9,11,-1,13,15,17,19,21,-1,-1,-1,-1,-1,-1,-1,-1,-1,-1],"loss_changes":[1.8560424E3,3.2933838E1,1.3266669E2,1.7359415E1,0E0,2.404288E2,3.715039E1,0E0,1.7967129E1,9.380885E1,5.2248505E1,4.9784546E0,2.970016E1,0E0,0E0,0E0,0E0,0E0,0E0,0E0,0E0,0E0,0E0],"parents":[2147483647,0,0,1,1,2,2,3,3,5,5,6,6,8,8,9,9,10,10,11,11,12,12],"right_children":[2,4,6,8,-1,10,12,-1,14,16,18,20,22,-1,-1,-1,-1,-1,-1,-1,-1,-1,-1],"split_conditions":[1E0,4.9388E-2,8.7721E-2,5.804E-3,-6.4347945E-2,2.9695404E1,8.4E1,-6.484428E-2,9.867E-3,6E0,8.903859E1,1.20879E-1,1.08562E-1,6.296972E-2,-2.1775369E-2,3.3879E-2,-2.9353619E-2,3.017739E-2,6.0549993E-2,5.0671216E-2,6.2382974E-2,-9.206019E-2,5.7334047E-2],"split_indices":[7,8,2,9,0,8,18,0,8,1,8,6,2,0,0,0,0,0,0,0,0,0,0],"split_type":[0,0,0,0,0,0,0,0,0,0,0,0,0,0,0,0,0,0,0,0,0,0,0],"sum_hessian":[2.1928674E3,7.824343E2,1.4104332E3,6.1906097E1,7.205282E2,9.209819E2,4.8945132E2,1.8601238E1,4.3304863E1,3.03525E2,6.174569E2,4.7771774E2,1.1733564E1,6.5068216E0,3.679804E1,7.825672E1,2.2526828E2,3.9284442E2,2.2461247E2,1.9055832E2,2.8715942E2,6.8390684E0,4.894496E0],"tree_param":{"num_deleted":"0","num_feature":"21","num_nodes":"23","size_leaf_vector":"1"}},{"base_weights":[3.6895674E-2,-1.2094668E0,7.036376E-1,-6.3478135E-2,-5.0809944E-1,2.535894E-1,9.9084836E-1,-9.1566086E-1,2.3181053E-1,4.2275274E-1,-1.246765E0,2.1091998E-2,1.0167916E0,-6.5057576E-2,-2.3622384E-2,4.1939564E-2,-5.545376E-2,-1.7245382E-2,3.0557929E-2,-1.7101662E-3,-9.162028E-2,4.554109E-2,-1.385441E-1,4.577595E-2,6.356612E-2],"categories":[],"categories_nodes":[],"categories_segments":[],"categories_sizes":[],"default_left":[0,0,0,0,0,0,0,0,0,0,0,0,0,0,0,0,0,0,0,0,0,0,0,0,0],"id":18,"left_children":[1,3,5,-1,7,9,11,13,15,17,19,21,23,-1,-1,-1,-1,-1,-1,-1,-1,-1,-1,-1,-1],"loss_changes":[1.8414391E3,3.1906372E1,1.8634814E2,0E0,1.9095146E1,1.4360344E2,2.2140442E1,6.3183746E0,1.9681244E1,7.359011E1,4.067901E1,6.207481E1,2.095044E1,0E0,0E0,0E0,0E0,0E0,0E0,0E0,0E0,0E0,0E0,0E0,0E0],"parents":[2147483647,0,0,1,1,2,2,4,4,5,5,6,6,7,7,8,8,9,9,10,10,11,11,12,12],"right_children":[2,4,6,-1,8,10,12,14,16,18,20,22,24,-1,-1,-1,-1,-1,-1,-1,-1,-1,-1,-1,-1],"split_conditions":[1E0,1E0,2.364E-1,-6.3478135E-2,1E0,1.7E1,1.095777E0,3E0,6.93E-2,6.1224E-2,6E0,3.6E1,8.443326E1,-6.5057576E-2,-2.3622384E-2,4.1939564E-2,-5.545376E-2,-1.7245382E-2,3.0557929E-2,-1.7101662E-3,-9.162028E-2,4.554109E-2,-1.385441E-1,4.577595E-2,6.356612E-2],"split_indices":[7,6,3,0,13,15,7,20,8,6,19,1,8,0,0,0,0,0,0,0,0,0,0,0,0],"split_type":[0,0,0,0,0,0,0,0,0,0,0,0,0,0,0,0,0,0,0,0,0,0,0,0,0],"sum_hessian":[2.2139019E3,7.712901E2,1.4426118E3,7.096725E2,6.1617603E1,5.627256E2,8.798862E2,3.9578964E1,2.2038641E1,5.0635303E2,5.6372528E1,2.297286E1,8.569134E2,2.0132622E1,1.944634E1,1.5428878E1,6.609763E0,9.962003E1,4.06733E2,1.8704172E1,3.7668358E1,1.7932127E1,5.040733E0,6.1629803E2,2.4061534E2],"tree_param":{"num_deleted":"0","num_feature":"21","num_nodes":"25","size_leaf_vector":"1"}},{"base_weights":[-2.6471075E-2,-1.1900624E0,6.224789E-1,-6.41602E-1,-6.254977E-2,8.399998E-2,9.2181635E-1,-9.72406E-1,1.9970813E-3,-1.8521072E-1,8.289463E-1,-9.43863E-2,9.33438E-1,1.3699387E-2,-6.6793546E-2,1.2946198E-2,-5.332737E-2,-8.9903004E-2,-2.2479072E-3,4.490276E-2,-7.708938E-2,4.2227328E-2,6.2842004E-2],"categories":[],"categories_nodes":[],"categories_segments":[],"categories_sizes":[],"default_left":[0,0,0,0,0,0,0,0,0,0,0,0,0,0,0,0,0,0,0,0,0,0,0],"id":19,"left_children":[1,3,5,7,-1,9,11,13,15,17,19,-1,21,-1,-1,-1,-1,-1,-1,-1,-1,-1,-1],"loss_changes":[1.5559044E3,2.385144E1,2.1313977E2,1.614373E1,0E0,9.515535E1,2.9518616E1,2.3053036E1,7.616554E0,7.8815704E1,2.2016937E1,0E0,2.3294922E1,0E0,0E0,0E0,0E0,0E0,0E0,0E0,0E0,0E0,0E0],"parents":[2147483647,0,0,1,1,2,2,3,3,5,5,6,6,7,7,8,8,9,9,10,10,12,12],"right_children":[2,4,6,8,-1,10,12,14,16,18,20,-1,22,-1,-1,-1,-1,-1,-1,-1,-1,-1,-1],"split_conditions":[1E0,1E0,2.2035E-1,1E0,-6.254977E-2,2.91667E-1,1.95122E-1,9.524E-3,2E0,2.6219E-1,1.1E2,-9.43863E-2,1.43E2,1.3699387E-2,-6.6793546E-2,1.2946198E-2,-5.332737E-2,-8.9903004E-2,-2.2479072E-3,4.490276E-2,-7.708938E-2,4.2227328E-2,6.2842004E-2],"split_indices":[7,1,3,13,0,6,17,6,0,11,18,0,1,0,0,0,0,0,0,0,0,0,0],"split_type":[0,0,0,0,0,0,0,0,0,0,0,0,0,0,0,0,0,0,0,0,0,0,0],"sum_hessian":[2.0585122E3,7.367172E2,1.321795E3,7.481679E1,6.619004E2,4.7271225E2,8.490828E2,4.9079487E1,2.5737303E1,3.4778143E2,1.249308E2,2.8327436E0,8.4625006E2,1.1136471E1,3.7943016E1,2.135925E1,4.378053E0,2.6877748E1,3.209037E2,1.2199572E2,2.935086E0,6.6662946E2,1.796206E2],"tree_param":{"num_deleted":"0","num_feature":"21","num_nodes":"23","size_leaf_vector":"1"}},{"base_weights":[3.202742E-3,-1.050795E0,1.5178339E-1,-6.2915884E-2,-5.981352E-1,-3.8000685E-1,4.2938724E-1,-8.7812376E-1,5.556689E-1,-7.3646486E-1,2.7396485E-1,5.667166E-2,6.8070555E-1,-5.3366512E-2,4.6194118E-2,-4.0649876E-2,3.9814122E-2,-5.886224E-2,-1.9452088E-2,-1.2888952E-2,4.615664E-2,-5.376177E-2,3.9728902E-2,1.5374157E-2,4.396572E-2],"categories":[],"categories_nodes":[],"categories_segments":[],"categories_sizes":[],"default_left":[0,0,0,0,0,0,0,0,0,0,0,0,0,0,0,0,0,0,0,0,0,0,0,0,0],"id":20,"left_children":[1,3,5,-1,7,9,11,13,15,17,19,21,23,-1,-1,-1,-1,-1,-1,-1,-1,-1,-1,-1,-1],"loss_changes":[3.2036002E2,2.2989746E1,2.6484488E2,0E0,2.6769802E1,1.4367319E2,1.1034721E2,2.3439629E1,6.080915E0,6.0583755E1,7.543753E1,3.9817072E2,5.1896057E1,0E0,0E0,0E0,0E0,0E0,0E0,0E0,0E0,0E0,0E0,0E0,0E0],"parents":[2147483647,0,0,1,1,2,2,4,4,5,5,6,6,7,7,8,8,9,9,10,10,11,11,12,12],"right_children":[2,4,6,-1,8,10,12,14,16,18,20,22,24,-1,-1,-1,-1,-1,-1,-1,-1,-1,-1,-1,-1],"split_conditions":[3.7083E-2,7.54464E-1,7E0,-6.2915884E-2,3.3333E-2,9.6063E-2,6.5678E-2,2.959837E0,3.52186E-1,1E-1,5E0,4.375E-1,1.34615E-1,-5.3366512E-2,4.6194118E-2,-4.0649876E-2,3.9814122E-2,-5.886224E-2,-1.9452088E-2,-1.2888952E-2,4.615664E-2,-5.376177E-2,3.9728902E-2,1.5374157E-2,4.396572E-2],"split_indices":[2,5,16,0,2,2,2,10,10,5,1,5,5,0,0,0,0,0,0,0,0,0,0,0,0],"split_type":[0,0,0,0,0,0,0,0,0,0,0,0,0,0,0,0,0,0,0,0,0,0,0,0,0],"sum_hessian":[2.0436554E3,2.5174695E2,1.7919084E3,1.7139207E2,8.035487E1,6.144575E2,1.1774509E3,6.485558E1,1.5499289E1,3.976084E2,2.168491E2,4.746905E2,7.0276044E2,5.9061916E1,5.793667E0,1.9617182E0,1.3537571E1,1.742045E2,2.234039E2,1.19537186E2,9.731193E1,1.8715227E2,2.8753824E2,2.4496828E2,4.5779214E2],"tree_param":{"num_deleted":"0","num_feature":"21","num_nodes":"25","size_leaf_vector":"1"}},{"base_weights":[1.0545908E-2,-1.1893313E0,6.2442255E-1,-6.152265E-2,-6.883546E-1,1.2655641E-1,9.0706754E-1,-6.544652E-2,2.8880587E-1,-2.060698E-1,9.153085E-1,7.965978E-1,1.2081512E0,4.192045E-2,-5.38189E-2,-3.612828E-2,1.0013477E-2,6.111529E-2,1.8610356E-2,2.917451E-2,5.025461E-2,1.1242965E-2,6.1381515E-2],"categories":[],"categories_nodes":[],"categories_segments":[],"categories_sizes":[],"default_left":[0,0,0,0,0,0,0,0,0,0,0,0,0,0,0,0,0,0,0,0,0,0,0],"id":21,"left_children":[1,3,5,-1,7,9,11,-1,13,15,17,19,21,-1,-1,-1,-1,-1,-1,-1,-1,-1,-1],"loss_changes":[1.5014648E3,1.336615E1,1.8964575E2,0E0,3.3490715E1,1.2861185E2,2.764209E1,0E0,1.743056E1,7.257479E1,2.3784111E1,2.749887E1,4.108429E0,0E0,0E0,0E0,0E0,0E0,0E0,0E0,0E0,0E0,0E0],"parents":[2147483647,0,0,1,1,2,2,4,4,5,5,6,6,8,8,9,9,10,10,11,11,12,12],"right_children":[2,4,6,-1,8,10,12,-1,14,16,18,20,22,-1,-1,-1,-1,-1,-1,-1,-1,-1,-1],"split_conditions":[1E0,1E0,2.2035E-1,-6.152265E-2,1E0,3E-1,8.443326E1,-6.544652E-2,6.93E-2,1.59275E-1,1.216766E0,3.27133E-1,1.080759E0,4.192045E-2,-5.38189E-2,-3.612828E-2,1.0013477E-2,6.111529E-2,1.8610356E-2,2.917451E-2,5.025461E-2,1.1242965E-2,6.1381515E-2],"split_indices":[7,6,3,0,13,6,8,0,8,3,7,3,7,0,0,0,0,0,0,0,0,0,0],"split_type":[0,0,0,0,0,0,0,0,0,0,0,0,0,0,0,0,0,0,0,0,0,0,0],"sum_hessian":[2.0364287E3,6.889251E2,1.3475037E3,6.3531995E2,5.3605167E1,4.884932E2,8.5901044E2,3.2576767E1,2.1028397E1,3.4411465E2,1.4437854E2,6.3110077E2,2.2790967E2,1.5267706E1,5.7606916E0,1.5117662E2,1.9293803E2,9.143995E1,5.293859E1,3.139761E2,3.1712466E2,4.6708565E0,2.232388E2],"tree_param":{"num_deleted":"0","num_feature":"21","num_nodes":"23","size_leaf_vector":"1"}}]},"name":"gbtree"},"learner_model_param":{"base_score":"5E-1","boost_from_average":"1","num_class":"0","num_feature":"21","num_target":"1"},"objective":{"name":"binary:logistic","reg_loss_param":{"scale_pos_weight":"20.0449448"}}},"version":[2,0,3]}