{"learner":{"attributes":{"best_iteration":"3","best_score":"0.11504151752194712","scikit_learn":"{\"_estimator_type\": \"classifier\"}"},"feature_names":["n_early_buyers","n_reliable_wallets","avg_wallet_score","max_wallet_score","pct_high_score_wallets","pct_negative_wallets","pct_new_wallets","avg_cooccurrence_score","total_volume_sol","avg_buy_size_sol","std_buy_size_sol","concentration_top5","n_tier1_buyers","creator_is_buyer","buys_in_first_20s","buys_20s_to_60s","buys_60s_to_180s","acceleration_ratio","time_to_5th_buy","hour_utc","day_of_week"],"feature_types":["int","int","float","float","float","float","float","float","float","float","float","float","int","int","int","int","int","float","float","int","int"],"gradient_booster":{"model":{"gbtree_model_param":{"num_parallel_tree":"1","num_trees":"24"},"iteration_indptr":[0,1,2,3,4,5,6,7,8,9,10,11,12,13,14,15,16,17,18,19,20,21,22,23,24],"tree_info":[0,0,0,0,0,0,0,0,0,0,0,0,0,0,0,0,0,0,0,0,0,0,0,0],"trees":[{"base_weights":[-5.397038E-3,-1.0553807E0,1.1283113E0,-1.363766E0,-6.118191E-1,6.471837E-1,1.539563E0,-1.0886277E0,-1.6218121E0,-1.5612257E-1,-1.7809211E0,6.961374E-1,-9.493671E-2,-7.647059E-2,1.5491323E0,-4.546708E-2,-8.630734E-2,-9.298125E-2,-6.3582376E-2,-1.8378405E-2,3.690621E-2,-2.7091492E-2,-9.568534E-2,2.2943338E-2,5.367225E-2,7.78635E-2,-7.333334E-2],"categories":[],"categories_nodes":[],"categories_segments":[],"categories_sizes":[],"default_left":[0,0,0,0,0,0,0,0,0,0,0,0,0,0,0,0,0,0,0,0,0,0,0,0,0,0,0],"id":0,"left_children":[1,3,5,7,9,11,13,15,17,19,21,23,-1,-1,25,-1,-1,-1,-1,-1,-1,-1,-1,-1,-1,-1,-1],"loss_changes":[5.5381597E3,3.295647E2,4.4163403E2,9.933594E1,5.2843506E2,1.3002448E2,3.7769043E1,7.754956E1,5.865674E1,1.3549934E2,4.4742676E1,9.0276794E1,0E0,0E0,3.1785889E1,0E0,0E0,0E0,0E0,0E0,0E0,0E0,0E0,0E0,0E0,0E0,0E0],"parents":[2147483647,0,0,1,1,2,2,3,3,4,4,5,5,6,6,7,7,8,8,9,9,10,10,11,11,14,14],"right_children":[2,4,6,8,10,12,14,16,18,20,22,24,-1,-1,26,-1,-1,-1,-1,-1,-1,-1,-1,-1,-1,-1,-1],"split_conditions":[2.17029E-1,1.3515E-1,3.0848E-1,4.47567E-1,8.6E1,9.9E1,3.65704E-1,1.9E1,7.89946E-1,2.85714E-1,1E0,9.0909E-2,-9.493671E-2,-7.647059E-2,2.11E2,-4.546708E-2,-8.630734E-2,-9.298125E-2,-6.3582376E-2,-1.8378405E-2,3.690621E-2,-2.7091492E-2,-9.568534E-2,2.2943338E-2,5.367225E-2,7.78635E-2,-7.333334E-2],"split_indices":[3,3,3,9,0,15,10,19,9,6,20,6,0,0,16,0,0,0,0,0,0,0,0,0,0,0,0],"split_type":[0,0,0,0,0,0,0,0,0,0,0,0,0,0,0,0,0,0,0,0,0,0,0,0,0,0,0],"sum_hessian":[4.6504478E3,2.414411E3,2.236037E3,1.4229991E3,9.914118E2,1.0316605E3,1.2043765E3,6.912168E2,7.3178235E2,7.141727E2,2.7723907E2,1.0129105E3,1.875E1,3.25E0,1.2011265E3,5.4139075E2,1.4982605E2,4.3323907E2,2.9854327E2,5.780752E2,1.3609749E2,2.732605E1,2.4991302E2,6.23216E2,3.8969455E2,1.1983765E3,2.75E0],"tree_param":{"num_deleted":"0","num_feature":"21","num_nodes":"27","size_leaf_vector":"1"}},{"base_weights":[-8.591297E-3,-1.8737116E0,1.0509614E0,-1.064407E0,-9.779202E-2,8.541107E-2,1.5581177E0,-7.3900884E-1,-9.469315E-2,-1.7916617E-1,1.449417E0,1.3044153E0,1.7305058E0,-9.299356E-2,-2.3679486E-2,-3.543974E-2,1.9282883E-2,9.858661E-2,5.0451584E-2,-2.0553088E-2,6.660728E-2,-5.7757616E-2,8.67615E-2],"categories":[],"categories_nodes":[],"categories_segments":[],"categories_sizes":[],"default_left":[0,0,0,0,0,0,0,0,0,0,0,0,0,0,0,0,0,0,0,0,0,0,0],"id":1,"left_children":[1,3,5,7,-1,9,11,13,-1,15,17,19,21,-1,-1,-1,-1,-1,-1,-1,-1,-1,-1],"loss_changes":[9.240114E3,1.1050781E2,1.4600088E3,4.1314545E1,0E0,3.7121356E2,8.324072E1,3.342239E1,0E0,2.5807794E2,3.6447083E1,3.836499E1,1.7830566E1,0E0,0E0,0E0,0E0,0E0,0E0,0E0,0E0,0E0,0E0],"parents":[2147483647,0,0,1,1,2,2,3,3,5,5,6,6,7,7,9,9,10,10,11,11,12,12],"right_children":[2,4,6,8,-1,10,12,14,-1,16,18,20,22,-1,-1,-1,-1,-1,-1,-1,-1,-1,-1],"split_conditions":[1E0,1E0,2.1865E-1,9.8765E-2,-9.779202E-2,3.75E-1,3.0848E-1,2E0,-9.469315E-2,7.0244E-2,1.018748E0,1.066667E0,3.47972E-1,-9.299356E-2,-2.3679486E-2,-3.543974E-2,1.9282883E-2,9.858661E-2,5.0451584E-2,-2.0553088E-2,6.660728E-2,-5.7757616E-2,8.67615E-2],"split_indices":[7,1,3,9,0,6,3,20,0,2,7,7,10,0,0,0,0,0,0,0,0,0,0],"split_type":[0,0,0,0,0,0,0,0,0,0,0,0,0,0,0,0,0,0,0,0,0,0,0],"sum_hessian":[4.673718E3,1.6929196E3,2.9807983E3,1.5725702E2,1.5356626E3,1.0269008E3,1.9538976E3,1.1430555E2,4.2951466E1,8.607995E2,1.6610127E2,7.9397546E2,1.1599221E3,2.0734915E1,9.357063E1,4.4410892E2,4.1669058E2,7.439199E1,9.170928E1,1.2410362E1,7.815651E2,1.4978092E0,1.1584243E3],"tree_param":{"num_deleted":"0","num_feature":"21","num_nodes":"23","size_leaf_vector":"1"}},{"base_weights":[-1.2074143E-2,-1.8106488E0,1.0036002E0,-1.3044198E0,-9.336467E-2,1.2882625E-1,1.47798E0,-1.6820631E0,-6.686324E-1,1.59445E0,-1.3374412E-1,1.2237375E0,1.6384635E0,-9.296759E-2,-4.4289958E-2,-6.125733E-3,-8.934887E-2,-7.68622E-2,8.427905E-2,-3.9092347E-2,2.2292942E-2,-1.8517649E-2,6.3814014E-2,7.8415774E-2,8.878014E-2],"categories":[],"categories_nodes":[],"categories_segments":[],"categories_sizes":[],"default_left":[0,0,0,0,0,0,0,0,0,0,0,0,0,0,0,0,0,0,0,0,0,0,0,0,0],"id":2,"left_children":[1,3,5,7,-1,9,11,13,15,17,19,21,23,-1,-1,-1,-1,-1,-1,-1,-1,-1,-1,-1,-1],"loss_changes":[8.441503E3,4.5387207E1,1.225345E3,3.9968536E1,0E0,4.0024515E2,7.612109E1,1.3417511E1,3.9746445E1,4.7687073E1,3.3184988E2,6.2863403E1,8.479248E0,0E0,0E0,0E0,0E0,0E0,0E0,0E0,0E0,0E0,0E0,0E0,0E0],"parents":[2147483647,0,0,1,1,2,2,3,3,5,5,6,6,7,7,8,8,9,9,10,10,11,11,12,12],"right_children":[2,4,6,8,-1,10,12,14,16,18,20,22,24,-1,-1,-1,-1,-1,-1,-1,-1,-1,-1,-1,-1],"split_conditions":[1E0,1.03689E-1,2.17029E-1,4.9333E-2,-9.336467E-2,1.018748E0,3.0168E-1,1E0,1.4E1,4.55649E-1,7.0244E-2,1.129138E0,7.5152405E1,-9.296759E-2,-4.4289958E-2,-6.125733E-3,-8.934887E-2,-7.68622E-2,8.427905E-2,-3.9092347E-2,2.2292942E-2,-1.8517649E-2,6.3814014E-2,7.8415774E-2,8.878014E-2],"split_indices":[7,8,3,9,0,7,3,13,19,11,2,7,8,0,0,0,0,0,0,0,0,0,0,0,0],"split_type":[0,0,0,0,0,0,0,0,0,0,0,0,0,0,0,0,0,0,0,0,0,0,0,0,0],"sum_hessian":[4.619014E3,1.6667393E3,2.9522747E3,1.7014977E2,1.4965895E3,1.0385046E3,1.91377E3,1.0571299E2,6.443677E1,1.5701285E2,8.814918E2,7.4389514E2,1.1698749E3,8.537016E1,2.0342825E1,4.404027E1,2.0396492E1,3.9910965E0,1.5302174E2,4.1598978E2,4.6550208E2,2.3544123E1,7.203511E2,7.822054E2,3.876695E2],"tree_param":{"num_deleted":"0","num_feature":"21","num_nodes":"25","size_leaf_vector":"1"}},{"base_weights":[3.3479407E-2,-1.722762E0,9.795212E-1,-1.020436E0,-8.949899E-2,1.1665516E0,4.1013375E-1,-6.9585544E-1,-8.729288E-2,8.2825357E-1,1.3684031E0,-3.422517E-1,5.640928E-1,-8.8583864E-2,-2.0226682E-2,4.4679206E-2,-1.7878551E-2,6.278084E-2,8.699558E-2,-6.9322E-2,2.6353025E-3,-1.5753674E-3,3.7956588E-2],"categories":[],"categories_nodes":[],"categories_segments":[],"categories_sizes":[],"default_left":[0,0,0,0,0,0,0,0,0,0,0,0,0,0,0,0,0,0,0,0,0,0,0],"id":3,"left_children":[1,3,5,7,-1,9,11,13,-1,15,17,19,21,-1,-1,-1,-1,-1,-1,-1,-1,-1,-1],"loss_changes":[7.828814E3,7.605029E1,3.2563696E2,3.3259933E1,0E0,1.5623828E2,8.8081406E1,3.1507572E1,0E0,6.7234985E1,5.8230225E1,5.3482655E1,7.323369E1,0E0,0E0,0E0,0E0,0E0,0E0,0E0,0E0,0E0,0E0],"parents":[2147483647,0,0,1,1,2,2,3,3,5,5,6,6,7,7,9,9,10,10,11,11,12,12],"right_children":[2,4,6,8,-1,10,12,14,-1,16,18,20,22,-1,-1,-1,-1,-1,-1,-1,-1,-1,-1],"split_conditions":[1E0,1E0,5.642857E0,1.03689E-1,-8.949899E-2,1.97368E-1,4.13983E-1,7E0,-8.729288E-2,2.2E1,1.0439431E2,5.8824E-2,1.666667E0,-8.8583864E-2,-2.0226682E-2,4.4679206E-2,-1.7878551E-2,6.278084E-2,8.699558E-2,-6.9322E-2,2.6353025E-3,-1.5753674E-3,3.7956588E-2],"split_indices":[7,1,17,8,0,5,9,19,0,19,8,5,7,0,0,0,0,0,0,0,0,0,0],"split_type":[0,0,0,0,0,0,0,0,0,0,0,0,0,0,0,0,0,0,0,0,0,0,0],"sum_hessian":[4.709943E3,1.6486155E3,3.0613271E3,1.454161E2,1.5031993E3,2.3036E3,7.577272E2,1.0181814E2,4.3597977E1,8.627523E2,1.4408478E3,1.2850597E2,6.292212E2,2.0613407E1,8.120473E1,8.179362E2,4.4816082E1,1.1086519E3,3.3219592E2,3.457811E1,9.3927864E1,1.5542635E2,4.7379486E2],"tree_param":{"num_deleted":"0","num_feature":"21","num_nodes":"23","size_leaf_vector":"1"}},{"base_weights":[1.6766874E-2,-1.6567497E0,9.294679E-1,-1.0048187E0,-8.610668E-2,9.71495E-2,1.3812826E0,-7.416693E-1,-8.391913E-2,-2.5610396E-1,1.1501087E0,1.1457263E0,1.5487165E0,-8.539175E-2,-2.3121765E-2,-3.758055E-2,1.3569981E-2,6.26693E-2,-8.7995246E-2,5.1501937E-2,7.7783816E-2,4.541188E-2,7.826512E-2],"categories":[],"categories_nodes":[],"categories_segments":[],"categories_sizes":[],"default_left":[0,0,0,0,0,0,0,0,0,0,0,0,0,0,0,0,0,0,0,0,0,0,0],"id":4,"left_children":[1,3,5,7,-1,9,11,13,-1,15,17,19,21,-1,-1,-1,-1,-1,-1,-1,-1,-1,-1],"loss_changes":[7.054301E3,6.774512E1,1.1237163E3,2.5513855E1,0E0,3.9181183E2,7.461963E1,2.8980656E1,0E0,2.0642801E2,8.172797E1,3.674695E1,1.0575195E1,0E0,0E0,0E0,0E0,0E0,0E0,0E0,0E0,0E0,0E0],"parents":[2147483647,0,0,1,1,2,2,3,3,5,5,6,6,7,7,9,9,10,10,11,11,12,12],"right_children":[2,4,6,8,-1,10,12,14,-1,16,18,20,22,-1,-1,-1,-1,-1,-1,-1,-1,-1,-1],"split_conditions":[1E0,1E0,2.17029E-1,9.8765E-2,-8.610668E-2,3.33333E-1,3.0848E-1,7E0,-8.391913E-2,6.9145E-2,2.1E1,1.49E2,1.144019E0,-8.539175E-2,-2.3121765E-2,-3.758055E-2,1.3569981E-2,6.26693E-2,-8.7995246E-2,5.1501937E-2,7.7783816E-2,4.541188E-2,7.826512E-2],"split_indices":[7,1,3,9,0,6,3,19,0,2,19,0,7,0,0,0,0,0,0,0,0,0,0],"split_type":[0,0,0,0,0,0,0,0,0,0,0,0,0,0,0,0,0,0,0,0,0,0,0],"sum_hessian":[4.616433E3,1.6288959E3,2.987537E3,1.4996739E2,1.4789285E3,1.051575E3,1.9359623E3,1.0934815E2,4.0619247E1,7.879764E2,2.6359857E2,8.0760986E2,1.1283524E3,2.3370106E1,8.597804E1,4.0609183E2,3.8188452E2,2.5511377E2,8.484793E0,6.326025E2,1.7500734E2,2.988977E1,1.0984626E3],"tree_param":{"num_deleted":"0","num_feature":"21","num_nodes":"23","size_leaf_vector":"1"}},{"base_weights":[9.785941E-3,-1.6101226E0,8.876631E-1,-1.0458618E0,-8.314728E-2,6.7717505E-1,1.405885E0,-7.50678E-1,-8.163132E-2,-5.9359974E-1,9.891915E-1,7.3173743E-1,1.4796957E0,-8.276909E-2,-2.3920527E-2,-6.791056E-2,-5.313743E-3,2.9383127E-2,6.6547535E-2,-5.9473883E-2,7.496425E-2,6.639309E-2,7.999229E-2],"categories":[],"categories_nodes":[],"categories_segments":[],"categories_sizes":[],"default_left":[0,0,0,0,0,0,0,0,0,0,0,0,0,0,0,0,0,0,0,0,0,0,0],"id":5,"left_children":[1,3,5,7,-1,9,11,13,-1,15,17,19,21,-1,-1,-1,-1,-1,-1,-1,-1,-1,-1],"loss_changes":[6.5378325E3,4.6421875E1,3.2427515E2,2.3197739E1,0E0,8.420712E2,4.1725098E1,2.277248E1,0E0,1.559766E2,2.3308948E2,1.2989114E2,1.2003052E1,0E0,0E0,0E0,0E0,0E0,0E0,0E0,0E0,0E0,0E0],"parents":[2147483647,0,0,1,1,2,2,3,3,5,5,6,6,7,7,9,9,10,10,11,11,12,12],"right_children":[2,4,6,8,-1,10,12,14,-1,16,18,20,22,-1,-1,-1,-1,-1,-1,-1,-1,-1,-1],"split_conditions":[1E0,1E0,3.89423E-1,1.03689E-1,-8.314728E-2,6.5563E-2,3.89E-2,2E0,-8.163132E-2,5.4331E-2,8.7467E-2,6.25E-1,5.39823E-1,-8.276909E-2,-2.3920527E-2,-6.791056E-2,-5.313743E-3,2.9383127E-2,6.6547535E-2,-5.9473883E-2,7.496425E-2,6.639309E-2,7.999229E-2],"split_indices":[7,1,5,8,0,2,2,20,0,2,2,5,5,0,0,0,0,0,0,0,0,0,0],"split_type":[0,0,0,0,0,0,0,0,0,0,0,0,0,0,0,0,0,0,0,0,0,0,0],"sum_hessian":[4.5953657E3,1.6148041E3,2.9805618E3,1.4000934E2,1.4747947E3,2.121266E3,8.592957E2,9.466535E1,4.5343983E1,4.179883E2,1.7032777E3,8.587488E1,7.7342084E2,2.0723684E1,7.3941666E1,1.6200922E2,2.5597911E2,7.844069E2,9.188708E2,2.4357344E1,6.1517536E1,3.4698566E2,4.264352E2],"tree_param":{"num_deleted":"0","num_feature":"21","num_nodes":"23","size_leaf_vector":"1"}},{"base_weights":[1.1723157E-2,-1.5809456E0,8.490309E-1,-1.272402E0,-8.056506E-2,3.2477763E-2,1.2830441E0,-8.253426E-2,-9.4672793E-1,-2.6642874E-1,1.2827066E0,1.0916194E0,1.467411E0,1.0747422E-2,-8.162632E-2,1.1761123E-2,-3.857972E-2,8.416573E-2,4.2297393E-2,-9.5713876E-2,5.6104805E-2,3.216107E-2,7.385932E-2],"categories":[],"categories_nodes":[],"categories_segments":[],"categories_sizes":[],"default_left":[0,0,0,0,0,0,0,0,0,0,0,0,0,0,0,0,0,0,0,0,0,0,0],"id":6,"left_children":[1,3,5,7,-1,9,11,-1,13,15,17,19,21,-1,-1,-1,-1,-1,-1,-1,-1,-1,-1],"loss_changes":[6.032731E3,1.2549805E1,1.0507407E3,1.622406E1,0E0,3.8526956E2,6.672266E1,0E0,6.40278E1,2.110553E2,3.3380676E1,8.951697E1,6.9716797E0,0E0,0E0,0E0,0E0,0E0,0E0,0E0,0E0,0E0,0E0],"parents":[2147483647,0,0,1,1,2,2,3,3,5,5,6,6,8,8,9,9,10,10,11,11,12,12],"right_children":[2,4,6,8,-1,10,12,-1,14,16,18,20,22,-1,-1,-1,-1,-1,-1,-1,-1,-1,-1],"split_conditions":[1E0,2E0,2.17029E-1,1.3E1,-8.056506E-2,3.75E-1,3.2935E-1,-8.253426E-2,1.6E1,3.449275E0,1.018748E0,1.066667E0,3.65003E-1,1.0747422E-2,-8.162632E-2,1.1761123E-2,-3.857972E-2,8.416573E-2,4.2297393E-2,-9.5713876E-2,5.6104805E-2,3.216107E-2,7.385932E-2],"split_indices":[7,0,3,19,0,6,3,0,19,17,7,7,9,0,0,0,0,0,0,0,0,0,0],"split_type":[0,0,0,0,0,0,0,0,0,0,0,0,0,0,0,0,0,0,0,0,0,0,0],"sum_hessian":[4.5217935E3,1.5577885E3,2.9640051E3,1.4337698E2,1.4144114E3,1.0290408E3,1.9349644E3,6.444875E1,7.892824E1,8.311219E2,1.9791891E2,9.5270746E2,9.8225696E2,2.9553698E1,4.937454E1,4.1727966E2,4.1384225E2,1.0174308E2,9.617583E1,8.942092E0,9.437654E2,1.2296393E1,9.699606E2],"tree_param":{"num_deleted":"0","num_feature":"21","num_nodes":"23","size_leaf_vector":"1"}},{"base_weights":[-3.0569868E-2,-1.4984428E0,7.81318E-1,-8.6952835E-1,-7.81348E-2,2.674221E-2,1.2208813E0,-7.849014E-2,-6.1265546E-1,-2.4976134E-1,8.4995526E-1,9.8188484E-1,1.3938746E0,-1.2395525E-2,-7.9160996E-2,-5.7560265E-2,4.3918714E-3,1.6048415E-2,6.2783025E-2,3.755159E-2,6.584663E-2,-5.8916427E-2,6.990617E-2],"categories":[],"categories_nodes":[],"categories_segments":[],"categories_sizes":[],"default_left":[0,0,0,0,0,0,0,0,0,0,0,0,0,0,0,0,0,0,0,0,0,0,0],"id":7,"left_children":[1,3,5,7,-1,9,11,-1,13,15,17,19,21,-1,-1,-1,-1,-1,-1,-1,-1,-1,-1],"loss_changes":[5.223317E3,6.1715576E1,9.359961E2,2.546994E1,0E0,2.3689774E2,7.23584E1,0E0,3.824571E1,2.3721701E2,5.5754913E1,5.7187805E1,1.2926758E1,0E0,0E0,0E0,0E0,0E0,0E0,0E0,0E0,0E0,0E0],"parents":[2147483647,0,0,1,1,2,2,3,3,5,5,6,6,8,8,9,9,10,10,11,11,12,12],"right_children":[2,4,6,8,-1,10,12,-1,14,16,18,20,22,-1,-1,-1,-1,-1,-1,-1,-1,-1,-1],"split_conditions":[1E0,1E0,2.1865E-1,8E0,-7.81348E-2,8.6669E-2,3.0848E-1,-7.849014E-2,1.9E1,1.11111E-1,5.7143E-2,3.30357E-1,3.47972E-1,-1.2395525E-2,-7.9160996E-2,-5.7560265E-2,4.3918714E-3,1.6048415E-2,6.2783025E-2,3.755159E-2,6.584663E-2,-5.8916427E-2,6.990617E-2],"split_indices":[7,1,3,19,0,2,3,0,19,5,5,5,10,0,0,0,0,0,0,0,0,0,0],"split_type":[0,0,0,0,0,0,0,0,0,0,0,0,0,0,0,0,0,0,0,0,0,0,0],"sum_hessian":[4.380921E3,1.5598698E3,2.821051E3,1.459394E2,1.4139303E3,1.038821E3,1.7822299E3,3.7794544E1,1.0814486E2,7.7815E2,2.6067105E2,7.511562E2,1.0310737E3,7.951717E1,2.8627686E1,2.1136389E2,5.6678613E2,1.13922295E2,1.4674875E2,4.466494E2,3.0450677E2,1.2446139E0,1.0298291E3],"tree_param":{"num_deleted":"0","num_feature":"21","num_nodes":"23","size_leaf_vector":"1"}},{"base_weights":[4.118857E-3,-1.4563841E0,7.782741E-1,-8.3099025E-1,-7.604132E-2,5.597272E-1,1.2527198E0,-5.366664E-1,-7.5513E-2,-4.5451912E-1,8.739219E-1,7.584005E-1,1.3208588E0,-7.6507375E-2,-1.3585585E-2,-5.0972175E-2,8.204854E-4,3.1827677E-2,6.8851195E-2,5.5230405E-2,-2.738536E-2,6.786796E-2,5.2790523E-2],"categories":[],"categories_nodes":[],"categories_segments":[],"categories_sizes":[],"default_left":[0,0,0,0,0,0,0,0,0,0,0,0,0,0,0,0,0,0,0,0,0,0,0],"id":8,"left_children":[1,3,5,7,-1,9,11,13,-1,15,17,19,21,-1,-1,-1,-1,-1,-1,-1,-1,-1,-1],"loss_changes":[4.9752295E3,6.0172607E1,2.9749683E2,2.8100601E1,0E0,6.284154E2,2.9519653E1,2.6550406E1,0E0,1.24194725E2,1.7884851E2,5.1305984E1,6.258301E0,0E0,0E0,0E0,0E0,0E0,0E0,0E0,0E0,0E0,0E0],"parents":[2147483647,0,0,1,1,2,2,3,3,5,5,6,6,7,7,9,9,10,10,11,11,12,12],"right_children":[2,4,6,8,-1,10,12,14,-1,16,18,20,22,-1,-1,-1,-1,-1,-1,-1,-1,-1,-1],"split_conditions":[1E0,1E0,8.8758E-2,1.03689E-1,-7.604132E-2,1.57895E-1,4E0,2E0,-7.5513E-2,7.329E-2,8.803312E1,2.377591E0,7.88093E-1,-7.6507375E-2,-1.3585585E-2,-5.0972175E-2,8.204854E-4,3.1827677E-2,6.8851195E-2,5.5230405E-2,-2.738536E-2,6.786796E-2,5.2790523E-2],"split_indices":[7,1,2,8,0,5,12,20,0,2,8,7,11,0,0,0,0,0,0,0,0,0,0],"split_type":[0,0,0,0,0,0,0,0,0,0,0,0,0,0,0,0,0,0,0,0,0,0,0],"sum_hessian":[4.3983013E3,1.5234034E3,2.874898E3,1.4360956E2,1.379794E3,1.9697428E3,9.051552E2,1.01444336E2,4.216522E1,4.657658E2,1.503977E3,1.1112457E2,7.9403064E2,2.035301E1,8.1091324E1,2.1122108E2,2.5454471E2,1.0233947E3,4.805823E2,8.796273E1,2.3161842E1,6.942967E2,9.9733955E1],"tree_param":{"num_deleted":"0","num_feature":"21","num_nodes":"23","size_leaf_vector":"1"}},{"base_weights":[-2.3118926E-6,-1.4170167E0,7.3940283E-1,-7.85137E-1,-7.412716E-2,1.5921842E-2,1.1553277E0,-5.153306E-1,-7.328734E-2,1.2938957E0,-1.6349593E-1,9.4471824E-1,1.3121424E0,-6.1830815E-2,1.06980605E-2,7.050998E-2,-7.8080885E-2,-3.7395004E-2,1.2555132E-2,-9.214576E-2,4.876959E-2,-6.33938E-2,6.585669E-2],"categories":[],"categories_nodes":[],"categories_segments":[],"categories_sizes":[],"default_left":[0,0,0,0,0,0,0,0,0,0,0,0,0,0,0,0,0,0,0,0,0,0,0],"id":9,"left_children":[1,3,5,7,-1,9,11,13,-1,15,17,19,21,-1,-1,-1,-1,-1,-1,-1,-1,-1,-1],"loss_changes":[4.508926E3,5.9932373E1,8.5092236E2,2.50943E1,0E0,2.3713475E2,5.806201E1,5.410283E1,0E0,4.4485626E1,2.1993951E2,6.7630005E1,1.4890869E1,0E0,0E0,0E0,0E0,0E0,0E0,0E0,0E0,0E0,0E0],"parents":[2147483647,0,0,1,1,2,2,3,3,5,5,6,6,7,7,9,9,10,10,11,11,12,12],"right_children":[2,4,6,8,-1,10,12,14,-1,16,18,20,22,-1,-1,-1,-1,-1,-1,-1,-1,-1,-1],"split_conditions":[1E0,1E0,2.17029E-1,9.8765E-2,-7.412716E-2,1.018748E0,3.0848E-1,4.9056E-2,-7.328734E-2,7E0,1.41979E-1,1.066667E0,3.47972E-1,-6.1830815E-2,1.06980605E-2,7.050998E-2,-7.8080885E-2,-3.7395004E-2,1.2555132E-2,-9.214576E-2,4.876959E-2,-6.33938E-2,6.585669E-2],"split_indices":[7,1,3,9,0,7,3,9,0,1,3,7,10,0,0,0,0,0,0,0,0,0,0],"split_type":[0,0,0,0,0,0,0,0,0,0,0,0,0,0,0,0,0,0,0,0,0,0,0],"sum_hessian":[4.301446E3,1.4745895E3,2.8268564E3,1.3976805E2,1.3348214E3,1.0322852E3,1.7945714E3,1.0134869E2,3.8419353E1,1.263187E2,9.0596643E2,7.689119E2,1.0256595E3,5.0604294E1,5.0744396E1,1.2186149E2,4.4572153E0,3.7565372E2,5.303127E2,7.725549E0,7.6118634E2,1.4918572E0,1.0241677E3],"tree_param":{"num_deleted":"0","num_feature":"21","num_nodes":"23","size_leaf_vector":"1"}},{"base_weights":[-4.2292285E-3,-7.0054793E-1,7.6518315E-1,-1.1041677E0,-3.2447892E-1,-6.506671E-1,9.590685E-1,-1.1941938E0,1.0082264E-1,-8.0462784E-1,2.0927545E-1,-7.852688E-2,-3.9758283E-1,6.593965E-1,1.17161E0,-6.762316E-2,-4.2108923E-2,-6.540854E-2,1.6115487E-2,-2.5039542E-2,-6.144334E-2,2.1843096E-2,-3.144333E-2,-5.1687457E-2,8.894631E-3,3.721235E-2,1.4052622E-3,5.3955782E-2,6.642508E-2],"categories":[],"categories_nodes":[],"categories_segments":[],"categories_sizes":[],"default_left":[0,0,0,0,0,0,0,0,0,0,0,0,0,0,0,0,0,0,0,0,0,0,0,0,0,0,0,0,0],"id":10,"left_children":[1,3,5,7,9,11,13,15,17,19,21,-1,23,25,27,-1,-1,-1,-1,-1,-1,-1,-1,-1,-1,-1,-1,-1,-1],"loss_changes":[2.257283E3,3.353507E2,5.5008325E2,1.1579883E2,2.9395258E2,5.5639145E1,1.11384155E2,5.414514E1,2.3843424E1,7.719824E1,1.03977165E2,0E0,7.006113E1,3.9240814E1,1.3497803E1,0E0,0E0,0E0,0E0,0E0,0E0,0E0,0E0,0E0,0E0,0E0,0E0,0E0,0E0],"parents":[2147483647,0,0,1,1,2,2,3,3,4,4,5,5,6,6,7,7,8,8,9,9,10,10,12,12,13,13,14,14],"right_children":[2,4,6,8,10,12,14,16,18,20,22,-1,24,26,28,-1,-1,-1,-1,-1,-1,-1,-1,-1,-1,-1,-1,-1,-1],"split_conditions":[2.17029E-1,6.5563E-2,4.2544E-2,5E-1,1.25086E-1,6.99745E-1,3.0168E-1,1.63647E-1,1.03689E-1,1.4E1,7.88093E-1,-7.852688E-2,3.3844E-2,9E0,3.2E1,-6.762316E-2,-4.2108923E-2,-6.540854E-2,1.6115487E-2,-2.5039542E-2,-6.144334E-2,2.1843096E-2,-3.144333E-2,-5.1687457E-2,8.894631E-3,3.721235E-2,1.4052622E-3,5.3955782E-2,6.642508E-2],"split_indices":[3,2,2,6,3,10,3,3,8,19,11,0,2,17,15,0,0,0,0,0,0,0,0,0,0,0,0,0,0],"split_type":[0,0,0,0,0,0,0,0,0,0,0,0,0,0,0,0,0,0,0,0,0,0,0,0,0,0,0,0,0],"sum_hessian":[4.2112646E3,2.2106838E3,2.0005808E3,1.0653502E3,1.1453336E3,2.4067712E2,1.7599037E3,9.9129816E2,7.405206E1,6.0267676E2,5.4265686E2,5.0806854E1,1.8987027E2,7.319692E2,1.0279346E3,6.818778E2,3.0942035E2,9.392872E0,6.4659195E1,3.524412E2,2.5023555E2,4.2714893E2,1.1550792E2,8.9801636E1,1.00068634E2,6.4508575E2,8.688344E1,6.516417E2,3.762928E2],"tree_param":{"num_deleted":"0","num_feature":"21","num_nodes":"29","size_leaf_vector":"1"}},{"base_weights":[4.903605E-3,-1.3637518E0,7.071704E-1,-7.1587026E-1,-7.157955E-2,9.408827E-2,1.087347E0,-4.2609662E-1,-7.0873365E-2,-1.9098254E-1,9.552727E-1,9.0968966E-1,1.2685133E0,-5.633722E-2,9.56337E-3,1.6628586E-2,-3.2574512E-2,7.6413445E-2,2.8147284E-2,3.390565E-2,6.1458346E-2,6.011435E-2,6.943619E-2],"categories":[],"categories_nodes":[],"categories_segments":[],"categories_sizes":[],"default_left":[0,0,0,0,0,0,0,0,0,0,0,0,0,0,0,0,0,0,0,0,0,0,0],"id":11,"left_children":[1,3,5,7,-1,9,11,13,-1,15,17,19,21,-1,-1,-1,-1,-1,-1,-1,-1,-1,-1],"loss_changes":[4.0059995E3,6.1095215E1,6.4191724E2,2.7038322E1,0E0,2.592821E2,5.356482E1,4.2455708E1,0E0,1.9159268E2,5.8182175E1,6.2932983E1,5.0113525E0,0E0,0E0,0E0,0E0,0E0,0E0,0E0,0E0,0E0,0E0],"parents":[2147483647,0,0,1,1,2,2,3,3,5,5,6,6,7,7,9,9,10,10,11,11,12,12],"right_children":[2,4,6,8,-1,10,12,14,-1,16,18,20,22,-1,-1,-1,-1,-1,-1,-1,-1,-1,-1],"split_conditions":[1E0,1E0,2.1865E-1,1.03689E-1,-7.157955E-2,3E-1,3.2935E-1,4.9056E-2,-7.0873365E-2,3.153846E0,1.018748E0,3.42105E-1,7.05305E1,-5.633722E-2,9.56337E-3,1.6628586E-2,-3.2574512E-2,7.6413445E-2,2.8147284E-2,3.390565E-2,6.1458346E-2,6.011435E-2,6.943619E-2],"split_indices":[7,1,3,8,0,6,3,9,0,17,7,5,8,0,0,0,0,0,0,0,0,0,0],"split_type":[0,0,0,0,0,0,0,0,0,0,0,0,0,0,0,0,0,0,0,0,0,0,0],"sum_hessian":[4.165871E3,1.4123619E3,2.7535093E3,1.3496512E2,1.2773967E3,1.054402E3,1.6991072E3,9.665286E1,3.8312252E1,7.927596E2,2.6164246E2,8.609012E2,8.3820593E2,4.488626E1,5.17666E1,3.7111465E2,4.2164493E2,1.0516008E2,1.5648239E2,5.0092365E2,3.5997757E2,5.475512E2,2.9065472E2],"tree_param":{"num_deleted":"0","num_feature":"21","num_nodes":"23","size_leaf_vector":"1"}},{"base_weights":[-4.2509727E-2,-1.3333678E0,6.358177E-1,-6.9114494E-1,-7.008195E-2,-8.419844E-2,1.0313736E0,-3.9628464E-1,-6.929629E-2,4.5736596E-2,-8.952943E-2,7.1237445E-1,1.1811507E0,-5.4662254E-2,1.13821365E-2,2.6418617E-2,-2.0817375E-2,2.5812117E-2,6.297208E-2,1.4322017E-2,6.0257215E-2],"categories":[],"categories_nodes":[],"categories_segments":[],"categories_sizes":[],"default_left":[0,0,0,0,0,0,0,0,0,0,0,0,0,0,0,0,0,0,0,0,0],"id":12,"left_children":[1,3,5,7,-1,9,11,13,-1,15,-1,17,19,-1,-1,-1,-1,-1,-1,-1,-1],"loss_changes":[3.522244E3,5.9784912E1,7.51105E2,2.713163E1,0E0,2.0759447E2,8.0479004E1,4.2108177E1,0E0,1.9439606E2,0E0,5.7969208E1,2.448584E1,0E0,0E0,0E0,0E0,0E0,0E0,0E0,0E0],"parents":[2147483647,0,0,1,1,2,2,3,3,5,5,6,6,7,7,9,9,11,11,12,12],"right_children":[2,4,6,8,-1,10,12,14,-1,16,-1,18,20,-1,-1,-1,-1,-1,-1,-1,-1],"split_conditions":[1E0,1E0,2.0828E-1,1.03689E-1,-7.008195E-2,8.6E1,2.83333E-1,4.9056E-2,-6.929629E-2,1E0,-8.952943E-2,4.34263E-1,1.129138E0,-5.4662254E-2,1.13821365E-2,2.6418617E-2,-2.0817375E-2,2.5812117E-2,6.297208E-2,1.4322017E-2,6.0257215E-2],"split_indices":[7,1,3,8,0,0,3,9,0,18,0,5,7,0,0,0,0,0,0,0,0],"split_type":[0,0,0,0,0,0,0,0,0,0,0,0,0,0,0,0,0,0,0,0,0],"sum_hessian":[4.0205825E3,1.3846416E3,2.6359407E3,1.3411862E2,1.2505231E3,9.3492236E2,1.7010184E3,9.526091E1,3.8857708E1,8.696733E2,6.524908E1,5.453258E2,1.1556926E3,4.4641624E1,5.0619286E1,4.2530692E2,4.4436633E2,4.0284372E2,1.424821E2,3.0520927E1,1.1251716E3],"tree_param":{"num_deleted":"0","num_feature":"21","num_nodes":"21","size_leaf_vector":"1"}},{"base_weights":[1.54335275E-2,-1.3042457E0,6.625879E-1,-6.570603E-1,-6.8733595E-2,4.171735E-2,1.0292591E0,-7.0837766E-2,-4.233373E-1,-3.14493E-1,9.1052973E-1,8.377168E-1,1.2177441E0,-3.333522E-3,-7.0510335E-2,-3.3937726E-2,1.3231866E-2,7.394861E-2,3.0357698E-2,-9.722387E-2,4.345606E-2,5.3985275E-2,6.398389E-2],"categories":[],"categories_nodes":[],"categories_segments":[],"categories_sizes":[],"default_left":[0,0,0,0,0,0,0,0,0,0,0,0,0,0,0,0,0,0,0,0,0,0,0],"id":13,"left_children":[1,3,5,7,-1,9,11,-1,13,15,17,19,21,-1,-1,-1,-1,-1,-1,-1,-1,-1,-1],"loss_changes":[3.4881606E3,6.0349365E1,6.238302E2,2.3158176E1,0E0,3.155087E2,6.118042E1,0E0,3.642415E1,1.5272623E2,5.0222E1,7.663086E1,6.0233154E0,0E0,0E0,0E0,0E0,0E0,0E0,0E0,0E0,0E0,0E0],"parents":[2147483647,0,0,1,1,2,2,3,3,5,5,6,6,8,8,9,9,10,10,11,11,12,12],"right_children":[2,4,6,8,-1,10,12,-1,14,16,18,20,22,-1,-1,-1,-1,-1,-1,-1,-1,-1,-1],"split_conditions":[1E0,1E0,2.17029E-1,7E0,-6.8733595E-2,2.85714E-1,3.2935E-1,-7.0837766E-2,1.9E1,1.73347E-1,1.018748E0,1.066667E0,1.77778E-1,-3.333522E-3,-7.0510335E-2,-3.3937726E-2,1.3231866E-2,7.394861E-2,3.0357698E-2,-9.722387E-2,4.345606E-2,5.3985275E-2,6.398389E-2],"split_indices":[7,1,3,19,0,6,3,0,19,3,7,7,5,0,0,0,0,0,0,0,0,0,0],"split_type":[0,0,0,0,0,0,0,0,0,0,0,0,0,0,0,0,0,0,0,0,0,0,0],"sum_hessian":[4.0823125E3,1.3428839E3,2.7394287E3,1.328037E2,1.2100802E3,1.01755493E3,1.7218737E3,3.0054062E1,1.0274963E2,7.2212427E2,2.9543066E2,8.5671136E2,8.651623E2,7.625697E1,2.649266E1,4.4319278E2,2.7893152E2,1.01455696E2,1.9397498E2,8.882367E0,8.47829E2,2.7365918E2,5.915031E2],"tree_param":{"num_deleted":"0","num_feature":"21","num_nodes":"23","size_leaf_vector":"1"}},{"base_weights":[2.5401067E-3,-1.2785686E0,6.3395333E-1,-6.5056837E-1,-6.757931E-2,8.3235554E-2,9.7533274E-1,-3.4912133E-1,-6.717021E-2,1.1828834E0,-7.382108E-2,-3.2260996E-1,1.0072304E0,-6.915795E-2,-2.4044502E-3,-6.7770265E-2,6.338572E-2,-2.4845926E-2,1.243905E-2,3.720776E-2,-1.1232778E-1,4.1912656E-2,6.201723E-2],"categories":[],"categories_nodes":[],"categories_segments":[],"categories_sizes":[],"default_left":[0,0,0,0,0,0,0,0,0,0,0,0,0,0,0,0,0,0,0,0,0,0,0],"id":14,"left_children":[1,3,5,7,-1,9,11,13,-1,15,17,19,21,-1,-1,-1,-1,-1,-1,-1,-1,-1,-1],"loss_changes":[3.2082896E3,5.9164307E1,4.994004E2,2.8418945E1,0E0,1.7586145E2,6.8223145E1,3.035573E1,0E0,2.911911E1,1.2180716E2,8.39619E1,6.202173E1,0E0,0E0,0E0,0E0,0E0,0E0,0E0,0E0,0E0,0E0],"parents":[2147483647,0,0,1,1,2,2,3,3,5,5,6,6,7,7,9,9,10,10,11,11,12,12],"right_children":[2,4,6,8,-1,10,12,14,-1,16,18,20,22,-1,-1,-1,-1,-1,-1,-1,-1,-1,-1],"split_conditions":[1E0,2E0,2.13164E-1,9.8765E-2,-6.757931E-2,1.018748E0,1.129138E0,7E0,-6.717021E-2,4.47875E-1,1.3981E-1,5E1,3.30357E-1,-6.915795E-2,-2.4044502E-3,-6.7770265E-2,6.338572E-2,-2.4845926E-2,1.243905E-2,3.720776E-2,-1.1232778E-1,4.1912656E-2,6.201723E-2],"split_indices":[7,0,3,9,0,7,7,19,0,11,3,0,5,0,0,0,0,0,0,0,0,0,0],"split_type":[0,0,0,0,0,0,0,0,0,0,0,0,0,0,0,0,0,0,0,0,0,0,0],"sum_hessian":[3.9641917E3,1.3084272E3,2.6557644E3,1.3731696E2,1.1711104E3,1.0167591E3,1.6390052E3,9.67331E1,4.058386E1,1.2625318E2,8.905059E2,3.9094616E1,1.5999106E3,2.1000893E1,7.573221E1,3.5986185E0,1.22654564E2,3.8501398E2,5.0549194E2,2.554433E1,1.3550284E1,9.3021936E2,6.696912E2],"tree_param":{"num_deleted":"0","num_feature":"21","num_nodes":"23","size_leaf_vector":"1"}},{"base_weights":[-1.6314884E-3,-1.2697678E0,6.085643E-1,-6.6500455E-2,-5.804746E-1,4.9563576E-2,9.6854997E-1,-7.153309E-2,-1.5575011E-1,-2.1017326E-1,7.8342515E-1,7.4562794E-1,1.1344686E0,2.3706041E-2,-6.5231666E-2,-3.008446E-2,1.1426898E-2,7.0163235E-2,1.9674024E-2,2.5283182E-2,5.2258063E-2,2.5104556E-2,5.7794254E-2],"categories":[],"categories_nodes":[],"categories_segments":[],"categories_sizes":[],"default_left":[0,0,0,0,0,0,0,0,0,0,0,0,0,0,0,0,0,0,0,0,0,0,0],"id":15,"left_children":[1,3,5,-1,7,9,11,-1,13,15,17,19,21,-1,-1,-1,-1,-1,-1,-1,-1,-1,-1],"loss_changes":[2.994123E3,5.1423096E1,5.2563727E2,0E0,3.6898026E1,1.9541832E2,5.7925415E1,0E0,5.103932E1,1.3022491E2,6.422162E1,4.8415222E1,1.1731079E1,0E0,0E0,0E0,0E0,0E0,0E0,0E0,0E0,0E0,0E0],"parents":[2147483647,0,0,1,1,2,2,4,4,5,5,6,6,8,8,9,9,10,10,11,11,12,12],"right_children":[2,4,6,-1,8,10,12,-1,14,16,18,20,22,-1,-1,-1,-1,-1,-1,-1,-1,-1,-1],"split_conditions":[1E0,1E0,2.1865E-1,-6.6500455E-2,4.9056E-2,2.85714E-1,3.0848E-1,-7.153309E-2,1.03689E-1,1.61311E-1,1.018748E0,3.08642E-1,1.166667E0,2.3706041E-2,-6.5231666E-2,-3.008446E-2,1.1426898E-2,7.0163235E-2,1.9674024E-2,2.5283182E-2,5.2258063E-2,2.5104556E-2,5.7794254E-2],"split_indices":[7,6,3,0,9,6,3,0,8,3,7,5,7,0,0,0,0,0,0,0,0,0,0],"split_type":[0,0,0,0,0,0,0,0,0,0,0,0,0,0,0,0,0,0,0,0,0,0,0],"sum_hessian":[3.8673196E3,1.255988E3,2.6113315E3,1.1541874E3,1.018007E2,1.0233573E3,1.5879744E3,3.3124893E1,6.8675804E1,7.563682E2,2.6698904E2,6.7993414E2,9.080402E2,4.4736504E1,2.3939304E1,3.9948615E2,3.5688208E2,1.02098694E2,1.6489037E2,3.7899728E2,3.0093683E2,3.0545748E1,8.7749445E2],"tree_param":{"num_deleted":"0","num_feature":"21","num_nodes":"23","size_leaf_vector":"1"}},{"base_weights":[2.7697548E-2,-1.2316893E0,6.000402E-1,-6.358151E-1,-6.537195E-2,4.1041374E-2,9.3998444E-1,-6.686618E-2,-4.2471984E-1,1.1223884E0,-1.2065901E-1,8.1643105E-1,1.2406608E0,4.5267963E-3,-5.1041484E-2,5.9993424E-2,-6.485695E-2,-3.6655776E-2,1.1702572E-2,-1.3309978E-1,4.3756116E-2,2.665241E-2,6.360366E-2],"categories":[],"categories_nodes":[],"categories_segments":[],"categories_sizes":[],"default_left":[0,0,0,0,0,0,0,0,0,0,0,0,0,0,0,0,0,0,0,0,0,0,0],"id":16,"left_children":[1,3,5,7,-1,9,11,-1,13,15,17,19,21,-1,-1,-1,-1,-1,-1,-1,-1,-1,-1],"loss_changes":[2.7987065E3,5.3930054E1,5.0724762E2,1.9983395E1,0E0,1.7683508E2,6.065454E1,0E0,3.3308956E1,2.621817E1,1.9134702E2,2.4311725E2,1.0025269E1,0E0,0E0,0E0,0E0,0E0,0E0,0E0,0E0,0E0,0E0],"parents":[2147483647,0,0,1,1,2,2,3,3,5,5,6,6,8,8,9,9,10,10,11,11,12,12],"right_children":[2,4,6,8,-1,10,12,-1,14,16,18,20,22,-1,-1,-1,-1,-1,-1,-1,-1,-1,-1],"split_conditions":[1E0,2E0,2.17029E-1,8E0,-6.537195E-2,1.018748E0,4.34263E-1,-6.686618E-2,1.6E1,2.190524E1,6.5563E-2,4.9649E-2,1.144019E0,4.5267963E-3,-5.1041484E-2,5.9993424E-2,-6.485695E-2,-3.6655776E-2,1.1702572E-2,-1.3309978E-1,4.3756116E-2,2.665241E-2,6.360366E-2],"split_indices":[7,0,3,19,0,7,5,0,19,8,2,2,7,0,0,0,0,0,0,0,0,0,0],"split_type":[0,0,0,0,0,0,0,0,0,0,0,0,0,0,0,0,0,0,0,0,0,0,0],"sum_hessian":[3.8807478E3,1.2122195E3,2.6685283E3,1.3778082E2,1.0744387E3,1.00955426E3,1.6589741E3,3.0636133E1,1.07144684E2,1.3055385E2,8.7900037E2,1.1784451E3,4.8052914E2,5.7924755E1,4.9219933E1,1.2699132E2,3.5625343E0,3.2198392E2,5.570165E2,1.88179E1,1.1596271E3,2.1188854E1,4.593403E2],"tree_param":{"num_deleted":"0","num_feature":"21","num_nodes":"23","size_leaf_vector":"1"}},{"base_weights":[-1.0728254E-2,-1.2244831E0,5.531411E-1,-6.124277E-1,-6.449558E-2,3.321515E-1,9.544329E-1,-7.422469E-1,9.051636E-2,-3.6789272E-2,9.527285E-1,1.0542972E0,4.418828E-1,-2.3624334E-2,-6.2858105E-2,2.0103185E-2,-2.4644842E-2,-9.46282E-2,5.0197285E-2,6.273078E-2,4.8186574E-2,-7.6932445E-2,3.8984757E-2],"categories":[],"categories_nodes":[],"categories_segments":[],"categories_sizes":[],"default_left":[0,0,0,0,0,0,0,0,0,0,0,0,0,0,0,0,0,0,0,0,0,0,0],"id":17,"left_children":[1,3,5,7,-1,9,11,13,-1,15,17,19,21,-1,-1,-1,-1,-1,-1,-1,-1,-1,-1],"loss_changes":[2.5314978E3,4.6195435E1,2.2365479E2,3.758118E1,0E0,3.7328168E2,4.5415344E1,1.4694397E1,0E0,2.0503627E2,9.048224E1,1.2387939E1,1.0014502E2,0E0,0E0,0E0,0E0,0E0,0E0,0E0,0E0,0E0,0E0],"parents":[2147483647,0,0,1,1,2,2,3,3,5,5,6,6,7,7,9,9,10,10,11,11,12,12],"right_children":[2,4,6,8,-1,10,12,14,-1,16,18,20,22,-1,-1,-1,-1,-1,-1,-1,-1,-1,-1],"split_conditions":[1E0,6.512E-2,8.5303E-2,6.1602E-2,-6.449558E-2,4.3E1,7.88093E-1,1E0,9.051636E-2,1E0,1.095238E0,3.12155E-1,9.2671E-2,-2.3624334E-2,-6.2858105E-2,2.0103185E-2,-2.4644842E-2,-9.46282E-2,5.0197285E-2,6.273078E-2,4.8186574E-2,-7.6932445E-2,3.8984757E-2],"split_indices":[7,8,2,9,0,16,11,1,0,18,7,11,2,0,0,0,0,0,0,0,0,0,0],"split_type":[0,0,0,0,0,0,0,0,0,0,0,0,0,0,0,0,0,0,0,0,0,0,0],"sum_hessian":[3.6968716E3,1.1722904E3,2.524581E3,1.142151E2,1.0580753E3,1.6292101E3,8.9537103E2,1.0906469E2,5.1504126E0,1.0223506E3,6.0685944E2,7.4848126E2,1.4688976E2,7.2828156E1,3.6236534E1,5.21091E2,5.012596E2,1.0095019E1,5.967644E2,2.290353E2,5.19446E2,2.088574E1,1.26004005E2],"tree_param":{"num_deleted":"0","num_feature":"21","num_nodes":"23","size_leaf_vector":"1"}},{"base_weights":[1.5193293E-2,-1.1905153E0,5.599981E-1,-5.5367714E-1,-6.3432254E-2,3.8873896E-2,8.991555E-1,-2.9623222E-1,-6.308751E-2,-2.2464496E-1,7.809534E-1,7.171116E-1,1.0941175E0,-6.715646E-2,-2.3088302E-3,-1.1265171E-3,-5.2144956E-2,4.569599E-2,-2.8950203E-2,-8.840139E-2,3.719478E-2,9.693603E-3,5.531418E-2],"categories":[],"categories_nodes":[],"categories_segments":[],"categories_sizes":[],"default_left":[0,0,0,0,0,0,0,0,0,0,0,0,0,0,0,0,0,0,0,0,0,0,0],"id":18,"left_children":[1,3,5,7,-1,9,11,13,-1,15,17,19,21,-1,-1,-1,-1,-1,-1,-1,-1,-1,-1],"loss_changes":[2.442562E3,5.6879395E1,4.5263177E2,2.3002926E1,0E0,1.9783058E2,5.42771E1,2.4899559E1,0E0,1.2346025E2,4.8465683E1,5.490973E1,7.9694214E0,0E0,0E0,0E0,0E0,0E0,0E0,0E0,0E0,0E0,0E0],"parents":[2147483647,0,0,1,1,2,2,3,3,5,5,6,6,7,7,9,9,10,10,11,11,12,12],"right_children":[2,4,6,8,-1,10,12,14,-1,16,18,20,22,-1,-1,-1,-1,-1,-1,-1,-1,-1,-1],"split_conditions":[1E0,1E0,2.1865E-1,1.03689E-1,-6.3432254E-2,2.85714E-1,3.2935E-1,2E0,-6.308751E-2,1.5E1,5.4E1,1.066667E0,3.88296E-1,-6.715646E-2,-2.3088302E-3,-1.1265171E-3,-5.2144956E-2,4.569599E-2,-2.8950203E-2,-8.840139E-2,3.719478E-2,9.693603E-3,5.531418E-2],"split_indices":[7,1,3,8,0,6,3,20,0,15,18,7,10,0,0,0,0,0,0,0,0,0,0],"split_type":[0,0,0,0,0,0,0,0,0,0,0,0,0,0,0,0,0,0,0,0,0,0,0],"sum_hessian":[3.7164385E3,1.1562825E3,2.560156E3,1.2723919E2,1.0290432E3,1.00975525E3,1.5504008E3,9.435241E1,3.2886784E1,7.456616E2,2.6409363E2,8.041819E2,7.462189E2,1.7348576E1,7.700384E1,5.9878503E2,1.4687663E2,2.4087105E2,2.3222578E1,7.8815985E0,7.963003E2,1.0175859E1,7.3604297E2],"tree_param":{"num_deleted":"0","num_feature":"21","num_nodes":"23","size_leaf_vector":"1"}},{"base_weights":[6.7522377E-3,-1.1720245E0,5.275411E-1,-5.2488923E-1,-6.2616624E-2,1.1248058E-2,8.7182546E-1,-3.487036E-1,-6.333615E-2,1.05915E0,-1.348758E-1,6.802018E-1,1.0739285E0,-2.4307562E-2,3.2929075E-3,5.850891E-2,-7.116364E-2,-3.3837106E-2,9.378758E-3,-8.704878E-2,3.5446513E-2,2.0338958E-2,5.4320037E-2],"categories":[],"categories_nodes":[],"categories_segments":[],"categories_sizes":[],"default_left":[0,0,0,0,0,0,0,0,0,0,0,0,0,0,0,0,0,0,0,0,0,0,0],"id":19,"left_children":[1,3,5,7,-1,9,11,13,-1,15,17,19,21,-1,-1,-1,-1,-1,-1,-1,-1,-1,-1],"loss_changes":[2.21194E3,5.6722412E1,4.4419757E2,1.5714233E1,0E0,1.5338606E2,5.7332153E1,5.802267E0,0E0,3.5453003E1,1.5374435E2,5.4953278E1,5.6152954E0,0E0,0E0,0E0,0E0,0E0,0E0,0E0,0E0,0E0,0E0],"parents":[2147483647,0,0,1,1,2,2,3,3,5,5,6,6,7,7,9,9,10,10,11,11,12,12],"right_children":[2,4,6,8,-1,10,12,14,-1,16,18,20,22,-1,-1,-1,-1,-1,-1,-1,-1,-1,-1],"split_conditions":[1E0,1E0,2.1865E-1,2E0,-6.2616624E-2,1.018748E0,3.2935E-1,1E0,-6.333615E-2,7E0,6.5563E-2,1.066667E0,3.97124E-1,-2.4307562E-2,3.2929075E-3,5.850891E-2,-7.116364E-2,-3.3837106E-2,9.378758E-3,-8.704878E-2,3.5446513E-2,2.0338958E-2,5.4320037E-2],"split_indices":[7,1,3,0,0,7,3,13,0,1,2,7,10,0,0,0,0,0,0,0,0,0,0],"split_type":[0,0,0,0,0,0,0,0,0,0,0,0,0,0,0,0,0,0,0,0,0,0,0],"sum_hessian":[3.6011245E3,1.1030902E3,2.4980342E3,1.2261045E2,9.804798E2,9.997818E2,1.4982523E3,1.0026706E2,2.234339E1,1.2158779E2,8.7819403E2,7.7130585E2,7.269465E2,7.5171364E1,2.5095694E1,1.1688848E2,4.6993113E0,3.2721808E2,5.5097595E2,8.345696E0,7.6296014E2,1.3957702E1,7.129888E2],"tree_param":{"num_deleted":"0","num_feature":"21","num_nodes":"23","size_leaf_vector":"1"}},{"base_weights":[-1.6734734E-2,-9.0697914E-1,1.4176708E-1,-1.0182848E0,-5.470804E-1,-3.261097E-1,4.4485024E-1,-1.0879276E0,2.2991072E-1,-7.715405E-1,8.444819E-1,-6.7967993E-1,1.9773112E-1,1.6516732E-1,7.1257395E-1,-1.2299201E-2,-6.0121167E-2,7.82638E-2,-6.032449E-2,2.539783E-4,-5.274717E-2,-5.080483E-2,6.942684E-2,-4.7152933E-2,-4.585147E-3,-9.084331E-3,3.454549E-2,-3.001891E-2,3.616188E-2,9.994364E-3,4.495717E-2],"categories":[],"categories_nodes":[],"categories_segments":[],"categories_sizes":[],"default_left":[0,0,0,0,0,0,0,0,0,0,0,0,0,0,0,0,0,0,0,0,0,0,0,0,0,0,0,0,0,0,0],"id":20,"left_children":[1,3,5,7,9,11,13,15,17,19,21,23,25,27,29,-1,-1,-1,-1,-1,-1,-1,-1,-1,-1,-1,-1,-1,-1,-1,-1],"loss_changes":[4.889495E2,2.0421692E1,4.1726996E2,3.491977E1,3.9966087E1,2.1442078E2,1.3358133E2,3.6136353E1,4.3899803E1,2.397538E1,1.9590935E1,1.06917114E2,8.751013E1,3.740791E2,8.70531E1,0E0,0E0,0E0,0E0,0E0,0E0,0E0,0E0,0E0,0E0,0E0,0E0,0E0,0E0,0E0,0E0],"parents":[2147483647,0,0,1,1,2,2,3,3,4,4,5,5,6,6,7,7,8,8,9,9,10,10,11,11,12,12,13,13,14,14],"right_children":[2,4,6,8,10,12,14,16,18,20,22,24,26,28,30,-1,-1,-1,-1,-1,-1,-1,-1,-1,-1,-1,-1,-1,-1,-1,-1],"split_conditions":[4.0426E-2,7.80294E-1,9E0,3.4E1,3.89E-2,9.1551E-2,7.2204E-2,1.20726E-1,2.21675E-1,2.07957E-1,5.90361E-1,2.46753E-1,5E0,3.59551E-1,5.29526E-1,-1.2299201E-2,-6.0121167E-2,7.82638E-2,-6.032449E-2,2.539783E-4,-5.274717E-2,-5.080483E-2,6.942684E-2,-4.7152933E-2,-4.585147E-3,-9.084331E-3,3.454549E-2,-3.001891E-2,3.616188E-2,9.994364E-3,4.495717E-2],"split_indices":[2,9,16,18,2,2,2,11,5,11,5,5,12,5,10,0,0,0,0,0,0,0,0,0,0,0,0,0,0,0,0],"split_type":[0,0,0,0,0,0,0,0,0,0,0,0,0,0,0,0,0,0,0,0,0,0,0,0,0,0,0,0,0,0,0],"sum_hessian":[3.4632266E3,5.226996E2,2.940527E3,3.9783273E2,1.24866844E2,1.155963E3,1.784564E3,3.769304E2,2.0902346E1,1.0790693E2,1.6959915E1,6.899671E2,4.6599588E2,8.735791E2,9.109849E2,4.5499367E1,3.31431E2,1.0785639E1,1.0116707E1,2.9112066E1,7.879486E1,3.6409225E0,1.3318993E1,4.7609912E2,2.13868E2,2.63731E2,2.022649E2,3.6829132E2,5.0528775E2,2.4361374E2,6.6737115E2],"tree_param":{"num_deleted":"0","num_feature":"21","num_nodes":"31","size_leaf_vector":"1"}},{"base_weights":[2.362129E-2,-1.1301073E0,5.233559E-1,-3.785316E-1,-6.1517447E-2,-2.9123064E-2,7.7894974E-1,-9.0197936E-2,-6.1419994E-2,-2.705454E-1,9.295718E-1,5.7235825E-1,9.9147147E-1,8.119605E-3,-6.625662E-2,-4.358591E-2,1.8486889E-3,5.2965518E-2,-7.748078E-3,-2.7512992E-2,3.1850986E-2,3.13339E-2,5.1326346E-2],"categories":[],"categories_nodes":[],"categories_segments":[],"categories_sizes":[],"default_left":[0,0,0,0,0,0,0,0,0,0,0,0,0,0,0,0,0,0,0,0,0,0,0],"id":21,"left_children":[1,3,5,7,-1,9,11,13,-1,15,17,19,21,-1,-1,-1,-1,-1,-1,-1,-1,-1,-1],"loss_changes":[2.0205852E3,7.933423E1,3.4532825E2,3.0787474E1,0E0,1.7949202E2,7.283789E1,2.9920193E1,0E0,1.14543976E2,2.2116028E1,6.2062805E1,9.878174E0,0E0,0E0,0E0,0E0,0E0,0E0,0E0,0E0,0E0,0E0],"parents":[2147483647,0,0,1,1,2,2,3,3,5,5,6,6,7,7,9,9,10,10,11,11,12,12],"right_children":[2,4,6,8,-1,10,12,14,-1,16,18,20,22,-1,-1,-1,-1,-1,-1,-1,-1,-1,-1],"split_conditions":[1E0,1E0,1.79543E-1,1.03689E-1,-6.1517447E-2,3.75E-1,3.0168E-1,1.9E1,-6.1419994E-2,1E-1,9.79925E-1,1.194444E0,1.296664E0,8.119605E-3,-6.625662E-2,-4.358591E-2,1.8486889E-3,5.2965518E-2,-7.748078E-3,-2.7512992E-2,3.1850986E-2,3.13339E-2,5.1326346E-2],"split_indices":[7,1,3,8,0,6,3,19,0,5,10,7,7,0,0,0,0,0,0,0,0,0,0],"split_type":[0,0,0,0,0,0,0,0,0,0,0,0,0,0,0,0,0,0,0,0,0,0,0],"sum_hessian":[3.5025393E3,1.0582091E3,2.44433E3,1.25091896E2,9.331172E2,7.7342316E2,1.670907E3,9.422906E1,3.0862835E1,6.184104E2,1.5501276E2,8.4914746E2,8.217595E2,7.894946E1,1.5279599E1,2.0866132E2,4.0974908E2,1.3847124E2,1.6541521E1,4.5837124E1,8.033103E2,7.36999E1,7.4805963E2],"tree_param":{"num_deleted":"0","num_feature":"21","num_nodes":"23","size_leaf_vector":"1"}},{"base_weights":[4.127717E-3,-1.1298183E0,4.8623464E-1,-4.7520006E-1,-6.082448E-2,-1.1046765E-1,7.751269E-1,-6.420868E-2,-2.295086E-1,9.5575936E-2,-1.2561053E0,6.091058E-1,1.03622E0,1.4524859E-2,-4.485734E-2,3.5345536E-2,-1.0092525E-2,-6.886049E-2,5.279198E-2,-4.553842E-2,4.0405717E-2,-3.0128393E-4,5.498376E-2],"categories":[],"categories_nodes":[],"categories_segments":[],"categories_sizes":[],"default_left":[0,0,0,0,0,0,0,0,0,0,0,0,0,0,0,0,0,0,0,0,0,0,0],"id":22,"left_children":[1,3,5,7,-1,9,11,-1,13,15,17,19,21,-1,-1,-1,-1,-1,-1,-1,-1,-1,-1],"loss_changes":[1.8541799E3,5.6829346E1,4.1033258E2,2.3544868E1,0E0,1.8358308E2,6.888208E1,0E0,3.2623985E1,1.20088745E2,3.464537E1,2.9797977E2,4.1137695E1,0E0,0E0,0E0,0E0,0E0,0E0,0E0,0E0,0E0,0E0],"parents":[2147483647,0,0,1,1,2,2,3,3,5,5,6,6,8,8,9,9,10,10,11,11,12,12],"right_children":[2,4,6,8,-1,10,12,-1,14,16,18,20,22,-1,-1,-1,-1,-1,-1,-1,-1,-1,-1],"split_conditions":[1E0,1E0,1.88629E-1,8E0,-6.082448E-2,1.3E1,3.42105E-1,-6.420868E-2,1.6E1,1.35082E0,4.6E1,6.5978E-2,1.175869E0,1.4524859E-2,-4.485734E-2,3.5345536E-2,-1.0092525E-2,-6.886049E-2,5.279198E-2,-4.553842E-2,4.0405717E-2,-3.0128393E-4,5.498376E-2],"split_indices":[7,1,3,19,0,15,5,0,19,7,18,2,7,0,0,0,0,0,0,0,0,0,0],"split_type":[0,0,0,0,0,0,0,0,0,0,0,0,0,0,0,0,0,0,0,0,0,0,0],"sum_hessian":[3.389685E3,1.01082263E3,2.3788623E3,1.18942894E2,8.9187976E2,7.7621674E2,1.6026456E3,2.6723907E1,9.221899E1,6.5867096E2,1.1754576E2,9.81728E2,6.209176E2,5.215878E1,4.0060204E1,2.1512436E2,4.435466E2,1.1207913E2,5.4666348E0,1.1324827E2,8.6847974E2,3.5685856E1,5.8523175E2],"tree_param":{"num_deleted":"0","num_feature":"21","num_nodes":"23","size_leaf_vector":"1"}},{"base_weights":[2.514563E-2,-3.8849092E-1,6.4751655E-1,-7.548307E-1,-7.844126E-2,-4.870484E-1,7.3127735E-1,-9.740039E-1,-3.0139527E-1,-5.5391526E-1,2.9074448E-1,-1.1405892E0,3.505754E-1,5.3587663E-1,8.960769E-1,1.43061625E-2,-5.3112425E-2,-4.879446E-2,2.8286336E-2,-1.8949311E-2,-6.4263284E-2,-6.209438E-4,3.4589E-2,-6.680457E-2,1.692752E-2,-5.560092E-2,4.7644533E-2,1.8930277E-2,5.1080287E-2,-1.8838212E-3,4.5529217E-2],"categories":[],"categories_nodes":[],"categories_segments":[],"categories_sizes":[],"default_left":[0,0,0,0,0,0,0,0,0,0,0,0,0,0,0,0,0,0,0,0,0,0,0,0,0,0,0,0,0,0,0],"id":23,"left_children":[1,3,5,7,9,11,13,15,17,19,21,23,25,27,29,-1,-1,-1,-1,-1,-1,-1,-1,-1,-1,-1,-1,-1,-1,-1,-1],"loss_changes":[8.7099457E2,2.3080536E2,1.287276E2,9.2288086E1,1.9359862E2,5.1567497E1,4.004132E1,7.008978E1,1.7894275E2,6.1176666E1,7.550607E1,1.5703331E1,3.7821922E1,4.3783478E1,9.26123E0,0E0,0E0,0E0,0E0,0E0,0E0,0E0,0E0,0E0,0E0,0E0,0E0,0E0,0E0,0E0,0E0],"parents":[2147483647,0,0,1,1,2,2,3,3,4,4,5,5,6,6,7,7,8,8,9,9,10,10,11,11,12,12,13,13,14,14],"right_children":[2,4,6,8,10,12,14,16,18,20,22,24,26,28,30,-1,-1,-1,-1,-1,-1,-1,-1,-1,-1,-1,-1,-1,-1,-1,-1],"split_conditions":[2.42494E-1,6.5563E-2,3.8141E-2,5.09235E-1,1.23938E-1,7.28261E-1,3.2935E-1,1E0,3.89E-2,1.9E1,1.5E-1,8.2873E-2,2.7538E-2,8.803312E1,3.65003E-1,1.43061625E-2,-5.3112425E-2,-4.879446E-2,2.8286336E-2,-1.8949311E-2,-6.4263284E-2,-6.209438E-4,3.4589E-2,-6.680457E-2,1.692752E-2,-5.560092E-2,4.7644533E-2,1.8930277E-2,5.1080287E-2,-1.8838212E-3,4.5529217E-2],"split_indices":[3,2,2,5,3,5,3,19,2,19,5,6,2,8,9,0,0,0,0,0,0,0,0,0,0,0,0,0,0,0,0],"split_type":[0,0,0,0,0,0,0,0,0,0,0,0,0,0,0,0,0,0,0,0,0,0,0,0,0,0,0,0,0,0,0],"sum_hessian":[3.3813755E3,2.0315526E3,1.3498229E3,9.305842E2,1.1009684E3,9.247031E1,1.2573527E3,6.265744E2,3.040099E2,4.8099496E2,6.199734E2,5.1739666E1,4.0730637E1,5.7721185E2,6.8014075E2,4.0859604E1,5.857148E2,1.7092772E2,1.3308215E2,3.89379E2,9.161597E1,3.536216E2,2.6635178E2,4.578486E1,5.954807E0,1.1633918E1,2.909672E1,4.3737613E2,1.3983575E2,1.038103E1,6.697597E2],"tree_param":{"num_deleted":"0","num_feature":"21","num_nodes":"31","size_leaf_vector":"1"}}]},"name":"gbtree"},"learner_model_param":{"base_score":"5E-1","boost_from_average":"1","num_class":"0","num_feature":"21","num_target":"1"},"objective":{"name":"binary:logistic","reg_loss_param":{"scale_pos_weight":"19.6521015"}}},"version":[2,0,3]}