{"learner":{"attributes":{"best_iteration":"10","best_score":"0.07956518865470891","scikit_learn":"{\"_estimator_type\": \"classifier\"}"},"feature_names":["n_early_buyers","n_reliable_wallets","avg_wallet_score","max_wallet_score","pct_high_score_wallets","pct_negative_wallets","pct_new_wallets","avg_cooccurrence_score","total_volume_sol","avg_buy_size_sol","std_buy_size_sol","concentration_top5","n_tier1_buyers","creator_is_buyer","buys_in_first_20s","buys_20s_to_60s","buys_60s_to_180s","acceleration_ratio","time_to_5th_buy","hour_utc","day_of_week"],"feature_types":["int","int","float","float","float","float","float","float","float","float","float","float","int","int","int","int","int","float","float","int","int"],"gradient_booster":{"model":{"gbtree_model_param":{"num_parallel_tree":"1","num_trees":"31"},"iteration_indptr":[0,1,2,3,4,5,6,7,8,9,10,11,12,13,14,15,16,17,18,19,20,21,22,23,24,25,26,27,28,29,30,31],"tree_info":[0,0,0,0,0,0,0,0,0,0,0,0,0,0,0,0,0,0,0,0,0,0,0,0,0,0,0,0,0,0,0],"trees":[{"base_weights":[7.6849475E-3,-1.5822903E0,1.5388142E0,-1.7570499E0,-8.355403E-1,1.7483377E-1,1.6776726E0,-1.3577263E0,-1.9016012E0,9.530205E-2,-1.2680081E0,-2.809433E-2,1.2847575E0,1.3745457E0,1.8124778E0,-8.0814004E-2,-4.684409E-2,-9.769594E-2,-7.259185E-2,-1.7378038E-2,5.2334435E-2,-8.4259294E-2,-5.1432848E-2,-1.6293235E-2,2.533768E-2,6.9345474E-2,-7.777778E-2,8.045389E-2,5.6506526E-2,9.070815E-2,-6.923077E-2],"categories":[],"categories_nodes":[],"categories_segments":[],"categories_sizes":[],"default_left":[0,0,0,0,0,0,0,0,0,0,0,0,0,0,0,0,0,0,0,0,0,0,0,0,0,0,0,0,0,0,0],"id":0,"left_children":[1,3,5,7,9,11,13,15,17,19,21,23,25,27,29,-1,-1,-1,-1,-1,-1,-1,-1,-1,-1,-1,-1,-1,-1,-1,-1],"loss_changes":[3.876431E4,1.01794336E3,1.5360645E3,3.6275586E2,5.972434E2,1.69101E2,2.983457E2,1.8190454E2,1.0644922E2,1.9900824E2,9.940149E1,1.0138753E2,3.5826996E1,1.2832568E2,2.9947266E1,0E0,0E0,0E0,0E0,0E0,0E0,0E0,0E0,0E0,0E0,0E0,0E0,0E0,0E0,0E0,0E0],"parents":[2147483647,0,0,1,1,2,2,3,3,4,4,5,5,6,6,7,7,8,8,9,9,10,10,11,11,12,12,13,13,14,14],"right_children":[2,4,6,8,10,12,14,16,18,20,22,24,26,28,30,-1,-1,-1,-1,-1,-1,-1,-1,-1,-1,-1,-1,-1,-1,-1,-1],"split_conditions":[3.93015E-1,3.29859E-1,4.30364E-1,9.346E-3,6E0,9.05933E-1,4.90881E-1,2.13132E-1,3.06897E-1,9.99972E-1,3.52081E-1,6.6E1,1.022958E0,1E1,1.3E2,-8.0814004E-2,-4.684409E-2,-9.769594E-2,-7.259185E-2,-1.7378038E-2,5.2334435E-2,-8.4259294E-2,-5.1432848E-2,-1.6293235E-2,2.533768E-2,6.9345474E-2,-7.777778E-2,8.045389E-2,5.6506526E-2,9.070815E-2,-6.923077E-2],"split_indices":[3,3,3,6,15,11,3,3,3,11,3,16,9,15,12,0,0,0,0,0,0,0,0,0,0,0,0,0,0,0,0],"split_type":[0,0,0,0,0,0,0,0,0,0,0,0,0,0,0,0,0,0,0,0,0,0,0,0,0,0,0,0,0,0,0],"sum_hessian":[1.5921181E4,7.810483E3,8.1106973E3,6.328168E3,1.4823152E3,7.496166E2,7.361081E3,1.6846644E3,4.6435034E3,4.7046582E2,1.01184937E3,6.34572E2,1.1504455E2,2.2693499E3,5.091731E3,1.0417843E3,6.428802E2,4.1566475E3,4.8685617E2,3.2146237E2,1.4900346E2,3.6668835E2,6.45161E2,4.078802E2,2.2669182E2,1.1154455E2,3.5E0,1.15524E3,1.1141099E3,5.089481E3,2.25E0],"tree_param":{"num_deleted":"0","num_feature":"21","num_nodes":"31","size_leaf_vector":"1"}},{"base_weights":[-5.732266E-3,-1.4487824E0,1.5581541E0,-1.575068E0,2.7390167E-1,-1.4856297E0,1.7088163E0,-1.9015526E0,-1.1499316E0,-2.5512806E-1,1.5220189E0,1.7024955E0,-1.0302865E-1,-1.2266568E-1,1.7362942E0,-8.663942E-2,-9.596538E-2,-7.139524E-2,1.4154315E-2,-3.4953892E-2,2.7903197E-2,2.9031372E-2,9.285528E-2,8.9474075E-2,-5.776753E-2,-7.7344716E-2,3.7069306E-2,7.508399E-2,9.2237584E-2],"categories":[],"categories_nodes":[],"categories_segments":[],"categories_sizes":[],"default_left":[0,0,0,0,0,0,0,0,0,0,0,0,0,0,0,0,0,0,0,0,0,0,0,0,0,0,0,0,0],"id":1,"left_children":[1,3,5,7,9,11,13,15,17,19,21,23,-1,25,27,-1,-1,-1,-1,-1,-1,-1,-1,-1,-1,-1,-1,-1,-1],"loss_changes":[3.583025E4,1.796832E3,3.496668E3,1.0656855E3,3.7334546E2,6.6319196E2,3.655996E2,9.709961E0,1.3326216E3,1.4391232E2,5.2007507E1,1.5872925E1,0E0,1.3436456E2,1.792461E2,0E0,0E0,0E0,0E0,0E0,0E0,0E0,0E0,0E0,0E0,0E0,0E0,0E0,0E0],"parents":[2147483647,0,0,1,1,2,2,3,3,4,4,5,5,6,6,7,7,8,8,9,9,10,10,11,11,13,13,14,14],"right_children":[2,4,6,8,10,12,14,16,18,20,22,24,-1,26,28,-1,-1,-1,-1,-1,-1,-1,-1,-1,-1,-1,-1,-1,-1],"split_conditions":[4.1825E-1,1.95025E-1,1E0,1E0,2.5E-1,2E0,1.19903E-1,2E0,5.78947E-1,2.32019E-1,7.9E-1,1E0,-1.0302865E-1,6.90265E-1,1.90438E-1,-8.663942E-2,-9.596538E-2,-7.139524E-2,1.4154315E-2,-3.4953892E-2,2.7903197E-2,2.9031372E-2,9.285528E-2,8.9474075E-2,-5.776753E-2,-7.7344716E-2,3.7069306E-2,7.508399E-2,9.2237584E-2],"split_indices":[3,2,7,7,5,0,2,0,5,2,7,1,0,5,2,0,0,0,0,0,0,0,0,0,0,0,0,0,0],"split_type":[0,0,0,0,0,0,0,0,0,0,0,0,0,0,0,0,0,0,0,0,0,0,0,0,0,0,0,0,0],"sum_hessian":[1.587481E4,8.256414E3,7.618395E3,7.6925767E3,5.6383746E2,3.5889465E2,7.2595005E3,4.3491577E3,3.343419E3,3.9655032E2,1.6728711E2,5.453436E1,3.043603E2,1.0725365E2,7.1522466E3,4.2338556E2,3.925772E3,2.8002393E3,5.4317975E2,2.5660248E2,1.3994788E2,4.463171E1,1.22655396E2,5.3286285E1,1.248072E0,4.0200436E1,6.7053215E1,2.265777E3,4.8864697E3],"tree_param":{"num_deleted":"0","num_feature":"21","num_nodes":"29","size_leaf_vector":"1"}},{"base_weights":[6.9941757E-3,-1.3439424E0,1.4929355E0,-1.5063925E0,1.0334968E-1,-1.4523652E0,1.6376373E0,-1.8222107E0,-1.0861157E0,-4.5913962E-1,1.2774752E0,1.5361215E0,-9.7797126E-2,-1.0837586E-1,1.6639771E0,-7.940986E-2,-9.1541916E-2,-7.1793936E-2,2.2142213E-3,-4.6248898E-2,6.0899155E-3,3.9059024E-2,8.60763E-2,-5.4932397E-2,8.1174865E-2,-7.284897E-2,3.4291845E-2,7.3041156E-2,8.796653E-2],"categories":[],"categories_nodes":[],"categories_segments":[],"categories_sizes":[],"default_left":[0,0,0,0,0,0,0,0,0,0,0,0,0,0,0,0,0,0,0,0,0,0,0,0,0,0,0,0,0],"id":2,"left_children":[1,3,5,7,9,11,13,15,17,19,21,23,-1,25,27,-1,-1,-1,-1,-1,-1,-1,-1,-1,-1,-1,-1,-1,-1],"loss_changes":[3.1757918E4,1.9484404E3,3.2131758E3,9.869219E2,5.534965E2,5.347378E2,3.3044922E2,5.6777344E0,1.2648752E3,1.5349158E2,5.8473206E1,1.3642471E1,0E0,1.163173E2,1.3447852E2,0E0,0E0,0E0,0E0,0E0,0E0,0E0,0E0,0E0,0E0,0E0,0E0,0E0,0E0],"parents":[2147483647,0,0,1,1,2,2,3,3,4,4,5,5,6,6,7,7,8,8,9,9,10,10,11,11,13,13,14,14],"right_children":[2,4,6,8,10,12,14,16,18,20,22,24,-1,26,28,-1,-1,-1,-1,-1,-1,-1,-1,-1,-1,-1,-1,-1,-1],"split_conditions":[4.1825E-1,1.85724E-1,1E0,1E0,1.81818E-1,7.03E-4,1.19903E-1,1.1653E-2,4.82143E-1,3.39638E-1,5.05882E-1,3.31078E-1,-9.7797126E-2,6.90265E-1,1.90438E-1,-7.940986E-2,-9.1541916E-2,-7.1793936E-2,2.2142213E-3,-4.6248898E-2,6.0899155E-3,3.9059024E-2,8.60763E-2,-5.4932397E-2,8.1174865E-2,-7.284897E-2,3.4291845E-2,7.3041156E-2,8.796653E-2],"split_indices":[3,2,7,7,5,10,2,8,5,3,5,2,0,5,2,0,0,0,0,0,0,0,0,0,0,0,0,0,0],"split_type":[0,0,0,0,0,0,0,0,0,0,0,0,0,0,0,0,0,0,0,0,0,0,0,0,0,0,0,0,0],"sum_hessian":[1.5818325E4,8.285604E3,7.5327217E3,7.44941E3,8.361931E2,3.5232654E2,7.180395E3,4.2513696E3,3.1980403E3,5.65762E2,2.7043112E2,5.0511997E1,3.0181454E2,1.0666538E2,7.0737295E3,1.5774843E2,4.0936213E3,2.442136E3,7.5590436E2,3.1365686E2,2.5210513E2,1.2900615E2,1.4142497E2,1.2498407E0,4.9262157E1,3.922513E1,6.7440254E1,2.264804E3,4.808926E3],"tree_param":{"num_deleted":"0","num_feature":"21","num_nodes":"29","size_leaf_vector":"1"}},{"base_weights":[-2.0485793E-3,-1.6690522E0,7.3217356E-1,-8.909952E-1,-8.870443E-2,5.867004E-1,1.6850383E0,-5.810707E-1,-1.286925E0,2.8135863E-1,7.856657E-1,1.5187113E0,8.487677E-2,-6.670224E-2,-7.5442134E-3,-5.3042185E-2,-8.821919E-2,7.3406436E-2,6.8989894E-3,4.3844577E-2,1.679091E-2,2.4394197E-2,7.900488E-2],"categories":[],"categories_nodes":[],"categories_segments":[],"categories_sizes":[],"default_left":[0,0,0,0,0,0,0,0,0,0,0,0,0,0,0,0,0,0,0,0,0,0,0],"id":3,"left_children":[1,3,5,7,-1,9,11,13,15,17,19,21,-1,-1,-1,-1,-1,-1,-1,-1,-1,-1,-1],"loss_changes":[1.9135643E4,3.8910156E2,1.5035269E3,6.927075E1,0E0,5.719324E2,4.086914E-1,1.0406535E2,2.5083954E1,6.323035E2,2.3368628E2,6.1846466E0,0E0,0E0,0E0,0E0,0E0,0E0,0E0,0E0,0E0,0E0,0E0],"parents":[2147483647,0,0,1,1,2,2,3,3,5,5,6,6,7,7,8,8,9,9,10,10,11,11],"right_children":[2,4,6,8,-1,10,12,14,16,18,20,22,-1,-1,-1,-1,-1,-1,-1,-1,-1,-1,-1],"split_conditions":[1E0,2E0,2.132E-3,1.4E1,-8.870443E-2,2.0436646E1,2.2727E-2,6E0,1E-1,1.006667E0,6.5E0,1E0,8.487677E-2,-6.670224E-2,-7.5442134E-3,-5.3042185E-2,-8.821919E-2,7.3406436E-2,6.8989894E-3,4.3844577E-2,1.679091E-2,2.4394197E-2,7.900488E-2],"split_indices":[7,0,4,19,0,8,6,19,8,7,17,20,0,0,0,0,0,0,0,0,0,0,0],"split_type":[0,0,0,0,0,0,0,0,0,0,0,0,0,0,0,0,0,0,0,0,0,0,0],"sum_hessian":[1.5632323E4,4.779502E3,1.0852821E4,5.69609E2,4.209893E3,9.416784E3,1.4360378E3,3.2089084E2,2.4871812E2,3.7161753E3,5.7006084E3,1.0891971E2,1.3271182E3,1.1590909E2,2.0498177E2,1.7097954E2,7.77386E1,3.9957642E2,3.3165989E3,4.7386875E3,9.6192114E2,6.624562E0,1.0229515E2],"tree_param":{"num_deleted":"0","num_feature":"21","num_nodes":"23","size_leaf_vector":"1"}},{"base_weights":[-4.148055E-3,-1.3532586E0,1.3103436E0,-1.4607497E0,2.5846216E-1,-1.2666285E0,1.4789397E0,-1.6816522E0,-1.1628131E0,-4.6451402E-1,6.134725E-1,1.6813682E0,-8.9421764E-2,5.5921096E-1,1.5545557E0,-7.561107E-2,-8.467602E-2,-1.8471673E-2,-7.071487E-2,3.0654704E-2,-9.12565E-2,8.184197E-2,7.6854317E-3,8.665E-2,4.7137067E-2,-7.488047E-2,3.6109276E-2,2.9714901E-2,7.9576224E-2],"categories":[],"categories_nodes":[],"categories_segments":[],"categories_sizes":[],"default_left":[0,0,0,0,0,0,0,0,0,0,0,0,0,0,0,0,0,0,0,0,0,0,0,0,0,0,0,0,0],"id":4,"left_children":[1,3,5,7,9,11,13,15,17,19,21,23,-1,25,27,-1,-1,-1,-1,-1,-1,-1,-1,-1,-1,-1,-1,-1,-1],"loss_changes":[2.7548111E4,1.3284971E3,3.4202646E3,4.710537E2,1.23525154E2,7.470542E2,5.127529E2,5.732422E0,6.106499E2,2.338057E2,1.5146912E2,1.1599121E0,0E0,1.896779E2,2.4129102E2,0E0,0E0,0E0,0E0,0E0,0E0,0E0,0E0,0E0,0E0,0E0,0E0,0E0,0E0],"parents":[2147483647,0,0,1,1,2,2,3,3,4,4,5,5,6,6,7,7,8,8,9,9,10,10,11,11,13,13,14,14],"right_children":[2,4,6,8,10,12,14,16,18,20,22,24,-1,26,28,-1,-1,-1,-1,-1,-1,-1,-1,-1,-1,-1,-1,-1,-1],"split_conditions":[3.93015E-1,1.95025E-1,1E0,1E0,9.7E-1,2E0,4.30364E-1,2.5925E-2,1.1494E-2,2E0,1.006667E0,1.9E1,-8.9421764E-2,1.23547E-1,1.38471E-1,-7.561107E-2,-8.467602E-2,-1.8471673E-2,-7.071487E-2,3.0654704E-2,-9.12565E-2,8.184197E-2,7.6854317E-3,8.665E-2,4.7137067E-2,-7.488047E-2,3.6109276E-2,2.9714901E-2,7.9576224E-2],"split_indices":[3,2,7,7,7,0,3,9,6,0,7,19,0,2,2,0,0,0,0,0,0,0,0,0,0,0,0,0,0],"split_type":[0,0,0,0,0,0,0,0,0,0,0,0,0,0,0,0,0,0,0,0,0,0,0,0,0,0,0,0,0],"sum_hessian":[1.5532112E4,7.665106E3,7.8670063E3,7.185945E3,4.7916144E2,4.826863E2,7.38432E3,4.123769E3,3.0621753E3,1.5769936E2,3.214621E2,7.2254654E1,4.1043167E2,5.6162244E2,6.8226973E3,2.783558E2,3.8454136E3,7.3761743E2,2.3245579E3,8.830845E1,6.9390915E1,9.885818E1,2.2260391E2,6.627559E1,5.979067E0,4.0632362E1,5.2099005E2,2.5356107E2,6.569136E3],"tree_param":{"num_deleted":"0","num_feature":"21","num_nodes":"29","size_leaf_vector":"1"}},{"base_weights":[3.5036472E-3,-9.168654E-1,1.2437911E0,-1.6313113E0,-2.4575152E-1,-8.499842E-1,1.3643049E0,-1.4020219E0,-8.214658E-2,-1.1617421E0,6.9668204E-1,5.983802E-1,-8.589246E-2,7.7057445E-1,1.5231004E0,-7.79035E-2,-2.7407005E-2,-7.496208E-2,-3.3459272E-2,-4.309276E-2,6.851674E-2,-4.5745396E-3,7.099125E-2,-3.1047309E-2,6.904486E-2,6.667964E-2,8.11161E-2],"categories":[],"categories_nodes":[],"categories_segments":[],"categories_sizes":[],"default_left":[0,0,0,0,0,0,0,0,0,0,0,0,0,0,0,0,0,0,0,0,0,0,0,0,0,0,0],"id":5,"left_children":[1,3,5,7,9,11,13,15,-1,17,19,21,-1,23,25,-1,-1,-1,-1,-1,-1,-1,-1,-1,-1,-1,-1],"loss_changes":[1.7620535E4,4.248114E3,1.6602793E3,9.130859E0,3.9460107E3,4.5162714E2,5.850459E2,2.763794E1,0E0,3.843269E2,2.3668142E3,7.666641E1,0E0,1.1168689E3,9.006152E1,0E0,0E0,0E0,0E0,0E0,0E0,0E0,0E0,0E0,0E0,0E0,0E0],"parents":[2147483647,0,0,1,1,2,2,3,3,4,4,5,5,6,6,7,7,9,9,10,10,11,11,13,13,14,14],"right_children":[2,4,6,8,10,12,14,16,-1,18,20,22,-1,24,26,-1,-1,-1,-1,-1,-1,-1,-1,-1,-1,-1,-1],"split_conditions":[1.76827E-1,1E0,1E0,2.96E-2,3.78049E-1,2E0,1.95025E-1,7.54386E-1,-8.214658E-2,2.6222103E1,1.25044E-1,3.31078E-1,-8.589246E-2,1.29032E-1,2.20651E-1,-7.79035E-2,-2.7407005E-2,-7.496208E-2,-3.3459272E-2,-4.309276E-2,6.851674E-2,-4.5745396E-3,7.099125E-2,-3.1047309E-2,6.904486E-2,6.667964E-2,8.11161E-2],"split_indices":[2,7,7,8,5,0,2,5,0,8,2,2,0,5,2,0,0,0,0,0,0,0,0,0,0,0,0],"split_type":[0,0,0,0,0,0,0,0,0,0,0,0,0,0,0,0,0,0,0,0,0,0,0,0,0,0,0],"sum_hessian":[1.5434E4,8.8597705E3,6.57423E3,4.290652E3,4.569118E3,3.574763E2,6.2167534E3,2.1282921E2,4.0778228E3,2.3169473E3,2.252171E3,1.3405865E2,2.2341763E2,1.3130729E3,4.9036807E3,1.792469E2,3.358231E1,1.3736676E3,9.4327966E2,6.7959845E2,1.5725724E3,7.334783E1,6.0710823E1,4.0032486E2,9.127481E2,1.6901102E3,3.2135703E3],"tree_param":{"num_deleted":"0","num_feature":"21","num_nodes":"27","size_leaf_vector":"1"}},{"base_weights":[3.5053873E-3,-1.2772634E0,1.2361053E0,-1.4210078E0,-6.1142254E-1,-1.2242297E0,1.3893445E0,-1.0919107E0,-1.5385624E0,-1.5446165E0,-1.2633957E-1,1.5604253E0,-8.318675E-2,5.7235307E-1,1.4595737E0,-7.09435E-2,-2.7552623E-2,-7.834854E-2,-2.9769158E-2,3.161928E-2,-8.0635145E-2,6.3495226E-2,-1.819525E-2,3.5143543E-2,8.1783734E-2,6.411434E-2,1.34853935E-2,6.315629E-2,7.6018535E-2],"categories":[],"categories_nodes":[],"categories_segments":[],"categories_sizes":[],"default_left":[0,0,0,0,0,0,0,0,0,0,0,0,0,0,0,0,0,0,0,0,0,0,0,0,0,0,0,0,0],"id":6,"left_children":[1,3,5,7,9,11,13,15,17,19,21,23,-1,25,27,-1,-1,-1,-1,-1,-1,-1,-1,-1,-1,-1,-1,-1,-1],"loss_changes":[2.3912871E4,7.10125E2,2.9118643E3,2.3465332E2,5.976633E2,5.571369E2,4.1610645E2,2.8414697E2,1.1960254E2,6.7961914E1,2.8907104E2,2.8693695E0,0E0,1.2359636E2,7.7993164E1,0E0,0E0,0E0,0E0,0E0,0E0,0E0,0E0,0E0,0E0,0E0,0E0,0E0,0E0],"parents":[2147483647,0,0,1,1,2,2,3,3,4,4,5,5,6,6,7,7,8,8,9,9,10,10,11,11,13,13,14,14],"right_children":[2,4,6,8,10,12,14,16,18,20,22,24,-1,26,28,-1,-1,-1,-1,-1,-1,-1,-1,-1,-1,-1,-1,-1,-1],"split_conditions":[3.93015E-1,3.35005E-1,1E0,9.346E-3,1E0,2E0,4.30364E-1,1E0,1E0,2E0,1.2E1,6.897E-3,-8.318675E-2,1.6393E-2,4.80154E-1,-7.09435E-2,-2.7552623E-2,-7.834854E-2,-2.9769158E-2,3.161928E-2,-8.0635145E-2,6.3495226E-2,-1.819525E-2,3.5143543E-2,8.1783734E-2,6.411434E-2,1.34853935E-2,6.315629E-2,7.6018535E-2],"split_indices":[3,3,7,6,7,0,3,7,5,0,0,6,0,6,3,0,0,0,0,0,0,0,0,0,0,0,0,0,0],"split_type":[0,0,0,0,0,0,0,0,0,0,0,0,0,0,0,0,0,0,0,0,0,0,0,0,0,0,0,0,0],"sum_hessian":[1.5145425E4,7.4275635E3,7.717862E3,6.107844E3,1.3197191E3,4.5210413E2,7.265758E3,1.6102373E3,4.497607E3,4.506269E2,8.690922E2,6.128146E1,3.9082266E2,5.758564E2,6.6899014E3,1.0025521E3,6.076852E2,4.3654595E3,1.3214743E2,1.3414744E1,4.3721216E2,1.25739204E2,7.43353E2,5.7777476E0,5.550371E1,1.7114769E2,4.047087E2,1.5862256E3,5.103676E3],"tree_param":{"num_deleted":"0","num_feature":"21","num_nodes":"29","size_leaf_vector":"1"}},{"base_weights":[6.54621E-3,-1.2224265E0,1.1890537E0,-1.3479075E0,-2.8057093E-2,-1.1583906E0,1.336344E0,-1.534586E0,-1.0964005E0,-5.3008735E-1,8.709249E-1,-8.0516964E-2,1.4487516E0,-5.825468E-1,1.3706508E0,-7.202634E-2,-7.728059E-2,-6.434902E-2,4.646506E-3,-3.938244E-2,2.0173898E-2,2.0540742E-2,7.696346E-2,7.604522E-2,-5.450207E-2,5.7210106E-2,-5.5358022E-2,3.359268E-2,7.145808E-2],"categories":[],"categories_nodes":[],"categories_segments":[],"categories_sizes":[],"default_left":[0,0,0,0,0,0,0,0,0,0,0,0,0,0,0,0,0,0,0,0,0,0,0,0,0,0,0,0,0],"id":7,"left_children":[1,3,5,7,9,11,13,15,17,19,21,-1,23,25,27,-1,-1,-1,-1,-1,-1,-1,-1,-1,-1,-1,-1,-1,-1],"loss_changes":[2.1804436E4,1.1026084E3,2.645337E3,3.109082E2,3.1660715E2,5.34902E2,4.7447754E2,1.734375E0,6.4381885E2,1.0854609E2,7.667308E1,0E0,1.3986343E1,1.16389854E2,2.880869E2,0E0,0E0,0E0,0E0,0E0,0E0,0E0,0E0,0E0,0E0,0E0,0E0,0E0,0E0],"parents":[2147483647,0,0,1,1,2,2,3,3,4,4,5,5,6,6,7,7,8,8,9,9,10,10,12,12,13,13,14,14],"right_children":[2,4,6,8,10,12,14,16,18,20,22,-1,24,26,28,-1,-1,-1,-1,-1,-1,-1,-1,-1,-1,-1,-1,-1,-1],"split_conditions":[3.93015E-1,1.84532E-1,1E0,1E0,1.25E-1,3.31078E-1,1.20487E-1,7.03E-4,5.97015E-1,2.32019E-1,5.05882E-1,-8.0516964E-2,1E0,1.9E1,4.30364E-1,-7.202634E-2,-7.728059E-2,-6.434902E-2,4.646506E-3,-3.938244E-2,2.0173898E-2,2.0540742E-2,7.696346E-2,7.604522E-2,-5.450207E-2,5.7210106E-2,-5.5358022E-2,3.359268E-2,7.145808E-2],"split_indices":[3,2,7,7,5,2,2,10,5,2,5,0,1,15,3,0,0,0,0,0,0,0,0,0,0,0,0,0,0],"split_type":[0,0,0,0,0,0,0,0,0,0,0,0,0,0,0,0,0,0,0,0,0,0,0,0,0,0,0,0,0],"sum_hessian":[1.5001712E4,7.35631E3,7.6454014E3,6.6568135E3,6.9949664E2,4.5098306E2,7.1944185E3,3.81791E3,2.8389033E3,4.4910654E2,2.5039009E2,3.846809E2,6.630217E1,1.2608474E2,7.068334E3,4.143986E2,3.4035112E3,2.446751E3,3.921525E2,3.5211722E2,9.6989334E1,1.4925366E2,1.0113643E2,6.485978E1,1.4423907E0,2.9105125E1,9.6979614E1,5.470749E2,6.521259E3],"tree_param":{"num_deleted":"0","num_feature":"21","num_nodes":"29","size_leaf_vector":"1"}},{"base_weights":[2.9985614E-3,-8.931648E-1,1.0869951E0,-1.4941572E0,-3.1508335E-1,-6.8004465E-1,1.2049384E0,-1.2543768E0,-7.532937E-2,-1.1419156E0,5.121311E-1,6.922985E-1,-7.843787E-2,6.449532E-1,1.3904681E0,-7.081565E-2,-1.8604675E-2,-2.9322362E-2,-6.7952745E-2,-4.7216218E-2,5.6619823E-2,-7.564927E-2,4.579215E-2,-2.9510075E-2,6.632304E-2,5.797833E-2,7.275167E-2],"categories":[],"categories_nodes":[],"categories_segments":[],"categories_sizes":[],"default_left":[0,0,0,0,0,0,0,0,0,0,0,0,0,0,0,0,0,0,0,0,0,0,0,0,0,0,0],"id":8,"left_children":[1,3,5,7,9,11,13,15,-1,17,19,21,-1,23,25,-1,-1,-1,-1,-1,-1,-1,-1,-1,-1,-1,-1],"loss_changes":[1.4293321E4,2.7978901E3,1.3886118E3,9.879883E0,2.8095303E3,5.1001883E2,6.476758E2,2.813211E1,0E0,2.46969E2,1.8563013E3,8.258421E1,0E0,1.310083E3,6.820703E1,0E0,0E0,0E0,0E0,0E0,0E0,0E0,0E0,0E0,0E0,0E0,0E0],"parents":[2147483647,0,0,1,1,2,2,3,3,4,4,5,5,6,6,7,7,9,9,10,10,11,11,13,13,14,14],"right_children":[2,4,6,8,10,12,14,16,-1,18,20,22,-1,24,26,-1,-1,-1,-1,-1,-1,-1,-1,-1,-1,-1,-1],"split_conditions":[1.73457E-1,1E0,1E0,2.96E-2,3.7069E-1,2E0,1.95025E-1,7.54386E-1,-7.532937E-2,1.7241E-2,1.21912E-1,1.95025E-1,-7.843787E-2,1.64557E-1,2.1006E-1,-7.081565E-2,-1.8604675E-2,-2.9322362E-2,-6.7952745E-2,-4.7216218E-2,5.6619823E-2,-7.564927E-2,4.579215E-2,-2.9510075E-2,6.632304E-2,5.797833E-2,7.275167E-2],"split_indices":[2,7,7,8,5,0,2,5,0,6,2,2,0,5,2,0,0,0,0,0,0,0,0,0,0,0,0],"split_type":[0,0,0,0,0,0,0,0,0,0,0,0,0,0,0,0,0,0,0,0,0,0,0,0,0,0,0],"sum_hessian":[1.4711571E4,8.053634E3,6.657937E3,3.947794E3,4.10584E3,4.1628845E2,6.2416484E3,1.995905E2,3.7482034E3,2.053204E3,2.052636E3,1.637099E2,2.5257854E2,1.554418E3,4.6872305E3,1.6812682E2,3.1463675E1,5.7808777E2,1.4751163E3,6.129158E2,1.4397201E3,1.4536646E1,1.4917326E2,5.527521E2,1.00166595E3,1.028395E3,3.6588354E3],"tree_param":{"num_deleted":"0","num_feature":"21","num_nodes":"27","size_leaf_vector":"1"}},{"base_weights":[3.021482E-3,-1.1424654E0,1.1200517E0,-1.2823561E0,-5.136828E-1,-1.0982685E0,1.262884E0,-1.3650141E0,-9.218005E-1,-1.424086E0,-6.612659E-2,1.4121292E0,-7.6096885E-2,4.902372E-1,1.3336096E0,-6.530938E-2,-7.346987E-2,-6.470051E-2,6.0105855E-3,2.2572028E-2,-7.437745E-2,7.806745E-2,-1.1760014E-2,7.266911E-2,4.1237775E-2,5.395899E-3,5.5468716E-2,5.6191422E-2,6.9899075E-2],"categories":[],"categories_nodes":[],"categories_segments":[],"categories_sizes":[],"default_left":[0,0,0,0,0,0,0,0,0,0,0,0,0,0,0,0,0,0,0,0,0,0,0,0,0,0,0,0,0],"id":9,"left_children":[1,3,5,7,9,11,13,15,17,19,21,23,-1,25,27,-1,-1,-1,-1,-1,-1,-1,-1,-1,-1,-1,-1,-1,-1],"loss_changes":[1.848181E4,6.266084E2,2.3184521E3,1.7257324E2,5.293854E2,4.732177E2,3.748164E2,2.7205078E1,4.232442E2,5.1642456E1,2.4037637E2,3.6358643E-1,0E0,1.3664609E2,8.3424805E1,0E0,0E0,0E0,0E0,0E0,0E0,0E0,0E0,0E0,0E0,0E0,0E0,0E0,0E0],"parents":[2147483647,0,0,1,1,2,2,3,3,4,4,5,5,6,6,7,7,8,8,9,9,10,10,11,11,13,13,14,14],"right_children":[2,4,6,8,10,12,14,16,18,20,22,24,-1,26,28,-1,-1,-1,-1,-1,-1,-1,-1,-1,-1,-1,-1,-1,-1],"split_conditions":[3.93015E-1,3.35005E-1,1E0,5.97015E-1,1E0,2E0,4.30364E-1,1.6E1,1E0,2E0,2.05267E-1,1.9E1,-7.6096885E-2,4.91124E-1,4.80154E-1,-6.530938E-2,-7.346987E-2,-6.470051E-2,6.0105855E-3,2.2572028E-2,-7.437745E-2,7.806745E-2,-1.1760014E-2,7.266911E-2,4.1237775E-2,5.395899E-3,5.5468716E-2,5.6191422E-2,6.9899075E-2],"split_indices":[3,3,7,5,7,0,3,19,7,0,10,19,0,5,3,0,0,0,0,0,0,0,0,0,0,0,0,0,0],"split_type":[0,0,0,0,0,0,0,0,0,0,0,0,0,0,0,0,0,0,0,0,0,0,0,0,0,0,0,0,0],"sum_hessian":[1.4442067E4,7.1302007E3,7.3118667E3,5.831726E3,1.2984746E3,4.4190915E2,6.8699575E3,4.741861E3,1.089865E3,4.2723206E2,8.712426E2,6.347328E1,3.7843588E2,5.767827E2,6.293175E3,3.041374E3,1.700487E3,8.028448E2,2.8702023E2,1.3783176E1,4.1344888E2,8.121787E1,7.900247E2,5.793028E1,5.543003E0,3.5731427E2,2.1946846E2,1.4819869E3,4.811188E3],"tree_param":{"num_deleted":"0","num_feature":"21","num_nodes":"29","size_leaf_vector":"1"}},{"base_weights":[1.285326E-2,-1.0350019E0,1.1682447E0,-1.2613491E0,-3.671877E-1,-3.3525595E-1,1.2603323E0,-1.3094088E0,-1.0396095E-1,-1.3745232E0,-7.638222E-3,4.5765594E-1,-6.0616755E-1,1.0159326E0,1.3728589E0,-5.0341833E-2,-7.0798464E-2,4.372604E-2,-2.6073102E-2,5.0531186E-2,-7.044411E-2,-9.601858E-3,6.653326E-2,-8.1096895E-2,6.1636385E-2,2.9644275E-3,-6.646148E-2,2.6342222E-2,6.3226566E-2,6.4126275E-2,7.092918E-2],"categories":[],"categories_nodes":[],"categories_segments":[],"categories_sizes":[],"default_left":[0,0,0,0,0,0,0,0,0,0,0,0,0,0,0,0,0,0,0,0,0,0,0,0,0,0,0,0,0,0,0],"id":10,"left_children":[1,3,5,7,9,11,13,15,17,19,21,23,25,27,29,-1,-1,-1,-1,-1,-1,-1,-1,-1,-1,-1,-1,-1,-1,-1,-1],"loss_changes":[1.7246441E4,1.1287256E3,9.384414E2,3.101787E2,6.854009E2,8.443948E1,1.7417969E2,1.7127539E2,9.1762634E1,4.2217834E1,3.4467422E2,1.6373865E2,1.40798E2,2.4451953E2,1.6225586E1,0E0,0E0,0E0,0E0,0E0,0E0,0E0,0E0,0E0,0E0,0E0,0E0,0E0,0E0,0E0,0E0],"parents":[2147483647,0,0,1,1,2,2,3,3,4,4,5,5,6,6,7,7,8,8,9,9,10,10,11,11,12,12,13,13,14,14],"right_children":[2,4,6,8,10,12,14,16,18,20,22,24,26,28,30,-1,-1,-1,-1,-1,-1,-1,-1,-1,-1,-1,-1,-1,-1,-1,-1],"split_conditions":[4.1825E-1,3.29859E-1,1.35583E-1,1.95025E-1,1.23547E-1,1.32492E-1,1.90438E-1,9.346E-3,6.1721E-2,5.604486E0,1.09500755E2,1.07601E-1,2.25E0,9.1E1,2.20651E-1,-5.0341833E-2,-7.0798464E-2,4.372604E-2,-2.6073102E-2,5.0531186E-2,-7.044411E-2,-9.601858E-3,6.653326E-2,-8.1096895E-2,6.1636385E-2,2.9644275E-3,-6.646148E-2,2.6342222E-2,6.3226566E-2,6.4126275E-2,7.092918E-2],"split_indices":[3,3,2,2,2,11,2,6,8,8,8,2,17,1,2,0,0,0,0,0,0,0,0,0,0,0,0,0,0,0,0],"split_type":[0,0,0,0,0,0,0,0,0,0,0,0,0,0,0,0,0,0,0,0,0,0,0,0,0,0,0,0,0,0,0],"sum_hessian":[1.4243219E4,7.4692563E3,6.7739624E3,5.577832E3,1.8914243E3,3.9079944E2,6.383163E3,5.3553247E3,2.2250739E2,4.9678333E2,1.394641E3,9.9344826E1,2.914546E2,2.0155525E3,4.3676104E3,1.3975402E3,3.9577842E3,6.621862E1,1.5628876E2,6.6512365E0,4.9013208E2,1.226503E3,1.6813795E2,2.6676506E1,7.266832E1,1.5225119E2,1.3920341E2,6.8028766E2,1.3352649E3,1.4775719E3,2.8900386E3],"tree_param":{"num_deleted":"0","num_feature":"21","num_nodes":"31","size_leaf_vector":"1"}},{"base_weights":[2.440173E-3,-1.0784346E0,1.053908E0,-1.2110181E0,6.6188894E-2,-1.1177628E0,1.1889333E0,-1.397854E0,-9.697158E-1,-4.8841178E-1,9.586629E-1,1.317051E0,-7.397866E-2,-4.0671557E-1,1.2228663E0,-5.857789E-2,-7.034589E-2,-5.687328E-2,1.6572028E-2,1.4039071E-2,-6.547398E-2,2.2805683E-2,7.59437E-2,9.362571E-3,7.286489E-2,-5.018252E-2,4.8805587E-2,4.3396436E-2,6.60475E-2],"categories":[],"categories_nodes":[],"categories_segments":[],"categories_sizes":[],"default_left":[0,0,0,0,0,0,0,0,0,0,0,0,0,0,0,0,0,0,0,0,0,0,0,0,0,0,0,0,0],"id":11,"left_children":[1,3,5,7,9,11,13,15,17,19,21,23,-1,25,27,-1,-1,-1,-1,-1,-1,-1,-1,-1,-1,-1,-1,-1,-1],"loss_changes":[1.5717498E4,1.0349922E3,2.0569316E3,2.741797E2,3.513304E2,3.638974E2,3.57875E2,5.4121094E0,5.8322534E2,2.7689456E2,7.5888E1,8.233452E0,0E0,1.1504989E2,2.238584E2,0E0,0E0,0E0,0E0,0E0,0E0,0E0,0E0,0E0,0E0,0E0,0E0,0E0,0E0],"parents":[2147483647,0,0,1,1,2,2,3,3,4,4,5,5,6,6,7,7,8,8,9,9,10,10,11,11,13,13,14,14],"right_children":[2,4,6,8,10,12,14,16,18,20,22,24,-1,26,28,-1,-1,-1,-1,-1,-1,-1,-1,-1,-1,-1,-1,-1,-1],"split_conditions":[3.93015E-1,1.84532E-1,1E0,1E0,1.29032E-1,2E0,1.20992E-1,1.1653E-2,6.66667E-1,4.2254E-2,5.05882E-1,6.897E-3,-7.397866E-2,7.87234E-1,4.58765E-1,-5.857789E-2,-7.034589E-2,-5.687328E-2,1.6572028E-2,1.4039071E-2,-6.547398E-2,2.2805683E-2,7.59437E-2,9.362571E-3,7.286489E-2,-5.018252E-2,4.8805587E-2,4.3396436E-2,6.60475E-2],"split_indices":[3,2,7,7,5,0,2,8,5,6,5,6,0,5,3,0,0,0,0,0,0,0,0,0,0,0,0,0,0],"split_type":[0,0,0,0,0,0,0,0,0,0,0,0,0,0,0,0,0,0,0,0,0,0,0,0,0,0,0,0,0],"sum_hessian":[1.3827678E4,6.818478E3,7.0091997E3,6.1106177E3,7.078602E2,4.09866E2,6.599334E3,3.4412942E3,2.6693237E3,4.368475E2,2.7101276E2,5.268443E1,3.5718158E2,1.3719025E2,6.4621436E3,1.3754166E2,3.3037524E3,2.364597E3,3.0472678E2,2.2588852E2,2.1095897E2,1.4381482E2,1.2719794E2,6.0756154E0,4.6608814E1,9.601638E1,4.1173866E1,1.4012513E3,5.060892E3],"tree_param":{"num_deleted":"0","num_feature":"21","num_nodes":"29","size_leaf_vector":"1"}},{"base_weights":[-1.1248857E-4,-1.0615678E0,1.0296543E0,-1.1867485E0,4.567476E-3,-1.0723865E0,1.1627313E0,-1.3030968E0,-8.044079E-1,-5.655727E-1,8.962181E-1,1.2650172E0,-7.2285704E-2,-6.182436E-1,1.1893451E0,-6.765699E-2,-5.1743414E-2,-6.804212E-2,-1.939695E-2,-2.1188367E-2,-8.426412E-2,2.6457274E-2,7.039937E-2,6.7235E-2,-6.6111095E-2,-6.875254E-2,4.4729307E-2,2.9241104E-2,6.235794E-2],"categories":[],"categories_nodes":[],"categories_segments":[],"categories_sizes":[],"default_left":[0,0,0,0,0,0,0,0,0,0,0,0,0,0,0,0,0,0,0,0,0,0,0,0,0,0,0,0,0],"id":12,"left_children":[1,3,5,7,9,11,13,15,17,19,21,23,-1,25,27,-1,-1,-1,-1,-1,-1,-1,-1,-1,-1,-1,-1,-1,-1],"loss_changes":[1.4860961E4,8.9350635E2,1.931668E3,2.654795E2,3.5864188E2,3.6081976E2,3.0837793E2,6.0237305E1,3.240124E2,6.76136E1,5.0944656E1,1.3568535E1,0E0,1.11395386E2,2.2278516E2,0E0,0E0,0E0,0E0,0E0,0E0,0E0,0E0,0E0,0E0,0E0,0E0,0E0,0E0],"parents":[2147483647,0,0,1,1,2,2,3,3,4,4,5,5,6,6,7,7,8,8,9,9,10,10,11,11,13,13,14,14],"right_children":[2,4,6,8,10,12,14,16,18,20,22,24,-1,26,28,-1,-1,-1,-1,-1,-1,-1,-1,-1,-1,-1,-1,-1,-1],"split_conditions":[3.93015E-1,1.84532E-1,1E0,3.10453E-1,1.29032E-1,2E0,1.15204E-1,6.66667E-1,1.1E0,1.6E1,5.05882E-1,1E0,-7.2285704E-2,2.85737E-1,4.30364E-1,-6.765699E-2,-5.1743414E-2,-6.804212E-2,-1.939695E-2,-2.1188367E-2,-8.426412E-2,2.6457274E-2,7.039937E-2,6.7235E-2,-6.6111095E-2,-6.875254E-2,4.4729307E-2,2.9241104E-2,6.235794E-2],"split_indices":[3,2,7,3,5,0,2,5,7,12,5,1,0,11,3,0,0,0,0,0,0,0,0,0,0,0,0,0,0],"split_type":[0,0,0,0,0,0,0,0,0,0,0,0,0,0,0,0,0,0,0,0,0,0,0,0,0,0,0,0,0],"sum_hessian":[1.359385E4,6.6939155E3,6.8999346E3,5.9904326E3,7.034828E2,4.103958E2,6.4895386E3,4.5909683E3,1.3994641E3,4.2932748E2,2.741553E2,5.61916E1,3.5420422E2,9.52209E1,6.394318E3,3.8657073E3,7.2526105E2,5.980952E2,8.0136884E2,3.822908E2,4.7036667E1,1.6083115E2,1.13324165E2,5.4978603E1,1.212997E0,6.3530334E1,3.1690567E1,5.591135E2,5.835204E3],"tree_param":{"num_deleted":"0","num_feature":"21","num_nodes":"29","size_leaf_vector":"1"}},{"base_weights":[3.2048447E-3,-9.6823806E-1,1.0745759E0,-1.2169576E0,-4.3608302E-1,-1.0818418E0,1.1783451E0,-8.973937E-1,-1.341868E0,-1.3282813E0,-4.4383194E-2,1.1771328E0,-7.119672E-2,8.688246E-1,1.2458353E0,-6.1303705E-2,-1.846161E-2,-6.812067E-2,-3.369767E-2,2.9662175E-2,-6.914597E-2,-1.7589573E-2,3.6722645E-2,6.2639765E-2,-3.7938956E-2,6.425018E-2,3.868571E-2,5.5732943E-2,6.452619E-2],"categories":[],"categories_nodes":[],"categories_segments":[],"categories_sizes":[],"default_left":[0,0,0,0,0,0,0,0,0,0,0,0,0,0,0,0,0,0,0,0,0,0,0,0,0,0,0,0,0],"id":13,"left_children":[1,3,5,7,9,11,13,15,17,19,21,23,-1,25,27,-1,-1,-1,-1,-1,-1,-1,-1,-1,-1,-1,-1,-1,-1],"loss_changes":[1.3819149E4,9.2115625E2,1.4141826E3,1.882041E2,7.756232E2,2.2610153E2,1.2477051E2,2.3156213E2,4.5868652E1,7.191089E1,3.6979086E2,6.625458E0,0E0,4.1826965E1,2.7542969E1,0E0,0E0,0E0,0E0,0E0,0E0,0E0,0E0,0E0,0E0,0E0,0E0,0E0,0E0],"parents":[2147483647,0,0,1,1,2,2,3,3,4,4,5,5,6,6,7,7,8,8,9,9,10,10,11,11,13,13,14,14],"right_children":[2,4,6,8,10,12,14,16,18,20,22,24,-1,26,28,-1,-1,-1,-1,-1,-1,-1,-1,-1,-1,-1,-1,-1,-1],"split_conditions":[4.1825E-1,3.10453E-1,1E0,9.346E-3,1E0,1E0,4.58765E-1,1E0,1E0,1E0,5.42857E-1,2E0,-7.119672E-2,1.1E1,5.064E-1,-6.1303705E-2,-1.846161E-2,-6.812067E-2,-3.369767E-2,2.9662175E-2,-6.914597E-2,-1.7589573E-2,3.6722645E-2,6.2639765E-2,-3.7938956E-2,6.425018E-2,3.868571E-2,5.5732943E-2,6.452619E-2],"split_indices":[3,3,7,6,7,1,3,7,5,1,5,0,0,1,3,0,0,0,0,0,0,0,0,0,0,0,0,0,0],"split_type":[0,0,0,0,0,0,0,0,0,0,0,0,0,0,0,0,0,0,0,0,0,0,0,0,0,0,0,0,0],"sum_hessian":[1.3275739E4,6.9626245E3,6.313115E3,4.7440537E3,2.2185708E3,2.8941354E2,6.0237017E3,1.3355194E3,3.4085342E3,6.761262E2,1.5424446E3,3.7742653E1,2.516709E2,1.08081E3,4.9428916E3,8.224062E2,5.131132E2,3.3058064E3,1.0272795E2,1.8421396E1,6.5770483E2,1.1063243E3,4.3612024E2,3.6662613E1,1.0800419E0,1.9872589E2,8.820842E2,1.2626185E3,3.680273E3],"tree_param":{"num_deleted":"0","num_feature":"21","num_nodes":"29","size_leaf_vector":"1"}},{"base_weights":[1.1259695E-2,-9.3736315E-1,1.0478418E0,-1.1441529E0,-3.3689654E-1,-9.939649E-1,1.147421E0,-1.2561913E0,-9.0939E-1,-1.2569845E0,2.7213292E-2,1.1815364E0,-6.954519E-2,8.884091E-1,1.2409093E0,-5.3129435E-2,-6.469125E-2,-6.0865905E-2,-1.4597756E-2,4.783655E-2,-6.811022E-2,-6.077334E-3,6.8148494E-2,6.479025E-2,1.2532321E-2,2.003741E-2,4.7638796E-2,5.4176915E-2,6.300642E-2],"categories":[],"categories_nodes":[],"categories_segments":[],"categories_sizes":[],"default_left":[0,0,0,0,0,0,0,0,0,0,0,0,0,0,0,0,0,0,0,0,0,0,0,0,0,0,0,0,0],"id":14,"left_children":[1,3,5,7,9,11,13,15,17,19,21,23,-1,25,27,-1,-1,-1,-1,-1,-1,-1,-1,-1,-1,-1,-1,-1,-1],"loss_changes":[1.2889951E4,8.4952E2,1.2747168E3,1.3276074E2,5.8790625E2,2.5364111E2,1.4353174E2,2.3715332E1,3.1302856E2,1.1719684E2,2.5018286E2,4.522522E0,0E0,4.945349E1,1.1901367E1,0E0,0E0,0E0,0E0,0E0,0E0,0E0,0E0,0E0,0E0,0E0,0E0,0E0,0E0],"parents":[2147483647,0,0,1,1,2,2,3,3,4,4,5,5,6,6,7,7,8,8,9,9,10,10,11,11,13,13,14,14],"right_children":[2,4,6,8,10,12,14,16,18,20,22,24,-1,26,28,-1,-1,-1,-1,-1,-1,-1,-1,-1,-1,-1,-1,-1,-1],"split_conditions":[4.1825E-1,3.29859E-1,1E0,3.63636E-1,1E0,2E0,4.80154E-1,9.9505E-2,1E0,6.1721E-2,9.72927E-1,1.4E1,-6.954519E-2,4.30364E-1,4.97826E-1,-5.3129435E-2,-6.469125E-2,-6.0865905E-2,-1.4597756E-2,4.783655E-2,-6.811022E-2,-6.077334E-3,6.8148494E-2,6.479025E-2,1.2532321E-2,2.003741E-2,4.7638796E-2,5.4176915E-2,6.300642E-2],"split_indices":[3,3,7,5,7,0,3,10,7,8,11,19,0,3,3,0,0,0,0,0,0,0,0,0,0,0,0,0,0],"split_type":[0,0,0,0,0,0,0,0,0,0,0,0,0,0,0,0,0,0,0,0,0,0,0,0,0,0,0,0,0],"sum_hessian":[1.3106531E4,6.843674E3,6.2628574E3,5.0899E3,1.7537736E3,2.908191E2,5.9720386E3,3.4426E3,1.6472999E3,4.9655386E2,1.2572197E3,4.4569664E1,2.4624942E2,1.5866593E3,4.3853794E3,5.650414E2,2.8775588E3,1.0984884E3,5.488115E2,2.2163528E1,4.7439032E2,1.1320546E3,1.2516517E2,3.9347656E1,5.222009E0,1.8584822E2,1.4008112E3,4.8352576E2,3.9018535E3],"tree_param":{"num_deleted":"0","num_feature":"21","num_nodes":"29","size_leaf_vector":"1"}},{"base_weights":[-4.240645E-3,-8.6387575E-1,1.043686E0,-1.2556063E0,-4.9527866E-1,-9.712722E-1,1.1384544E0,-7.8470993E-1,-6.6033825E-2,-7.8028643E-1,4.0092292E-1,1.1985798E0,-6.83258E-2,9.6004146E-1,1.2281051E0,-6.137057E-2,3.2886017E-2,3.358258E-3,-5.3929318E-2,6.8139695E-3,6.269521E-2,6.547379E-2,1.7142015E-2,4.4957507E-2,6.100635E-2,4.576465E-2,6.181966E-2],"categories":[],"categories_nodes":[],"categories_segments":[],"categories_sizes":[],"default_left":[0,0,0,0,0,0,0,0,0,0,0,0,0,0,0,0,0,0,0,0,0,0,0,0,0,0,0],"id":15,"left_children":[1,3,5,7,9,11,13,15,-1,17,19,21,-1,23,25,-1,-1,-1,-1,-1,-1,-1,-1,-1,-1,-1,-1],"loss_changes":[1.1386679E4,1.00201465E3,1.0888262E3,1.02092285E2,9.1453906E2,2.2154282E2,8.58457E1,2.633086E2,0E0,6.866542E2,1.9492761E2,3.3509903E0,0E0,2.7792603E1,8.248047E0,0E0,0E0,0E0,0E0,0E0,0E0,0E0,0E0,0E0,0E0,0E0,0E0],"parents":[2147483647,0,0,1,1,2,2,3,3,4,4,5,5,6,6,7,7,9,9,10,10,11,11,13,13,14,14],"right_children":[2,4,6,8,10,12,14,16,-1,18,20,22,-1,24,26,-1,-1,-1,-1,-1,-1,-1,-1,-1,-1,-1,-1],"split_conditions":[4.30364E-1,1E0,1E0,2E0,4.91124E-1,2E0,4.97826E-1,1.96125E-1,-6.6033825E-2,1.0204E-2,9.96389E-1,1.4E1,-6.83258E-2,2E-1,6.897E-3,-6.137057E-2,3.2886017E-2,3.358258E-3,-5.3929318E-2,6.8139695E-3,6.269521E-2,6.547379E-2,1.7142015E-2,4.4957507E-2,6.100635E-2,4.576465E-2,6.181966E-2],"split_indices":[3,7,7,0,5,0,3,3,0,6,11,19,0,6,6,0,0,0,0,0,0,0,0,0,0,0,0],"split_type":[0,0,0,0,0,0,0,0,0,0,0,0,0,0,0,0,0,0,0,0,0,0,0,0,0,0,0],"sum_hessian":[1.2638143E4,6.9429106E3,5.695232E3,3.3646675E3,3.5782432E3,2.5541287E2,5.439819E3,4.1007944E2,2.954588E3,2.7149658E3,8.6327734E2,3.9042213E1,2.1637067E2,1.8231973E3,3.6166218E3,3.1389105E2,9.618837E1,7.0705133E2,2.0079146E3,6.5974615E2,2.0353119E2,3.409375E1,4.9484634E0,1.4809369E3,3.4226044E2,9.622823E1,3.5203936E3],"tree_param":{"num_deleted":"0","num_feature":"21","num_nodes":"27","size_leaf_vector":"1"}},{"base_weights":[4.4863432E-4,-9.745222E-1,9.282978E-1,-1.1071292E0,9.43931E-2,-9.6763676E-1,1.0472301E0,-1.2855264E0,-8.9124155E-1,-2.0477477E-1,1.1050553E0,1.1808972E0,-6.676012E-2,-1.6551896E0,1.0717739E0,-5.8103215E-2,-6.480358E-2,-5.678749E-2,-2.533472E-3,-3.521964E-2,2.3933003E-2,6.587205E-4,7.269395E-2,6.295173E-2,2.0865025E-2,-9.716629E-2,6.487474E-2,2.2631086E-2,5.666193E-2],"categories":[],"categories_nodes":[],"categories_segments":[],"categories_sizes":[],"default_left":[0,0,0,0,0,0,0,0,0,0,0,0,0,0,0,0,0,0,0,0,0,0,0,0,0,0,0,0,0],"id":16,"left_children":[1,3,5,7,9,11,13,15,17,19,21,23,-1,25,27,-1,-1,-1,-1,-1,-1,-1,-1,-1,-1,-1,-1,-1,-1],"loss_changes":[1.1233313E4,8.583838E2,1.4356968E3,2.0632275E2,2.0256218E2,2.9858203E2,3.9890967E2,2.3305664E0,5.015492E2,1.7693573E2,5.8255157E1,2.7843246E0,0E0,4.8703964E1,2.2531934E2,0E0,0E0,0E0,0E0,0E0,0E0,0E0,0E0,0E0,0E0,0E0,0E0,0E0,0E0],"parents":[2147483647,0,0,1,1,2,2,3,3,4,4,5,5,6,6,7,7,8,8,9,9,10,10,11,11,13,13,14,14],"right_children":[2,4,6,8,10,12,14,16,18,20,22,24,-1,26,28,-1,-1,-1,-1,-1,-1,-1,-1,-1,-1,-1,-1,-1,-1],"split_conditions":[3.90118E-1,1.84532E-1,1E0,1E0,2.45614E-1,2E0,1.10374E-1,9.6806E-2,5E-1,3.39638E-1,7.9E-1,1.7E1,-6.676012E-2,1.933302E0,4.30364E-1,-5.8103215E-2,-6.480358E-2,-5.678749E-2,-2.533472E-3,-3.521964E-2,2.3933003E-2,6.587205E-4,7.269395E-2,6.295173E-2,2.0865025E-2,-9.716629E-2,6.487474E-2,2.2631086E-2,5.666193E-2],"split_indices":[3,2,7,7,5,0,2,3,5,3,7,19,0,10,3,0,0,0,0,0,0,0,0,0,0,0,0,0,0],"split_type":[0,0,0,0,0,0,0,0,0,0,0,0,0,0,0,0,0,0,0,0,0,0,0,0,0,0,0,0,0],"sum_hessian":[1.2415635E4,6.054062E3,6.3615728E3,5.385868E3,6.681938E2,3.7508582E2,5.9864873E3,2.9462783E3,2.4395898E3,5.1619226E2,1.5200156E2,5.447136E1,3.2061447E2,5.328283E1,5.933204E3,2.405952E2,2.7056833E3,1.889589E3,5.500008E2,2.9818008E2,2.1801216E2,3.7053913E1,1.1494765E2,4.8826244E1,5.6451125E0,4.8856987E1,4.425842E0,5.365665E2,5.3966377E3],"tree_param":{"num_deleted":"0","num_feature":"21","num_nodes":"29","size_leaf_vector":"1"}},{"base_weights":[-4.222925E-3,-7.665992E-1,7.9004383E-1,-1.2632152E0,-3.0371633E-1,-7.173862E-1,9.0613675E-1,-1.1030123E0,-6.398458E-2,-7.2900164E-1,5.167623E-1,4.1296753E-1,-6.656337E-2,4.132465E-1,1.1445177E0,-3.9271336E-2,-6.467562E-2,-1.2397651E-2,-5.376661E-2,-5.589499E-2,5.49294E-2,-6.5033935E-2,3.3574734E-2,-8.90943E-3,5.8461346E-2,4.8736405E-2,6.2071063E-2],"categories":[],"categories_nodes":[],"categories_segments":[],"categories_sizes":[],"default_left":[0,0,0,0,0,0,0,0,0,0,0,0,0,0,0,0,0,0,0,0,0,0,0,0,0,0,0],"id":17,"left_children":[1,3,5,7,9,11,13,15,-1,17,19,21,-1,23,25,-1,-1,-1,-1,-1,-1,-1,-1,-1,-1,-1,-1],"loss_changes":[7.259901E3,1.4058711E3,1.0282368E3,6.376953E0,1.1056676E3,2.9229138E2,6.401626E2,1.6071075E1,0E0,3.4737073E2,1.0302612E3,6.67666E1,0E0,7.956023E2,5.924707E1,0E0,0E0,0E0,0E0,0E0,0E0,0E0,0E0,0E0,0E0,0E0,0E0],"parents":[2147483647,0,0,1,1,2,2,3,3,4,4,5,5,6,6,7,7,9,9,10,10,11,11,13,13,14,14],"right_children":[2,4,6,8,10,12,14,16,-1,18,20,22,-1,24,26,-1,-1,-1,-1,-1,-1,-1,-1,-1,-1,-1,-1],"split_conditions":[1.67177E-1,1E0,1E0,2E0,1.44E2,2E0,1.95025E-1,9.255E-2,-6.398458E-2,2.6786E-2,1.21912E-1,1.96523E-1,-6.656337E-2,7.2E1,2.20651E-1,-3.9271336E-2,-6.467562E-2,-1.2397651E-2,-5.376661E-2,-5.589499E-2,5.49294E-2,-6.5033935E-2,3.3574734E-2,-8.90943E-3,5.8461346E-2,4.8736405E-2,6.2071063E-2],"split_indices":[2,7,7,0,0,0,2,2,0,6,2,2,0,1,2,0,0,0,0,0,0,0,0,0,0,0,0],"split_type":[0,0,0,0,0,0,0,0,0,0,0,0,0,0,0,0,0,0,0,0,0,0,0,0,0,0,0],"sum_hessian":[1.1987331E4,6.1164736E3,5.870857E3,2.949884E3,3.1665896E3,4.1943582E2,5.4514214E3,2.8143005E2,2.668454E3,2.0856362E3,1.0809532E3,1.4773506E2,2.7170074E2,1.777954E3,3.6734673E3,1.07439316E2,1.7399074E2,8.737395E2,1.2118969E3,2.8350723E2,7.9744604E2,1.883778E1,1.2889728E2,9.979669E2,7.7998706E2,1.3387803E3,2.334687E3],"tree_param":{"num_deleted":"0","num_feature":"21","num_nodes":"27","size_leaf_vector":"1"}},{"base_weights":[-1.0277691E-2,-8.451875E-1,9.481187E-1,-1.0265919E0,-1.3866068E-1,-9.606605E-1,1.0435901E0,-5.91389E-1,-1.1932868E0,-1.1013877E0,1.895304E-1,1.0806034E0,-6.4854585E-2,7.840483E-1,1.1432157E0,-5.2727856E-2,-1.3213678E-3,-6.428468E-2,-4.5845818E-2,5.6159336E-2,-6.416492E-2,4.1076332E-2,-9.602769E-3,6.147275E-2,-8.5309304E-2,5.842923E-2,3.5333805E-2,4.9164772E-2,5.818435E-2],"categories":[],"categories_nodes":[],"categories_segments":[],"categories_sizes":[],"default_left":[0,0,0,0,0,0,0,0,0,0,0,0,0,0,0,0,0,0,0,0,0,0,0,0,0,0,0,0,0],"id":18,"left_children":[1,3,5,7,9,11,13,15,17,19,21,23,-1,25,27,-1,-1,-1,-1,-1,-1,-1,-1,-1,-1,-1,-1,-1,-1],"loss_changes":[9.397662E3,8.04313E2,9.974385E2,3.615996E2,4.0573145E2,1.8062894E2,1.3376465E2,3.6241556E2,9.1015625E1,1.3354465E2,2.3119571E2,1.7642132E1,0E0,4.224829E1,1.1168457E1,0E0,0E0,0E0,0E0,0E0,0E0,0E0,0E0,0E0,0E0,0E0,0E0,0E0,0E0],"parents":[2147483647,0,0,1,1,2,2,3,3,4,4,5,5,6,6,7,7,8,8,9,9,10,10,11,11,13,13,14,14],"right_children":[2,4,6,8,10,12,14,16,18,20,22,24,-1,26,28,-1,-1,-1,-1,-1,-1,-1,-1,-1,-1,-1,-1,-1,-1],"split_conditions":[4.1825E-1,3.48618E-1,1E0,9.346E-3,1E0,2E0,4.80154E-1,1E0,2.95637E-1,6.1721E-2,2.4691E-2,1.4E1,-6.4854585E-2,1.1E1,4.97826E-1,-5.2727856E-2,-1.3213678E-3,-6.428468E-2,-4.5845818E-2,5.6159336E-2,-6.416492E-2,4.1076332E-2,-9.602769E-3,6.147275E-2,-8.5309304E-2,5.842923E-2,3.5333805E-2,4.9164772E-2,5.818435E-2],"split_indices":[3,3,7,6,7,0,3,7,3,8,6,19,0,1,3,0,0,0,0,0,0,0,0,0,0,0,0,0,0],"split_type":[0,0,0,0,0,0,0,0,0,0,0,0,0,0,0,0,0,0,0,0,0,0,0,0,0,0,0,0,0],"sum_hessian":[1.1742513E4,6.2756123E3,5.4669E3,4.993144E3,1.2824685E3,2.59981E2,5.206919E3,1.3841047E3,3.6090393E3,3.2544397E2,9.5702454E2,3.6472935E1,2.2350806E2,1.4467528E3,3.7601663E3,7.600952E2,6.240096E2,2.701963E3,9.070764E2,2.4209764E1,3.012342E2,3.5985938E2,5.971651E2,3.5154068E1,1.3188672E0,2.3997675E2,1.2067761E3,4.3227747E2,3.327889E3],"tree_param":{"num_deleted":"0","num_feature":"21","num_nodes":"29","size_leaf_vector":"1"}},{"base_weights":[8.317864E-3,-8.2599145E-1,9.455013E-1,-1.0736094E0,-3.345251E-1,-9.547971E-1,1.032508E0,-6.814516E-1,-1.2335356E0,-1.2094785E0,-1.2169199E-2,1.1131802E0,-6.421466E-2,7.6308954E-1,1.1768653E0,-4.4089954E-2,9.513138E-3,-6.2156048E-2,4.238091E-2,-6.319233E-2,2.4700888E-2,6.7918114E-2,-8.0384035E-3,3.742553E-2,6.006688E-2,8.55531E-3,4.5556635E-2,5.1872816E-2,6.0566913E-2],"categories":[],"categories_nodes":[],"categories_segments":[],"categories_sizes":[],"default_left":[0,0,0,0,0,0,0,0,0,0,0,0,0,0,0,0,0,0,0,0,0,0,0,0,0,0,0,0,0],"id":19,"left_children":[1,3,5,7,9,11,13,15,17,19,21,23,-1,25,27,-1,-1,-1,-1,-1,-1,-1,-1,-1,-1,-1,-1,-1,-1],"loss_changes":[9.03702E3,7.437471E2,9.009712E2,2.5413086E2,5.7818207E2,1.6416826E2,2.0155518E2,2.0623383E2,5.863623E1,5.1740845E1,3.0552127E2,1.7324066E-1,0E0,1.5925183E2,1.50234375E1,0E0,0E0,0E0,0E0,0E0,0E0,0E0,0E0,0E0,0E0,0E0,0E0,0E0,0E0],"parents":[2147483647,0,0,1,1,2,2,3,3,4,4,5,5,6,6,7,7,8,8,9,9,10,10,11,11,13,13,14,14],"right_children":[2,4,6,8,10,12,14,16,18,20,22,24,-1,26,28,-1,-1,-1,-1,-1,-1,-1,-1,-1,-1,-1,-1,-1,-1],"split_conditions":[4.1825E-1,3.10453E-1,1E0,6.897E-3,1E0,1E0,1.90438E-1,1.67675E-1,2.38108E-1,3.31078E-1,8E0,6.68831E-1,-6.421466E-2,6.8E1,2.07206E-1,-4.4089954E-2,9.513138E-3,-6.2156048E-2,4.238091E-2,-6.319233E-2,2.4700888E-2,6.7918114E-2,-8.0384035E-3,3.742553E-2,6.006688E-2,8.55531E-3,4.5556635E-2,5.1872816E-2,6.0566913E-2],"split_indices":[3,3,7,6,7,1,2,2,2,2,0,6,0,1,2,0,0,0,0,0,0,0,0,0,0,0,0,0,0],"split_type":[0,0,0,0,0,0,0,0,0,0,0,0,0,0,0,0,0,0,0,0,0,0,0,0,0,0,0,0,0],"sum_hessian":[1.1555758E4,6.1134746E3,5.442283E3,4.0644685E3,2.0490059E3,2.3783316E2,5.2044497E3,1.1789083E3,2.8855603E3,5.5092035E2,1.4980856E3,3.2359653E1,2.0547351E2,1.817912E3,3.3865378E3,9.5858386E2,2.2032442E2,2.8727317E3,1.282851E1,5.3413135E2,1.6789E1,1.4574394E2,1.3523416E3,8.147506E0,2.4212149E1,3.6410663E2,1.4538054E3,6.775622E2,2.7089756E3],"tree_param":{"num_deleted":"0","num_feature":"21","num_nodes":"29","size_leaf_vector":"1"}},{"base_weights":[-6.7951004E-3,-6.5252465E-1,8.1808245E-1,-1.0530294E0,-2.3026301E-1,2.5273988E-1,1.0188532E0,-7.696117E-1,-1.204583E0,-9.3381387E-1,9.910283E-1,-6.0197085E-1,1.0192921E0,7.8720367E-1,1.1282986E0,-4.838491E-2,1.3111173E-2,-6.25579E-2,-4.4322744E-2,-5.6469332E-2,-1.3127647E-2,2.5038144E-2,6.774927E-2,-6.647066E-3,-6.918921E-2,2.9695222E-2,6.329148E-2,-7.5545036E-3,5.1564552E-2,5.24709E-2,6.1004978E-2],"categories":[],"categories_nodes":[],"categories_segments":[],"categories_sizes":[],"default_left":[0,0,0,0,0,0,0,0,0,0,0,0,0,0,0,0,0,0,0,0,0,0,0,0,0,0,0,0,0,0,0],"id":20,"left_children":[1,3,5,7,9,11,13,15,17,19,21,23,25,27,29,-1,-1,-1,-1,-1,-1,-1,-1,-1,-1,-1,-1,-1,-1,-1,-1],"loss_changes":[5.931912E3,1.0561772E3,5.5477856E2,1.367644E2,2.6147454E3,8.4109406E2,9.058984E1,2.291087E2,2.9812744E1,2.5315833E2,1.9780847E2,2.2245866E2,7.021234E1,2.66065E2,1.6446777E1,0E0,0E0,0E0,0E0,0E0,0E0,0E0,0E0,0E0,0E0,0E0,0E0,0E0,0E0,0E0,0E0],"parents":[2147483647,0,0,1,1,2,2,3,3,4,4,5,5,6,6,7,7,8,8,9,9,10,10,11,11,12,12,13,13,14,14],"right_children":[2,4,6,8,10,12,14,16,18,20,22,24,26,28,30,-1,-1,-1,-1,-1,-1,-1,-1,-1,-1,-1,-1,-1,-1,-1,-1],"split_conditions":[1.74149E-1,3.63636E-1,1.95025E-1,2.6786E-2,1.35583E-1,1.88679E-1,6.5217E-2,1.63708E-1,1.67177E-1,1.18799E-1,5.21739E-1,8.1081E-2,3.26923E-1,2.20651E-1,2.14286E-1,-4.838491E-2,1.3111173E-2,-6.25579E-2,-4.4322744E-2,-5.6469332E-2,-1.3127647E-2,2.5038144E-2,6.774927E-2,-6.647066E-3,-6.918921E-2,2.9695222E-2,6.329148E-2,-7.5545036E-3,5.1564552E-2,5.24709E-2,6.1004978E-2],"split_indices":[2,5,2,6,2,5,5,2,2,2,5,6,5,2,5,0,0,0,0,0,0,0,0,0,0,0,0,0,0,0,0],"split_type":[0,0,0,0,0,0,0,0,0,0,0,0,0,0,0,0,0,0,0,0,0,0,0,0,0,0,0,0,0,0,0],"sum_hessian":[1.1134647E4,6.2456475E3,4.8890005E3,3.2046355E3,3.041012E3,1.281823E3,3.6071772E3,1.1186833E3,2.0859521E3,1.9296382E3,1.1113738E3,6.061626E2,6.7566046E2,1.1600452E3,2.447132E3,9.385647E2,1.801187E2,1.8170039E3,2.6894827E2,1.4937496E3,4.3588855E2,4.745333E2,6.3684045E2,3.7960065E2,2.2656192E2,2.4915877E2,4.2650168E2,2.3955505E2,9.2049005E2,1.3228745E3,1.1242577E3],"tree_param":{"num_deleted":"0","num_feature":"21","num_nodes":"31","size_leaf_vector":"1"}},{"base_weights":[-6.365793E-3,-7.963003E-1,8.9559126E-1,-1.1419457E0,-4.895743E-1,-9.438678E-1,9.832999E-1,-5.943163E-1,-6.1224014E-2,-7.4978596E-1,3.1684887E-1,1.048507E0,-6.3046746E-2,6.9548684E-1,1.0948303E0,-5.1685568E-2,3.0860988E-2,1.0281204E-3,-5.213472E-2,3.5895478E-2,-1.5790025E-2,5.7685763E-2,-4.686609E-2,5.511859E-2,3.0513827E-2,3.6633883E-2,5.522581E-2],"categories":[],"categories_nodes":[],"categories_segments":[],"categories_sizes":[],"default_left":[0,0,0,0,0,0,0,0,0,0,0,0,0,0,0,0,0,0,0,0,0,0,0,0,0,0,0],"id":21,"left_children":[1,3,5,7,9,11,13,15,-1,17,19,21,-1,23,25,-1,-1,-1,-1,-1,-1,-1,-1,-1,-1,-1,-1],"loss_changes":[7.773191E3,6.160598E2,8.2274243E2,1.2283667E2,6.472426E2,1.4809344E2,1.5532324E2,1.922823E2,0E0,5.260864E2,1.9125937E2,7.859787E0,0E0,4.6505432E1,1.1477539E1,0E0,0E0,0E0,0E0,0E0,0E0,0E0,0E0,0E0,0E0,0E0,0E0],"parents":[2147483647,0,0,1,1,2,2,3,3,4,4,5,5,6,6,7,7,9,9,10,10,11,11,13,13,14,14],"right_children":[2,4,6,8,10,12,14,16,-1,18,20,22,-1,24,26,-1,-1,-1,-1,-1,-1,-1,-1,-1,-1,-1,-1],"split_conditions":[4.1825E-1,1E0,1E0,2E0,4.86486E-1,1E0,4.80154E-1,1.96125E-1,-6.1224014E-2,1.0204E-2,4E1,1.10889E-1,-6.3046746E-2,1.1E1,8.264E-3,-5.1685568E-2,3.0860988E-2,1.0281204E-3,-5.213472E-2,3.5895478E-2,-1.5790025E-2,5.7685763E-2,-4.686609E-2,5.511859E-2,3.0513827E-2,3.6633883E-2,5.522581E-2],"split_indices":[3,7,7,0,5,1,3,3,0,6,15,8,0,1,6,0,0,0,0,0,0,0,0,0,0,0,0],"split_type":[0,0,0,0,0,0,0,0,0,0,0,0,0,0,0,0,0,0,0,0,0,0,0,0,0,0,0],"sum_hessian":[1.0907939E4,5.815147E3,5.092792E3,2.7328318E3,3.0823152E3,2.313373E2,4.861455E3,3.5900156E2,2.3738303E3,2.33042E3,7.518952E2,3.144397E1,1.9989333E2,1.3597485E3,3.5017063E3,2.6356107E2,9.544049E1,6.422456E2,1.6881744E3,4.600911E2,2.918041E2,3.0259842E1,1.1841276E0,2.3338452E2,1.126364E3,9.321201E1,3.4084944E3],"tree_param":{"num_deleted":"0","num_feature":"21","num_nodes":"27","size_leaf_vector":"1"}},{"base_weights":[2.452252E-3,-8.1817913E-1,8.11444E-1,-9.403031E-1,1.0579411E-1,-9.426634E-1,9.128832E-1,-1.185321E0,-6.863469E-1,-4.4219232E-1,8.787591E-1,1.0604411E0,-6.1846342E-2,6.4879805E-2,9.729154E-1,-5.031475E-2,-6.0296234E-2,-4.3819055E-2,1.2803562E-2,-1.1464101E-2,-6.575885E-2,4.7291186E-2,-7.889458E-2,7.81761E-3,5.7689555E-2,-8.545618E-2,3.6653616E-2,3.9808225E-2,5.7136398E-2],"categories":[],"categories_nodes":[],"categories_segments":[],"categories_sizes":[],"default_left":[0,0,0,0,0,0,0,0,0,0,0,0,0,0,0,0,0,0,0,0,0,0,0,0,0,0,0,0,0],"id":22,"left_children":[1,3,5,7,9,11,13,15,17,19,21,23,-1,25,27,-1,-1,-1,-1,-1,-1,-1,-1,-1,-1,-1,-1,-1,-1],"loss_changes":[7.1041284E3,5.9952637E2,9.596909E2,2.911499E2,2.6345358E2,1.7524323E2,2.5928857E2,7.590332E0,4.1328638E2,6.736965E1,4.3995132E1,3.0548859E0,0E0,4.017721E2,1.4188916E2,0E0,0E0,0E0,0E0,0E0,0E0,0E0,0E0,0E0,0E0,0E0,0E0,0E0,0E0],"parents":[2147483647,0,0,1,1,2,2,3,3,4,4,5,5,6,6,7,7,8,8,9,9,10,10,11,11,13,13,14,14],"right_children":[2,4,6,8,10,12,14,16,18,20,22,24,-1,26,28,-1,-1,-1,-1,-1,-1,-1,-1,-1,-1,-1,-1,-1,-1],"split_conditions":[3.93015E-1,1.85724E-1,1E0,1E0,1.29032E-1,2E0,1.38072E-1,2E0,5.90476E-1,2.1E1,1.2571429E1,1.5196E-2,-6.1846342E-2,5.78947E-1,2.07206E-1,-5.031475E-2,-6.0296234E-2,-4.3819055E-2,1.2803562E-2,-1.1464101E-2,-6.575885E-2,4.7291186E-2,-7.889458E-2,7.81761E-3,5.7689555E-2,-8.545618E-2,3.6653616E-2,3.9808225E-2,5.7136398E-2],"split_indices":[3,2,7,7,5,0,2,0,5,1,7,9,0,5,2,0,0,0,0,0,0,0,0,0,0,0,0,0,0],"split_type":[0,0,0,0,0,0,0,0,0,0,0,0,0,0,0,0,0,0,0,0,0,0,0,0,0,0,0,0,0],"sum_hessian":[1.0698858E4,5.3112153E3,5.3876436E3,4.6911553E3,6.2005975E2,2.9407907E2,5.0935645E3,2.3857278E3,2.3054275E3,3.630832E2,2.5697656E2,3.7334267E1,2.567448E2,3.3688376E2,4.7566807E3,2.5137338E2,2.1343545E3,1.9186173E3,3.8681012E2,2.929089E2,7.017428E1,2.507464E2,6.2301803E0,3.7444441E0,3.358982E1,9.174624E1,2.4513754E2,2.333512E3,2.4231687E3],"tree_param":{"num_deleted":"0","num_feature":"21","num_nodes":"29","size_leaf_vector":"1"}},{"base_weights":[4.561409E-3,-8.015109E-1,7.9830337E-1,-9.3042815E-1,1.09469846E-1,-4.4195363E-1,9.136083E-1,-1.0733169E0,-5.2860796E-1,-3.26216E-1,8.1171954E-1,-1.3626378E0,1.4151518E-1,6.675555E-1,1.0990496E0,-3.973736E-2,-5.9337925E-2,-4.8932478E-2,-5.5564586E-3,1.46261575E-2,-4.6822708E-2,2.6384989E-2,6.1770786E-2,1.5610064E-3,-8.6965345E-2,-4.7488865E-2,5.174442E-2,-9.2637455E-3,4.650214E-2,3.3416003E-2,5.5875737E-2],"categories":[],"categories_nodes":[],"categories_segments":[],"categories_sizes":[],"default_left":[0,0,0,0,0,0,0,0,0,0,0,0,0,0,0,0,0,0,0,0,0,0,0,0,0,0,0,0,0,0,0],"id":23,"left_children":[1,3,5,7,9,11,13,15,17,19,21,23,25,27,29,-1,-1,-1,-1,-1,-1,-1,-1,-1,-1,-1,-1,-1,-1,-1,-1],"loss_changes":[6.679428E3,6.083994E2,7.5263257E2,2.599602E2,1.9700177E2,2.4090652E2,2.1887354E2,1.0480493E2,2.2389929E2,1.5037431E2,2.9009033E1,9.1362854E1,2.6926843E2,4.6377814E2,2.1069336E1,0E0,0E0,0E0,0E0,0E0,0E0,0E0,0E0,0E0,0E0,0E0,0E0,0E0,0E0,0E0,0E0],"parents":[2147483647,0,0,1,1,2,2,3,3,4,4,5,5,6,6,7,7,8,8,9,9,10,10,11,11,12,12,13,13,14,14],"right_children":[2,4,6,8,10,12,14,16,18,20,22,24,26,28,30,-1,-1,-1,-1,-1,-1,-1,-1,-1,-1,-1,-1,-1,-1,-1,-1],"split_conditions":[3.93015E-1,1.84532E-1,1.38072E-1,3.10453E-1,1.29032E-1,5.78947E-1,2.00273E-1,9.346E-3,1.34732E-1,3.4803E-2,5.05882E-1,1.9E1,1.15204E-1,2.22222E-1,4.22341E-1,-3.973736E-2,-5.9337925E-2,-4.8932478E-2,-5.5564586E-3,1.46261575E-2,-4.6822708E-2,2.6384989E-2,6.1770786E-2,1.5610064E-3,-8.6965345E-2,-4.7488865E-2,5.174442E-2,-9.2637455E-3,4.650214E-2,3.3416003E-2,5.5875737E-2],"split_indices":[3,2,2,3,5,5,2,6,2,6,5,12,2,5,3,0,0,0,0,0,0,0,0,0,0,0,0,0,0,0,0],"split_type":[0,0,0,0,0,0,0,0,0,0,0,0,0,0,0,0,0,0,0,0,0,0,0,0,0,0,0,0,0,0,0],"sum_hessian":[1.043765E4,5.1785967E3,5.259053E3,4.536582E3,6.420148E2,4.4709744E2,4.811956E3,3.345307E3,1.1912753E3,3.9653452E2,2.4548027E2,1.7291344E2,2.7418402E2,2.0699897E3,2.7419663E3,9.703931E2,2.3749138E3,5.726332E2,6.186421E2,1.9715433E2,1.9938017E2,1.483087E2,9.717157E1,3.698142E1,1.3593202E2,1.233922E2,1.5079182E2,4.8723615E2,1.5827535E3,1.1424358E2,2.6277227E3],"tree_param":{"num_deleted":"0","num_feature":"21","num_nodes":"31","size_leaf_vector":"1"}},{"base_weights":[8.38064E-3,-8.1837183E-1,7.3090124E-1,-4.042209E-1,-9.80323E-1,4.42633E-2,8.773994E-1,-7.571676E-1,2.3574185E-1,-1.1465448E0,-5.953654E-1,6.2306935E-1,-1.8629831E-1,5.797844E-1,9.869409E-1,-4.8180796E-2,-4.720994E-3,2.6722595E-2,-2.7841223E-2,-5.8981337E-2,-1.3752647E-2,-3.7858874E-2,4.788294E-2,5.5214923E-2,1.9673992E-2,-2.3641199E-2,1.9734448E-2,3.670949E-2,2.1025945E-2,4.351644E-2,5.1701464E-2],"categories":[],"categories_nodes":[],"categories_segments":[],"categories_sizes":[],"default_left":[0,0,0,0,0,0,0,0,0,0,0,0,0,0,0,0,0,0,0,0,0,0,0,0,0,0,0,0,0,0,0],"id":24,"left_children":[1,3,5,7,9,11,13,15,17,19,21,23,25,27,29,-1,-1,-1,-1,-1,-1,-1,-1,-1,-1,-1,-1,-1,-1,-1,-1],"loss_changes":[6.0770063E3,3.178252E2,5.460591E2,3.0181833E2,2.175188E2,1.27650116E2,1.4529321E2,1.17710205E2,1.1286352E2,6.830884E1,2.5967648E2,2.9669067E1,1.1408363E2,2.9352722E1,1.7050781E1,0E0,0E0,0E0,0E0,0E0,0E0,0E0,0E0,0E0,0E0,0E0,0E0,0E0,0E0,0E0,0E0],"parents":[2147483647,0,0,1,1,2,2,3,3,4,4,5,5,6,6,7,7,8,8,9,9,10,10,11,11,12,12,13,13,14,14],"right_children":[2,4,6,8,10,12,14,16,18,20,22,24,26,28,30,-1,-1,-1,-1,-1,-1,-1,-1,-1,-1,-1,-1,-1,-1,-1,-1],"split_conditions":[3.72072E-1,1.0204E-2,4.30364E-1,2.51487E-1,3.06897E-1,2.0833E-2,4.80154E-1,6.59091E-1,1.2E1,1E0,9.91137E-1,1.461538E0,5.52846E-1,2.717949E0,5.24245E-1,-4.8180796E-2,-4.720994E-3,2.6722595E-2,-2.7841223E-2,-5.8981337E-2,-1.3752647E-2,-3.7858874E-2,4.788294E-2,5.5214923E-2,1.9673992E-2,-2.3641199E-2,1.9734448E-2,3.670949E-2,2.1025945E-2,4.351644E-2,5.1701464E-2],"split_indices":[3,6,3,3,3,6,3,5,15,5,11,17,5,17,3,0,0,0,0,0,0,0,0,0,0,0,0,0,0,0,0],"split_type":[0,0,0,0,0,0,0,0,0,0,0,0,0,0,0,0,0,0,0,0,0,0,0,0,0,0,0,0,0,0,0],"sum_hessian":[1.0171348E4,4.7434585E3,5.427889E3,1.3344417E3,3.4090166E3,9.546658E2,4.4732236E3,8.599735E2,4.744682E2,2.3795615E3,1.0294551E3,2.714672E2,6.831986E2,1.2051703E3,3.2680532E3,6.553695E2,2.0460396E2,3.4483072E2,1.2963748E2,2.2921958E3,8.7365746E1,9.3277966E2,9.667536E1,8.645147E1,1.8501572E2,4.5767368E2,2.255249E2,6.100888E2,5.9508154E2,9.456567E2,2.3223965E3],"tree_param":{"num_deleted":"0","num_feature":"21","num_nodes":"31","size_leaf_vector":"1"}},{"base_weights":[2.3578492E-3,-8.3490986E-1,6.741585E-1,-9.2697823E-1,7.802361E-2,-9.852208E-1,8.093632E-1,-1.1517136E0,-6.911729E-1,-3.457973E-1,9.706408E-1,8.8317204E-1,-6.1247237E-2,5.553993E-1,1.1083984E0,-4.7878128E-2,-5.878232E-2,-4.6692345E-2,3.5161928E-3,1.4341237E-2,-5.3840734E-2,-6.868558E-2,5.157736E-2,-8.751824E-2,5.4220606E-2,-5.1901415E-3,3.8186688E-2,4.356117E-2,5.6180622E-2],"categories":[],"categories_nodes":[],"categories_segments":[],"categories_sizes":[],"default_left":[0,0,0,0,0,0,0,0,0,0,0,0,0,0,0,0,0,0,0,0,0,0,0,0,0,0,0,0,0],"id":25,"left_children":[1,3,5,7,9,11,13,15,17,19,21,23,-1,25,27,-1,-1,-1,-1,-1,-1,-1,-1,-1,-1,-1,-1,-1,-1],"loss_changes":[5.562285E3,3.700962E2,1.231749E3,2.1113062E2,1.5325537E2,1.864284E2,3.8470923E2,8.381836E0,3.611526E2,1.2740122E2,2.0036186E1,2.7144875E1,0E0,3.7715424E2,7.425293E0,0E0,0E0,0E0,0E0,0E0,0E0,0E0,0E0,0E0,0E0,0E0,0E0,0E0,0E0],"parents":[2147483647,0,0,1,1,2,2,3,3,4,4,5,5,6,6,7,7,8,8,9,9,10,10,11,11,13,13,14,14],"right_children":[2,4,6,8,10,12,14,16,18,20,22,24,-1,26,28,-1,-1,-1,-1,-1,-1,-1,-1,-1,-1,-1,-1,-1,-1],"split_conditions":[3.61679E-1,1.8918E-1,1E0,1E0,1.81818E-1,1E0,2.07206E-1,2E0,4.82143E-1,2.1645E-2,1E0,3.87479E-1,-6.1247237E-2,2.22222E-1,4.14583E-1,-4.7878128E-2,-5.878232E-2,-4.6692345E-2,3.5161928E-3,1.4341237E-2,-5.3840734E-2,-6.868558E-2,5.157736E-2,-8.751824E-2,5.4220606E-2,-5.1901415E-3,3.8186688E-2,4.356117E-2,5.6180622E-2],"split_indices":[3,2,7,7,5,1,2,0,5,6,20,3,0,5,3,0,0,0,0,0,0,0,0,0,0,0,0,0,0],"split_type":[0,0,0,0,0,0,0,0,0,0,0,0,0,0,0,0,0,0,0,0,0,0,0,0,0,0,0,0,0],"sum_hessian":[9.88691E3,4.401305E3,5.4856055E3,3.9980867E3,4.0321823E2,4.1281396E2,5.0727915E3,2.0451053E3,1.9529814E3,2.7381943E2,1.2939879E2,4.6637794E1,3.6617618E2,2.7446663E3,2.3281252E3,2.2893346E2,1.8161719E3,1.4808405E3,4.72141E2,1.4711436E2,1.2670506E2,2.7308547E0,1.2666794E2,2.7643335E0,4.387346E1,6.5923804E2,2.0854282E3,1.4385054E2,2.184275E3],"tree_param":{"num_deleted":"0","num_feature":"21","num_nodes":"29","size_leaf_vector":"1"}},{"base_weights":[-6.015639E-3,-6.538236E-1,6.632826E-1,-1.1455022E0,-2.688455E-1,-6.230798E-1,7.652371E-1,-7.110259E-1,-5.8532443E-2,-7.660025E-1,5.503268E-1,4.1970447E-1,-6.2169857E-2,4.224827E-1,1.0484211E0,-4.2497016E-2,7.724663E-2,-1.843854E-2,-5.3514715E-2,-3.8068708E-2,6.344615E-2,3.1320628E-2,-8.464591E-2,-1.4395085E-2,5.3471178E-2,4.459123E-2,5.5197597E-2],"categories":[],"categories_nodes":[],"categories_segments":[],"categories_sizes":[],"default_left":[0,0,0,0,0,0,0,0,0,0,0,0,0,0,0,0,0,0,0,0,0,0,0,0,0,0,0],"id":26,"left_children":[1,3,5,7,9,11,13,15,-1,17,19,21,-1,23,25,-1,-1,-1,-1,-1,-1,-1,-1,-1,-1,-1,-1],"loss_changes":[4.158208E3,9.221704E2,6.191138E2,2.2546875E1,1.1141182E3,2.2495284E2,4.2382202E2,3.8800518E1,0E0,2.0535992E2,9.7503894E2,5.790004E1,0E0,9.099035E2,1.982373E1,0E0,0E0,0E0,0E0,0E0,0E0,0E0,0E0,0E0,0E0,0E0,0E0],"parents":[2147483647,0,0,1,1,2,2,3,3,4,4,5,5,6,6,7,7,9,9,10,10,11,11,13,13,14,14],"right_children":[2,4,6,8,10,12,14,16,-1,18,20,22,-1,24,26,-1,-1,-1,-1,-1,-1,-1,-1,-1,-1,-1,-1],"split_conditions":[1.67177E-1,1E0,1E0,2.96E-2,5.27778E-1,2E0,2.04611E-1,2.0741E-2,-5.8532443E-2,2.6786E-2,1.18799E-1,1E0,-6.2169857E-2,2.08333E-1,2.20651E-1,-4.2497016E-2,7.724663E-2,-1.843854E-2,-5.3514715E-2,-3.8068708E-2,6.344615E-2,3.1320628E-2,-8.464591E-2,-1.4395085E-2,5.3471178E-2,4.459123E-2,5.5197597E-2],"split_indices":[2,7,7,8,5,0,2,9,0,6,2,13,0,5,2,0,0,0,0,0,0,0,0,0,0,0,0],"split_type":[0,0,0,0,0,0,0,0,0,0,0,0,0,0,0,0,0,0,0,0,0,0,0,0,0,0,0],"sum_hessian":[9.588479E3,4.872475E3,4.7160034E3,2.1388481E3,2.7336267E3,3.45956E2,4.3700474E3,1.1862094E2,2.0202272E3,1.7012191E3,1.0324077E3,1.2915814E2,2.1679784E2,1.978203E3,2.3918442E3,1.1232744E2,6.2935023E0,7.3887775E2,9.623414E2,3.6538562E2,6.6702203E2,1.1828784E2,1.0870302E1,9.4313385E2,1.0350692E3,6.3060425E2,1.76124E3],"tree_param":{"num_deleted":"0","num_feature":"21","num_nodes":"27","size_leaf_vector":"1"}},{"base_weights":[-3.010517E-4,-7.9108244E-1,6.6270757E-1,-8.8779795E-1,1.0189091E-1,-8.957586E-1,7.8671336E-1,-1.130665E0,-6.4942014E-1,-2.7702272E-1,1.0094333E0,9.3210214E-1,-5.9893858E-2,4.397879E-1,9.8504406E-1,-4.636132E-2,-5.7817258E-2,-4.2767253E-2,1.902203E-2,1.4575816E-2,-5.3533804E-2,2.8445272E-2,6.3402966E-2,-7.421157E-2,5.128336E-2,-8.222329E-3,3.8445E-2,2.3808403E-2,5.1425632E-2],"categories":[],"categories_nodes":[],"categories_segments":[],"categories_sizes":[],"default_left":[0,0,0,0,0,0,0,0,0,0,0,0,0,0,0,0,0,0,0,0,0,0,0,0,0,0,0,0,0],"id":27,"left_children":[1,3,5,7,9,11,13,15,17,19,21,23,-1,25,27,-1,-1,-1,-1,-1,-1,-1,-1,-1,-1,-1,-1,-1,-1],"loss_changes":[4.9128105E3,3.6915894E2,9.8573267E2,2.2249805E2,1.4419548E2,2.0882971E2,3.2445483E2,8.89917E0,4.1350342E2,1.3388467E2,1.3347183E1,1.3711388E1,0E0,3.4202954E2,6.594824E1,0E0,0E0,0E0,0E0,0E0,0E0,0E0,0E0,0E0,0E0,0E0,0E0,0E0,0E0],"parents":[2147483647,0,0,1,1,2,2,3,3,4,4,5,5,6,6,7,7,8,8,9,9,10,10,11,11,13,13,14,14],"right_children":[2,4,6,8,10,12,14,16,18,20,22,24,-1,26,28,-1,-1,-1,-1,-1,-1,-1,-1,-1,-1,-1,-1,-1,-1],"split_conditions":[3.67107E-1,1.8918E-1,1E0,1E0,2.41935E-1,2E0,1.82645E-1,2E0,6.03659E-1,4.2254E-2,7.9E-1,3.76871E-1,-5.9893858E-2,3.81818E-1,4.1825E-1,-4.636132E-2,-5.7817258E-2,-4.2767253E-2,1.902203E-2,1.4575816E-2,-5.3533804E-2,2.8445272E-2,6.3402966E-2,-7.421157E-2,5.128336E-2,-8.222329E-3,3.8445E-2,2.3808403E-2,5.1425632E-2],"split_indices":[3,2,7,7,5,0,2,0,5,6,7,3,0,5,3,0,0,0,0,0,0,0,0,0,0,0,0,0,0],"split_type":[0,0,0,0,0,0,0,0,0,0,0,0,0,0,0,0,0,0,0,0,0,0,0,0,0,0,0,0,0],"sum_hessian":[9.36832E3,4.2723843E3,5.0959365E3,3.8548784E3,4.1750574E2,3.751349E2,4.720802E3,1.9076057E3,1.9472727E3,2.9502344E2,1.2248231E2,5.2913757E1,3.2222113E2,1.7183081E3,3.0024937E3,2.179687E2,1.689637E3,1.6229304E3,3.2434225E2,1.7225795E2,1.2276549E2,4.649139E1,7.599091E1,1.4184691E0,5.149529E1,6.0607776E2,1.1122303E3,2.3723192E2,2.7652617E3],"tree_param":{"num_deleted":"0","num_feature":"21","num_nodes":"29","size_leaf_vector":"1"}},{"base_weights":[3.296746E-3,-6.799289E-1,5.9542525E-1,-9.9708956E-1,-1.4858527E-1,-6.68764E-1,7.042633E-1,-7.3216E-1,-1.173811E0,-9.789439E-1,1.0580577E0,2.868795E-1,-6.0398873E-2,3.319995E-1,9.531212E-1,-5.5032533E-2,-2.0978684E-2,-5.6208193E-2,-7.853662E-2,-3.2393675E-2,-6.0872298E-2,-5.771185E-2,6.008601E-2,-5.954194E-2,2.6955491E-2,-1.7896522E-2,5.694483E-2,3.804071E-2,5.3774394E-2],"categories":[],"categories_nodes":[],"categories_segments":[],"categories_sizes":[],"default_left":[0,0,0,0,0,0,0,0,0,0,0,0,0,0,0,0,0,0,0,0,0,0,0,0,0,0,0,0,0],"id":28,"left_children":[1,3,5,7,9,11,13,15,17,19,21,23,-1,25,27,-1,-1,-1,-1,-1,-1,-1,-1,-1,-1,-1,-1,-1,-1],"loss_changes":[3.6980637E3,7.150635E2,6.742543E2,1.23561035E2,1.5916726E3,2.0063647E2,4.1742676E2,1.22328186E2,2.9615479E1,7.3507324E1,2.0721753E2,5.3201153E1,0E0,1.0070462E3,6.27666E1,0E0,0E0,0E0,0E0,0E0,0E0,0E0,0E0,0E0,0E0,0E0,0E0,0E0,0E0],"parents":[2147483647,0,0,1,1,2,2,3,3,4,4,5,5,6,6,7,7,8,8,9,9,10,10,11,11,13,13,14,14],"right_children":[2,4,6,8,10,12,14,16,18,20,22,24,-1,26,28,-1,-1,-1,-1,-1,-1,-1,-1,-1,-1,-1,-1,-1,-1],"split_conditions":[1.61913E-1,5.21739E-1,1E0,2.6786E-2,1.18799E-1,2E0,1.95025E-1,1.066667E0,4.6E1,2.9126E-2,1E0,1.95025E-1,-6.0398873E-2,2.5641E-1,2.20651E-1,-5.5032533E-2,-2.0978684E-2,-5.6208193E-2,-7.853662E-2,-3.2393675E-2,-6.0872298E-2,-5.771185E-2,6.008601E-2,-5.954194E-2,2.6955491E-2,-1.7896522E-2,5.694483E-2,3.804071E-2,5.3774394E-2],"split_indices":[2,5,7,6,2,0,2,7,12,6,7,2,0,5,2,0,0,0,0,0,0,0,0,0,0,0,0,0,0],"split_type":[0,0,0,0,0,0,0,0,0,0,0,0,0,0,0,0,0,0,0,0,0,0,0,0,0,0,0,0,0],"sum_hessian":[9.139011E3,4.243042E3,4.8959688E3,2.656495E3,1.5865469E3,3.8768924E2,4.5082793E3,1.0650228E3,1.5914723E3,9.399223E2,6.466245E2,1.400131E2,2.4767612E2,1.8072167E3,2.7010627E3,4.8764456E2,5.7737823E2,1.4179471E3,1.735251E2,3.951382E2,5.447841E2,3.900119E1,6.076233E2,1.9871655E1,1.2014145E2,9.745193E2,8.326974E2,1.0531646E3,1.6478982E3],"tree_param":{"num_deleted":"0","num_feature":"21","num_nodes":"29","size_leaf_vector":"1"}},{"base_weights":[8.540717E-3,-6.1865103E-1,8.0718327E-1,-8.7808025E-1,-1.0497656E-1,5.566148E-1,9.542589E-1,-4.5193693E-1,-1.0733311E0,4.5108515E-1,-3.5704568E-1,6.8995976E-1,3.9636213E-1,5.477405E-1,9.659354E-1,-3.2356888E-2,-1.4344506E-3,-5.4928124E-2,-1.5119321E-2,4.346237E-2,3.235086E-3,9.027752E-3,-2.9282743E-2,2.8259153E-2,4.1227564E-2,1.3540566E-2,3.310628E-2,-1.2101654E-1,3.1328756E-2,4.446239E-2,4.964229E-2],"categories":[],"categories_nodes":[],"categories_segments":[],"categories_sizes":[],"default_left":[0,0,0,0,0,0,0,0,0,0,0,0,0,0,0,0,0,0,0,0,0,0,0,0,0,0,0,0,0,0,0],"id":29,"left_children":[1,3,5,7,9,11,13,15,17,19,21,23,25,27,29,-1,-1,-1,-1,-1,-1,-1,-1,-1,-1,-1,-1,-1,-1,-1,-1],"loss_changes":[4.5136187E3,6.725172E2,1.4554199E2,2.7853662E2,2.3771979E2,3.1105652E1,1.1319824E1,8.7178635E1,4.4387695E1,8.542924E1,1.434998E2,1.2971924E1,2.2152596E1,1.8365505E1,4.1220703E0,0E0,0E0,0E0,0E0,0E0,0E0,0E0,0E0,0E0,0E0,0E0,0E0,0E0,0E0,0E0,0E0],"parents":[2147483647,0,0,1,1,2,2,3,3,4,4,5,5,6,6,7,7,8,8,9,9,10,10,11,11,12,12,13,13,14,14],"right_children":[2,4,6,8,10,12,14,16,18,20,22,24,26,28,30,-1,-1,-1,-1,-1,-1,-1,-1,-1,-1,-1,-1,-1,-1,-1,-1],"split_conditions":[4.30364E-1,3.29859E-1,4.97826E-1,9.346E-3,5E0,2.3E1,6.897E-3,2.40151E-1,1E0,4.4118E-2,2.1978E-2,5.80807E-1,5.63636E-1,3.66049E-1,3.8961E-2,-3.2356888E-2,-1.4344506E-3,-5.4928124E-2,-1.5119321E-2,4.346237E-2,3.235086E-3,9.027752E-3,-2.9282743E-2,2.8259153E-2,4.1227564E-2,1.3540566E-2,3.310628E-2,-1.2101654E-1,3.1328756E-2,4.446239E-2,4.964229E-2],"split_indices":[3,3,3,6,15,12,6,3,5,6,6,9,5,9,6,0,0,0,0,0,0,0,0,0,0,0,0,0,0,0,0],"split_type":[0,0,0,0,0,0,0,0,0,0,0,0,0,0,0,0,0,0,0,0,0,0,0,0,0,0,0,0,0,0,0],"sum_hessian":[9.008983E3,5.0462646E3,3.9627188E3,3.3524263E3,1.6938386E3,1.4674508E3,2.4952678E3,1.0544214E3,2.298005E3,5.280895E2,1.1657491E3,7.991659E2,6.682849E2,7.100833E1,2.4242595E3,7.2125256E2,3.331688E2,2.224768E3,7.3236824E1,2.5301506E2,2.750744E2,3.4787994E2,8.178692E2,4.1740155E2,3.8176437E2,4.5524094E2,2.1304399E2,1.0687609E0,6.993957E1,6.385645E2,1.7856951E3],"tree_param":{"num_deleted":"0","num_feature":"21","num_nodes":"31","size_leaf_vector":"1"}},{"base_weights":[1.0205849E-2,-6.5013015E-1,5.7225996E-1,-1.1190189E0,-2.7422112E-1,-6.391171E-1,6.773975E-1,-9.477655E-1,-5.688649E-2,-6.855007E-1,5.362132E-1,3.5015658E-1,-5.973817E-2,4.0447438E-1,1.037303E0,-3.583389E-2,-5.7430036E-2,-4.580944E-2,-1.526465E-2,-3.257611E-2,6.4179294E-2,-5.8210533E-2,2.9492274E-2,-1.7153407E-2,4.6225827E-2,4.0515285E-2,6.0649868E-2],"categories":[],"categories_nodes":[],"categories_segments":[],"categories_sizes":[],"default_left":[0,0,0,0,0,0,0,0,0,0,0,0,0,0,0,0,0,0,0,0,0,0,0,0,0,0,0],"id":30,"left_children":[1,3,5,7,9,11,13,15,-1,17,19,21,-1,23,25,-1,-1,-1,-1,-1,-1,-1,-1,-1,-1,-1,-1],"loss_changes":[3.2366099E3,7.0644824E2,6.004158E2,4.6379395E0,7.426117E2,2.075003E2,4.2540674E2,7.6094666E0,0E0,1.2932336E2,6.667858E2,5.0148582E1,0E0,9.5942896E2,7.3556885E1,0E0,0E0,0E0,0E0,0E0,0E0,0E0,0E0,0E0,0E0,0E0,0E0],"parents":[2147483647,0,0,1,1,2,2,3,3,4,4,5,5,6,6,7,7,9,9,10,10,11,11,13,13,14,14],"right_children":[2,4,6,8,10,12,14,16,-1,18,20,22,-1,24,26,-1,-1,-1,-1,-1,-1,-1,-1,-1,-1,-1,-1],"split_conditions":[1.61913E-1,1E0,1E0,2E0,5.78947E-1,2E0,2E-1,1.3E1,-5.688649E-2,3.63636E-1,1.14633E-1,1.95025E-1,-5.973817E-2,2.04611E-1,3.26923E-1,-3.583389E-2,-5.7430036E-2,-4.580944E-2,-1.526465E-2,-3.257611E-2,6.4179294E-2,-5.8210533E-2,2.9492274E-2,-1.7153407E-2,4.6225827E-2,4.0515285E-2,6.0649868E-2],"split_indices":[2,7,7,0,5,0,5,19,0,5,2,2,0,2,5,0,0,0,0,0,0,0,0,0,0,0,0],"split_type":[0,0,0,0,0,0,0,0,0,0,0,0,0,0,0,0,0,0,0,0,0,0,0,0,0,0,0],"sum_hessian":[8.718615E3,4.0087412E3,4.7098745E3,1.7828868E3,2.2258542E3,3.757275E2,4.334147E3,1.8069661E2,1.6021903E3,1.4766417E3,7.4921265E2,1.3526726E2,2.4046024E2,2.4661455E3,1.8680013E3,8.614441E1,9.45522E1,9.181509E2,5.5849084E2,2.894086E2,4.5980402E2,1.7956972E1,1.1731029E2,1.0119061E3,1.4542394E3,8.174575E2,1.0505438E3],"tree_param":{"num_deleted":"0","num_feature":"21","num_nodes":"27","size_leaf_vector":"1"}}]},"name":"gbtree"},"learner_model_param":{"base_score":"5E-1","boost_from_average":"1","num_class":"0","num_feature":"21","num_target":"1"},"objective":{"name":"binary:logistic","reg_loss_param":{"scale_pos_weight":"18.95891"}}},"version":[2,0,3]}