{"learner":{"attributes":{"best_iteration":"5","best_score":"1.3019663476285788","scikit_learn":"{\"_estimator_type\": \"regressor\"}"},"feature_names":["n_early_buyers","n_reliable_wallets","avg_wallet_score","max_wallet_score","pct_high_score_wallets","pct_negative_wallets","pct_new_wallets","avg_cooccurrence_score","total_volume_sol","avg_buy_size_sol","std_buy_size_sol","concentration_top5","n_tier1_buyers","creator_is_buyer","buys_in_first_20s","buys_20s_to_60s","buys_60s_to_180s","acceleration_ratio","time_to_5th_buy","hour_utc","day_of_week"],"feature_types":["int","int","float","float","float","float","float","float","float","float","float","float","int","int","int","int","int","float","float","int","int"],"gradient_booster":{"model":{"gbtree_model_param":{"num_parallel_tree":"1","num_trees":"26"},"iteration_indptr":[0,1,2,3,4,5,6,7,8,9,10,11,12,13,14,15,16,17,18,19,20,21,22,23,24,25,26],"tree_info":[0,0,0,0,0,0,0,0,0,0,0,0,0,0,0,0,0,0,0,0,0,0,0,0,0,0],"trees":[{"base_weights":[7.0771617E-3,-3.4927207E-1,5.521462E0,-8.395992E-1,4.8421413E-1,8.313674E0,4.5049415E0,-8.977471E-1,-3.959774E-1,8.780899E0,3.003346E-1,3.0985103E0,1.2083836E1,5.746864E0,2.7860563E0,-4.055291E-2,-5.026696E-2,-9.846578E-3,-4.4240456E-2,7.9189867E-1,6.1374135E-2,7.013425E-4,7.352438E-2,1.998053E-1,5.1129956E-2,2.383941E-1,6.851259E-1,4.6769E-1,2.4284735E-1,1.0088003E-1,2.065173E-1],"categories":[],"categories_nodes":[],"categories_segments":[],"categories_sizes":[],"default_left":[0,0,0,0,0,0,0,0,0,0,0,0,0,0,0,0,0,0,0,0,0,0,0,0,0,0,0,0,0,0,0],"id":0,"left_children":[1,3,5,7,9,11,13,15,17,19,21,23,25,27,29,-1,-1,-1,-1,-1,-1,-1,-1,-1,-1,-1,-1,-1,-1,-1,-1],"loss_changes":[5.4970184E4,1.0738905E4,4.782051E3,4.264082E2,1.4845936E4,8.849789E3,2.6459863E3,1.3560156E2,1.8654431E2,1.1227917E4,3.1904116E3,3.5180945E2,3.0373242E3,2.2753066E3,5.340056E2,0E0,0E0,0E0,0E0,0E0,0E0,0E0,0E0,0E0,0E0,0E0,0E0,0E0,0E0,0E0,0E0],"parents":[2147483647,0,0,1,1,2,2,3,3,4,4,5,5,6,6,7,7,8,8,9,9,10,10,11,11,12,12,13,13,14,14],"right_children":[2,4,6,8,10,12,14,16,18,20,22,24,26,28,30,-1,-1,-1,-1,-1,-1,-1,-1,-1,-1,-1,-1,-1,-1,-1,-1],"split_conditions":[4.71028E-1,2.86882E-1,4.8585E-1,2.65976E-1,2.88805E-1,4.8058E-1,4E0,1.42857E-1,5E0,5.3E1,4.09422E-1,1.6E1,4.3011E-2,4.62555E-1,5.69182E-1,-4.055291E-2,-5.026696E-2,-9.846578E-3,-4.4240456E-2,7.9189867E-1,6.1374135E-2,7.013425E-4,7.352438E-2,1.998053E-1,5.1129956E-2,2.383941E-1,6.851259E-1,4.6769E-1,2.4284735E-1,1.0088003E-1,2.065173E-1],"split_indices":[3,3,3,3,3,3,20,6,20,0,3,19,6,9,3,0,0,0,0,0,0,0,0,0,0,0,0,0,0,0,0],"split_type":[0,0,0,0,0,0,0,0,0,0,0,0,0,0,0,0,0,0,0,0,0,0,0,0,0,0,0,0,0,0,0],"sum_hessian":[2.7972E4,2.6275E4,1.697E3,1.6543E4,9.732E3,4.51E2,1.246E3,1.4625E4,1.918E3,2.1E2,9.522E3,1.9E2,2.61E2,7.22E2,5.24E2,8.104E3,6.521E3,1.364E3,5.54E2,1.08E2,1.02E2,7.651E3,1.871E3,1.32E2,5.8E1,4.8E1,2.13E2,1.41E2,5.81E2,3.35E2,1.89E2],"tree_param":{"num_deleted":"0","num_feature":"21","num_nodes":"31","size_leaf_vector":"1"}},{"base_weights":[-1.4215412E-2,-3.4575418E-1,5.279422E0,-7.974892E-1,4.2498574E-1,3.0682685E0,8.613254E0,-8.499199E-1,-1.1150798E-1,6.912599E0,2.7094275E-1,9.0583104E-1,4.584484E0,1.1034001E1,5.6274633E0,-4.577689E-2,-3.19208E-2,-1.7661706E-2,9.725116E-2,9.7644955E-2,1.1011262E0,-6.8269245E-4,7.255764E-2,2.3376955E-2,2.5484753E-1,5.666049E-1,2.0016749E-1,1.5829234E-1,5.8528376E-1,2.083737E-1,4.9564657E-1],"categories":[],"categories_nodes":[],"categories_segments":[],"categories_sizes":[],"default_left":[0,0,0,0,0,0,0,0,0,0,0,0,0,0,0,0,0,0,0,0,0,0,0,0,0,0,0,0,0,0,0],"id":1,"left_children":[1,3,5,7,9,11,13,15,17,19,21,23,25,27,29,-1,-1,-1,-1,-1,-1,-1,-1,-1,-1,-1,-1,-1,-1,-1,-1],"loss_changes":[4.9401105E4,9.2230205E3,1.2203078E4,6.0058105E2,9.780975E3,3.271291E3,4.7155156E3,2.1473926E2,5.907653E2,1.6968531E4,3.212076E3,7.562707E2,2.256418E3,1.8866172E3,1.8231953E3,0E0,0E0,0E0,0E0,0E0,0E0,0E0,0E0,0E0,0E0,0E0,0E0,0E0,0E0,0E0,0E0],"parents":[2147483647,0,0,1,1,2,2,3,3,4,4,5,5,6,6,7,7,8,8,9,9,10,10,11,11,12,12,13,13,14,14],"right_children":[2,4,6,8,10,12,14,16,18,20,22,24,26,28,30,-1,-1,-1,-1,-1,-1,-1,-1,-1,-1,-1,-1,-1,-1,-1,-1],"split_conditions":[4.71028E-1,2.86882E-1,2.02676E-1,1.71567E-1,2.88805E-1,1.276667E0,4E0,4.7E1,1.79104E-1,1.77156E-1,4.09422E-1,2.61E2,1.41973E-1,4.8058E-1,2.22222E-1,-4.577689E-2,-3.19208E-2,-1.7661706E-2,9.725116E-2,9.7644955E-2,1.1011262E0,-6.8269245E-4,7.255764E-2,2.3376955E-2,2.5484753E-1,5.666049E-1,2.0016749E-1,1.5829234E-1,5.8528376E-1,2.083737E-1,4.9564657E-1],"split_indices":[3,3,2,2,3,7,20,1,5,2,3,1,11,3,5,0,0,0,0,0,0,0,0,0,0,0,0,0,0,0,0],"split_type":[0,0,0,0,0,0,0,0,0,0,0,0,0,0,0,0,0,0,0,0,0,0,0,0,0,0,0,0,0,0,0],"sum_hessian":[2.8146E4,2.6488E4,1.658E3,1.67E4,9.788E3,9.98E2,6.6E2,1.5514E4,1.186E3,2.26E2,9.562E3,4.12E2,5.86E2,3.63E2,2.97E2,1.1838E4,3.676E3,1.062E3,1.24E2,1.71E2,5.5E1,7.705E3,1.857E3,3.74E2,3.8E1,4.5E1,5.41E2,2.9E1,3.34E2,2.23E2,7.4E1],"tree_param":{"num_deleted":"0","num_feature":"21","num_nodes":"31","size_leaf_vector":"1"}},{"base_weights":[1.1290833E-2,-3.0916527E-1,5.1286945E0,-7.541971E-1,4.547203E-1,3.1189637E0,8.763464E0,-8.2125556E-1,-3.3773226E-1,9.3543625E0,2.9433554E-1,8.5072404E-1,4.3486876E0,1.2058742E1,7.046706E0,-4.347953E-2,-2.7043361E-2,-2.0646606E-2,7.5232826E-2,2.1776615E-1,9.9547476E-1,3.742077E-4,7.80419E-2,-3.0949458E-2,9.365215E-2,1.832442E-1,3.6638623E-1,2.0008044E-1,7.186046E-1,6.0477114E-1,2.9309195E-1],"categories":[],"categories_nodes":[],"categories_segments":[],"categories_sizes":[],"default_left":[0,0,0,0,0,0,0,0,0,0,0,0,0,0,0,0,0,0,0,0,0,0,0,0,0,0,0,0,0,0,0],"id":2,"left_children":[1,3,5,7,9,11,13,15,17,19,21,23,25,27,29,-1,-1,-1,-1,-1,-1,-1,-1,-1,-1,-1,-1,-1,-1,-1,-1],"loss_changes":[4.5999234E4,8.974094E3,1.20476875E4,4.6555176E2,1.38683955E4,2.9697031E3,3.2414531E3,1.9422656E2,3.2135846E2,8.988957E3,3.4683943E3,5.6610535E2,1.3807646E3,3.6702793E3,2.2561191E3,0E0,0E0,0E0,0E0,0E0,0E0,0E0,0E0,0E0,0E0,0E0,0E0,0E0,0E0,0E0,0E0],"parents":[2147483647,0,0,1,1,2,2,3,3,4,4,5,5,6,6,7,7,8,8,9,9,10,10,11,11,12,12,13,13,14,14],"right_children":[2,4,6,8,10,12,14,16,18,20,22,24,26,28,30,-1,-1,-1,-1,-1,-1,-1,-1,-1,-1,-1,-1,-1,-1,-1,-1],"split_conditions":[4.71028E-1,2.87526E-1,2.079E-1,2.62463E-1,2.88805E-1,1.13E0,4.8585E-1,6.25E-1,1.94891E-1,1.76469E-1,4.12608E-1,7.15431E1,5.38462E-1,4.8058E-1,4.23371E-1,-4.347953E-2,-2.7043361E-2,-2.0646606E-2,7.5232826E-2,2.1776615E-1,9.9547476E-1,3.742077E-4,7.80419E-2,-3.0949458E-2,9.365215E-2,1.832442E-1,3.6638623E-1,2.0008044E-1,7.186046E-1,6.0477114E-1,2.9309195E-1],"split_indices":[3,3,2,3,3,7,3,5,2,2,3,8,5,3,9,0,0,0,0,0,0,0,0,0,0,0,0,0,0,0,0],"split_type":[0,0,0,0,0,0,0,0,0,0,0,0,0,0,0,0,0,0,0,0,0,0,0,0,0,0,0,0,0,0,0],"sum_hessian":[2.8048E4,2.6396E4,1.652E3,1.6679E4,9.717E3,1.065E3,5.87E2,1.4365E4,2.314E3,1.71E2,9.546E3,3.75E2,6.9E2,1.99E2,3.88E2,1.2251E4,2.114E3,2.224E3,9E1,1.17E2,5.4E1,7.784E3,1.762E3,1.54E2,2.21E2,5.63E2,1.27E2,4.5E1,1.54E2,7.2E1,3.16E2],"tree_param":{"num_deleted":"0","num_feature":"21","num_nodes":"31","size_leaf_vector":"1"}},{"base_weights":[-2.5032628E-3,-6.521064E-2,5.7883224E0,-4.6877775E-1,4.2605153E-1,4.8537836E0,1.2299944E1,-6.301056E-1,4.455822E-2,8.53646E0,3.9278057E-1,4.098607E0,1.4375869E1,4.0979362E-1,1.6688526E1,-3.715854E-2,-2.2054171E-2,3.991985E-2,-1.1976932E-2,3.570436E-1,1.1574703E0,5.513489E-3,5.8814533E-2,6.3918024E-2,2.9022598E-1,1.5060036E0,4.7706628E-1,-4.207897E-2,2.0136574E-1,9.984681E-1,9.38684E-2],"categories":[],"categories_nodes":[],"categories_segments":[],"categories_sizes":[],"default_left":[0,0,0,0,0,0,0,0,0,0,0,0,0,0,0,0,0,0,0,0,0,0,0,0,0,0,0,0,0,0,0],"id":3,"left_children":[1,3,5,7,9,11,13,15,17,19,21,23,25,27,29,-1,-1,-1,-1,-1,-1,-1,-1,-1,-1,-1,-1,-1,-1,-1,-1],"loss_changes":[1.0169037E4,5.4927183E3,1.7659092E3,1.2596504E3,3.3683098E3,1.8394644E3,1.9238545E3,2.470083E2,7.7931714E2,8.7477E2,2.7545713E3,1.1761084E3,1.1588188E3,5.318485E1,1.2745215E3,0E0,0E0,0E0,0E0,0E0,0E0,0E0,0E0,0E0,0E0,0E0,0E0,0E0,0E0,0E0,0E0],"parents":[2147483647,0,0,1,1,2,2,3,3,4,4,5,5,6,6,7,7,8,8,9,9,10,10,11,11,12,12,13,13,14,14],"right_children":[2,4,6,8,10,12,14,16,18,20,22,24,26,28,30,-1,-1,-1,-1,-1,-1,-1,-1,-1,-1,-1,-1,-1,-1,-1,-1],"split_conditions":[3.436E-3,9.86667E-1,5.98E0,9.2E1,2E0,6.7E1,1.9608E-2,9E0,2E0,1E0,3.44828E-1,1.1E1,1.962963E0,5.16497E-1,1.417E1,-3.715854E-2,-2.2054171E-2,3.991985E-2,-1.1976932E-2,3.570436E-1,1.1574703E0,5.513489E-3,5.8814533E-2,6.3918024E-2,2.9022598E-1,1.5060036E0,4.7706628E-1,-4.207897E-2,2.0136574E-1,9.984681E-1,9.38684E-2],"split_indices":[4,7,7,1,1,12,4,1,20,6,5,19,17,9,7,0,0,0,0,0,0,0,0,0,0,0,0,0,0,0,0],"split_type":[0,0,0,0,0,0,0,0,0,0,0,0,0,0,0,0,0,0,0,0,0,0,0,0,0,0,0,0,0,0,0],"sum_hessian":[2.8002E4,2.7703E4,2.99E2,1.5209E4,1.2494E4,2.63E2,3.6E1,1.1572E4,3.637E3,5E1,1.2444E4,2.45E2,1.8E1,1E1,2.6E1,7.239E3,4.333E3,9.95E2,2.642E3,4.7E1,3E0,9.147E3,3.297E3,9.3E1,1.52E2,3E0,1.5E1,8E0,2E0,2.1E1,5E0],"tree_param":{"num_deleted":"0","num_feature":"21","num_nodes":"31","size_leaf_vector":"1"}},{"base_weights":[3.7550298E-3,-2.991498E-1,4.90642E0,-7.3418194E-1,3.375046E-1,2.9157858E0,7.912448E0,-7.823852E-1,-3.218027E-1,1.0532839E-1,1.8920072E0,9.580658E-1,4.1951065E0,1.063337E1,4.4313035E0,-4.2505242E-2,-3.1817336E-2,1.5134548E-1,-2.0693189E-2,2.4019597E-2,-1.879026E-2,3.7534362E-1,6.729277E-2,-9.661619E-3,1.2862487E-1,2.556142E-1,4.282416E-2,3.3871937E-1,6.4442915E-1,8.68714E-1,2.0695856E-1],"categories":[],"categories_nodes":[],"categories_segments":[],"categories_sizes":[],"default_left":[0,0,0,0,0,0,0,0,0,0,0,0,0,0,0,0,0,0,0,0,0,0,0,0,0,0,0,0,0,0,0],"id":4,"left_children":[1,3,5,7,9,11,13,15,17,19,21,23,25,27,29,-1,-1,-1,-1,-1,-1,-1,-1,-1,-1,-1,-1,-1,-1,-1,-1],"loss_changes":[4.154846E4,7.298279E3,9.718723E3,3.1091797E2,3.8605464E3,2.4529453E3,6.0906875E3,1.380625E2,5.0684186E2,1.6798619E3,4.2524272E3,7.235282E2,1.8114521E3,3.0718125E3,1.00946826E3,0E0,0E0,0E0,0E0,0E0,0E0,0E0,0E0,0E0,0E0,0E0,0E0,0E0,0E0,0E0,0E0],"parents":[2147483647,0,0,1,1,2,2,3,3,4,4,5,5,6,6,7,7,8,8,9,9,10,10,11,11,12,12,13,13,14,14],"right_children":[2,4,6,8,10,12,14,16,18,20,22,24,26,28,30,-1,-1,-1,-1,-1,-1,-1,-1,-1,-1,-1,-1,-1,-1,-1,-1],"split_conditions":[4.71028E-1,2.7615E-1,2.02676E-1,1.64085E-1,1.87769E-1,1.253333E0,4E0,1.3E1,1E0,4E0,2.88805E-1,6.1E1,6.9444E-2,1E1,6.3646E-2,-4.2505242E-2,-3.1817336E-2,1.5134548E-1,-2.0693189E-2,2.4019597E-2,-1.879026E-2,3.7534362E-1,6.729277E-2,-9.661619E-3,1.2862487E-1,2.556142E-1,4.282416E-2,3.3871937E-1,6.4442915E-1,8.68714E-1,2.0695856E-1],"split_indices":[3,3,2,2,2,7,20,16,1,20,3,16,6,19,9,0,0,0,0,0,0,0,0,0,0,0,0,0,0,0,0],"split_type":[0,0,0,0,0,0,0,0,0,0,0,0,0,0,0,0,0,0,0,0,0,0,0,0,0,0,0,0,0,0,0],"sum_hessian":[2.7976E4,2.6349E4,1.627E3,1.5653E4,1.0696E4,9.8E2,6.47E2,1.4014E4,1.639E3,9.307E3,1.389E3,3.88E2,5.92E2,3.62E2,2.85E2,9.571E3,4.443E3,4.3E1,1.596E3,5.23E3,4.077E3,1.22E2,1.267E3,2.27E2,1.61E2,4.64E2,1.28E2,1.35E2,2.27E2,5E0,2.8E2],"tree_param":{"num_deleted":"0","num_feature":"21","num_nodes":"31","size_leaf_vector":"1"}},{"base_weights":[1.144256E-2,-2.392917E-1,4.3943424E0,-4.990356E-1,4.087518E-1,3.4816532E0,7.298819E0,-6.218412E-1,8.2099676E-1,-5.750451E-2,2.7005892E0,4.592058E0,2.0015535E0,4.4635706E0,1.1117673E1,-3.901337E-2,-2.0482065E-2,2.305455E-2,2.5943935E-1,-2.0631094E-2,2.7926385E-2,4.935509E-2,3.4404376E-1,5.9165306E-2,2.8291637E-1,1.4103292E-1,3.762741E-2,-5.10179E-2,2.555367E-1,7.7525383E-1,2.9527795E-1],"categories":[],"categories_nodes":[],"categories_segments":[],"categories_sizes":[],"default_left":[0,0,0,0,0,0,0,0,0,0,0,0,0,0,0,0,0,0,0,0,0,0,0,0,0,0,0,0,0,0,0],"id":5,"left_children":[1,3,5,7,9,11,13,15,17,19,21,23,25,27,29,-1,-1,-1,-1,-1,-1,-1,-1,-1,-1,-1,-1,-1,-1,-1,-1],"loss_changes":[3.090993E4,4.4785E3,4.0092305E3,3.0794165E3,8.135282E3,1.8972803E3,3.8807227E3,5.8386084E2,2.5395203E3,1.3843486E3,9.211819E3,2.3994395E3,5.083872E2,7.505044E2,3.4300527E3,0E0,0E0,0E0,0E0,0E0,0E0,0E0,0E0,0E0,0E0,0E0,0E0,0E0,0E0,0E0,0E0],"parents":[2147483647,0,0,1,1,2,2,3,3,4,4,5,5,6,6,7,7,8,8,9,9,10,10,11,11,12,12,13,13,14,14],"right_children":[2,4,6,8,10,12,14,16,18,20,22,24,26,28,30,-1,-1,-1,-1,-1,-1,-1,-1,-1,-1,-1,-1,-1,-1,-1,-1],"split_conditions":[2.02676E-1,3.4E1,1.70213E-1,1.79014E-1,1.45334E-1,4E0,2.28086E-1,1.73077E-1,2.69231E-1,1.11865E-1,3.91304E-1,3.4884E-2,6.70312E-1,5E-1,5.99245E-1,-3.901337E-2,-2.0482065E-2,2.305455E-2,2.5943935E-1,-2.0631094E-2,2.7926385E-2,4.935509E-2,3.4404376E-1,5.9165306E-2,2.8291637E-1,1.4103292E-1,3.762741E-2,-5.10179E-2,2.555367E-1,7.7525383E-1,2.9527795E-1],"split_indices":[2,16,5,2,2,20,2,5,5,2,5,6,10,7,9,0,0,0,0,0,0,0,0,0,0,0,0,0,0,0,0],"split_type":[0,0,0,0,0,0,0,0,0,0,0,0,0,0,0,0,0,0,0,0,0,0,0,0,0,0,0,0,0,0,0],"sum_hessian":[2.8125E4,2.6604E4,1.521E3,1.8992E4,7.612E3,1.159E3,3.62E2,1.7376E4,1.616E3,6.326E3,1.286E3,6.61E2,4.98E2,2.09E2,1.53E2,9.947E3,7.429E3,1.494E3,1.22E2,4.013E3,2.313E3,9.13E2,3.73E2,1.58E2,5.03E2,3E2,1.98E2,2.2E1,1.87E2,8.2E1,7.1E1],"tree_param":{"num_deleted":"0","num_feature":"21","num_nodes":"31","size_leaf_vector":"1"}},{"base_weights":[1.3733853E-2,-2.7687633E-1,4.652522E0,-6.629831E-1,3.8946956E-1,7.9768485E-1,5.5770807E0,-8.467141E-1,-5.970455E-1,8.535995E0,2.2974329E-1,9.095424E0,4.154429E-1,8.512214E0,4.392168E0,-4.2571515E-2,9.194367E-2,-3.0316234E-2,1.1587111E-1,1.0163776E-1,7.33778E-1,-2.4084751E-4,5.988366E-2,1.0040578E0,1.3465081E-1,1.8043546E-1,3.405101E-3,1.8458214E-1,5.686421E-1,5.6960386E-1,2.0026611E-1],"categories":[],"categories_nodes":[],"categories_segments":[],"categories_sizes":[],"default_left":[0,0,0,0,0,0,0,0,0,0,0,0,0,0,0,0,0,0,0,0,0,0,0,0,0,0,0,0,0,0,0],"id":6,"left_children":[1,3,5,7,9,11,13,15,17,19,21,23,25,27,29,-1,-1,-1,-1,-1,-1,-1,-1,-1,-1,-1,-1,-1,-1,-1,-1],"loss_changes":[3.7569555E4,6.747701E3,5.851246E3,2.0066064E2,1.2518319E4,1.0080075E3,4.570797E3,5.7079346E1,3.3196338E2,7.356677E3,2.142789E3,9.306127E2,3.3915472E2,5.198164E3,2.5160332E3,0E0,0E0,0E0,0E0,0E0,0E0,0E0,0E0,0E0,0E0,0E0,0E0,0E0,0E0,0E0,0E0],"parents":[2147483647,0,0,1,1,2,2,3,3,4,4,5,5,6,6,7,7,8,8,9,9,10,10,11,11,12,12,13,13,14,14],"right_children":[2,4,6,8,10,12,14,16,18,20,22,24,26,28,30,-1,-1,-1,-1,-1,-1,-1,-1,-1,-1,-1,-1,-1,-1,-1,-1],"split_conditions":[4.71028E-1,2.87526E-1,8.56667E-1,1.66228E-1,2.88805E-1,8.4451E-2,4.8585E-1,2.41E2,1E0,6.6667E-2,4.09422E-1,3E0,1.15E0,4.8058E-1,1.41973E-1,-4.2571515E-2,9.194367E-2,-3.0316234E-2,1.1587111E-1,1.0163776E-1,7.33778E-1,-2.4084751E-4,5.988366E-2,1.0040578E0,1.3465081E-1,1.8043546E-1,3.405101E-3,1.8458214E-1,5.686421E-1,5.6960386E-1,2.0026611E-1],"split_indices":[3,3,7,3,3,9,3,0,6,6,3,20,17,3,11,0,0,0,0,0,0,0,0,0,0,0,0,0,0,0,0],"split_type":[0,0,0,0,0,0,0,0,0,0,0,0,0,0,0,0,0,0,0,0,0,0,0,0,0,0,0,0,0,0,0],"sum_hessian":[2.7867E4,2.6225E4,1.642E3,1.6604E4,9.621E3,3.18E2,1.324E3,4.382E3,1.2222E4,1.84E2,9.437E3,1.3E1,3.05E2,3.79E2,9.45E2,4.375E3,7E0,1.2184E4,3.8E1,9E1,9.4E1,7.597E3,1.84E3,4E0,9E0,2.9E1,2.76E2,1.42E2,2.37E2,4.8E1,8.97E2],"tree_param":{"num_deleted":"0","num_feature":"21","num_nodes":"31","size_leaf_vector":"1"}},{"base_weights":[-9.075643E-3,-2.6983973E-1,4.2011137E0,-6.3188607E-1,2.8388774E-1,2.712266E0,8.406772E0,-6.4649534E-1,7.3716885E-1,8.543477E-2,1.3726742E0,1.0799313E0,4.041512E0,1.125991E1,4.504141E0,-3.580543E-2,-2.5105296E-2,9.552987E-3,9.305668E-1,-1.8029857E-2,2.906864E-2,3.3968621E-1,4.49778E-2,-2.2943016E-2,1.15726106E-1,1.897134E-1,9.209415E-1,3.4406576E-1,6.7851985E-1,1.4884917E-1,6.9878054E-1],"categories":[],"categories_nodes":[],"categories_segments":[],"categories_sizes":[],"default_left":[0,0,0,0,0,0,0,0,0,0,0,0,0,0,0,0,0,0,0,0,0,0,0,0,0,0,0,0,0,0,0],"id":7,"left_children":[1,3,5,7,9,11,13,15,17,19,21,23,25,27,29,-1,-1,-1,-1,-1,-1,-1,-1,-1,-1,-1,-1,-1,-1,-1,-1],"loss_changes":[3.077652E4,5.2923184E3,1.0214889E4,3.1973047E2,2.2550356E3,2.6188926E3,4.7038203E3,1.5839209E2,1.6460944E3,1.9532216E3,4.1206475E3,1.0345413E3,2.297546E3,2.3953223E3,2.5909204E3,0E0,0E0,0E0,0E0,0E0,0E0,0E0,0E0,0E0,0E0,0E0,0E0,0E0,0E0,0E0,0E0],"parents":[2147483647,0,0,1,1,2,2,3,3,4,4,5,5,6,6,7,7,8,8,9,9,10,10,11,11,12,12,13,13,14,14],"right_children":[2,4,6,8,10,12,14,16,18,20,22,24,26,28,30,-1,-1,-1,-1,-1,-1,-1,-1,-1,-1,-1,-1,-1,-1,-1,-1],"split_conditions":[4.71028E-1,2.78548E-1,2.22981E-1,1.96553E-1,1.82845E-1,1.64085E-1,4E0,3.09278E-1,6.7E1,3.91304E-1,2.88805E-1,4.66667E-1,2.28E2,1E1,2.36842E-1,-3.580543E-2,-2.5105296E-2,9.552987E-3,9.305668E-1,-1.8029857E-2,2.906864E-2,3.3968621E-1,4.49778E-2,-2.2943016E-2,1.15726106E-1,1.897134E-1,9.209415E-1,3.4406576E-1,6.7851985E-1,1.4884917E-1,6.9878054E-1],"split_indices":[3,3,2,2,2,2,20,5,18,5,3,5,1,19,5,0,0,0,0,0,0,0,0,0,0,0,0,0,0,0,0],"split_type":[0,0,0,0,0,0,0,0,0,0,0,0,0,0,0,0,0,0,0,0,0,0,0,0,0,0,0,0,0,0,0],"sum_hessian":[2.8031E4,2.6397E4,1.634E3,1.5961E4,1.0436E4,1.208E3,4.26E2,1.5793E4,1.68E2,8.828E3,1.608E3,5.43E2,6.65E2,2.45E2,1.81E2,1.0653E4,5.14E3,1.64E2,4E0,4.648E3,4.18E3,1.28E2,1.48E3,2.42E2,3.01E2,6.55E2,1E1,8.6E1,1.59E2,1.57E2,2.4E1],"tree_param":{"num_deleted":"0","num_feature":"21","num_nodes":"31","size_leaf_vector":"1"}},{"base_weights":[4.4909213E-3,-2.5717115E-1,3.1138625E0,-4.7590452E-1,3.72884E-1,2.39905E0,5.2670784E0,-5.801631E-1,9.618024E-2,-1.1704837E-1,2.1249356E0,1.6493118E0,4.590232E0,4.2977653E0,1.3585274E1,-3.3949897E-2,-1.3976321E-2,-1.3864045E-2,1.2702905E-1,-3.1033522E-2,1.3218164E-2,6.083678E-2,3.9591655E-1,5.383996E-2,1.6732793E-1,8.1165713E-1,2.1021108E-1,2.9897472E-1,9.914466E-2,8.720565E-1,9.415978E-2],"categories":[],"categories_nodes":[],"categories_segments":[],"categories_sizes":[],"default_left":[0,0,0,0,0,0,0,0,0,0,0,0,0,0,0,0,0,0,0,0,0,0,0,0,0,0,0,0,0,0,0],"id":8,"left_children":[1,3,5,7,9,11,13,15,17,19,21,23,25,27,29,-1,-1,-1,-1,-1,-1,-1,-1,-1,-1,-1,-1,-1,-1,-1,-1],"loss_changes":[2.2787426E4,3.5604663E3,3.3334668E3,1.1438633E3,5.715388E3,2.6767852E3,4.303661E3,4.8179053E2,2.7001162E3,9.9978644E2,7.645939E3,1.1808928E3,1.801373E3,1.8801357E3,2.493959E3,0E0,0E0,0E0,0E0,0E0,0E0,0E0,0E0,0E0,0E0,0E0,0E0,0E0,0E0,0E0,0E0],"parents":[2147483647,0,0,1,1,2,2,3,3,4,4,5,5,6,6,7,7,8,8,9,9,10,10,11,11,12,12,13,13,14,14],"right_children":[2,4,6,8,10,12,14,16,18,20,22,24,26,28,30,-1,-1,-1,-1,-1,-1,-1,-1,-1,-1,-1,-1,-1,-1,-1,-1],"split_conditions":[1.9154E-1,8.8E1,2.41689E-1,1.6625E-1,1.33698E-1,1.2E1,2.10526E-1,3.48485E-1,2.12766E-1,5.63158E-1,5.48E-1,1.8E1,1E0,4E0,7.89909E-1,-3.3949897E-2,-1.3976321E-2,-1.3864045E-2,1.2702905E-1,-3.1033522E-2,1.3218164E-2,6.083678E-2,3.9591655E-1,5.383996E-2,1.6732793E-1,8.1165713E-1,2.1021108E-1,2.9897472E-1,9.914466E-2,8.720565E-1,9.415978E-2],"split_indices":[2,1,2,2,2,15,5,5,5,5,5,19,19,20,9,0,0,0,0,0,0,0,0,0,0,0,0,0,0,0,0],"split_type":[0,0,0,0,0,0,0,0,0,0,0,0,0,0,0,0,0,0,0,0,0,0,0,0,0,0,0,0,0,0,0],"sum_hessian":[2.8006E4,2.5833E4,2.173E3,1.9176E4,6.657E3,1.633E3,5.4E2,1.622E4,2.956E3,5.203E3,1.454E3,1.218E3,4.15E2,4.85E2,5.5E1,1.2206E4,4.014E3,2.565E3,3.91E2,2.242E3,2.961E3,1.258E3,1.96E2,9.12E2,3.06E2,1.2E1,4.03E2,2.8E2,2.05E2,4.1E1,1.4E1],"tree_param":{"num_deleted":"0","num_feature":"21","num_nodes":"31","size_leaf_vector":"1"}},{"base_weights":[-7.4537382E-3,-2.3468693E-1,3.8868833E0,-5.591145E-1,3.1708258E-1,6.5878314E-1,4.655813E0,-6.014895E-1,-2.9131305E-1,6.5372705E0,1.7742322E-1,5.135625E-1,1.0947329E0,1.2175496E1,4.271789E0,-3.1331435E-2,-1.4349568E-2,8.805606E-3,-2.2800785E-2,8.943173E-1,1.3569456E-1,-2.6051232E-3,5.359245E-2,6.9997385E-2,-4.7107197E-2,4.6168572E-1,1.2220186E0,2.7886492E-1,1.2698829E-1],"categories":[],"categories_nodes":[],"categories_segments":[],"categories_sizes":[],"default_left":[0,0,0,0,0,0,0,0,0,0,0,0,0,0,0,0,0,0,0,0,0,0,0,0,0,0,0,0,0],"id":9,"left_children":[1,3,5,7,9,11,13,15,17,19,21,23,-1,25,27,-1,-1,-1,-1,-1,-1,-1,-1,-1,-1,-1,-1,-1,-1],"loss_changes":[2.4766355E4,4.7338975E3,3.8269414E3,1.8880518E2,8.505224E3,9.0775415E2,3.5461133E3,1.1348828E2,1.7537779E2,9.280701E3,1.9663586E3,3.8454297E2,0E0,1.9391592E3,2.6698457E3,0E0,0E0,0E0,0E0,0E0,0E0,0E0,0E0,0E0,0E0,0E0,0E0,0E0,0E0],"parents":[2147483647,0,0,1,1,2,2,3,3,4,4,5,5,6,6,7,7,8,8,9,9,10,10,11,11,13,13,14,14],"right_children":[2,4,6,8,10,12,14,16,18,20,22,24,-1,26,28,-1,-1,-1,-1,-1,-1,-1,-1,-1,-1,-1,-1,-1,-1],"split_conditions":[4.76651E-1,2.86882E-1,8.56667E-1,2.62463E-1,2.88805E-1,3.33333E-1,2.92392E-1,8.83777E-1,2E0,1.5E1,4.09422E-1,4E0,1.0947329E0,1E0,4E0,-3.1331435E-2,-1.4349568E-2,8.805606E-3,-2.2800785E-2,8.943173E-1,1.3569456E-1,-2.6051232E-3,5.359245E-2,6.9997385E-2,-4.7107197E-2,4.6168572E-1,1.2220186E0,2.7886492E-1,1.2698829E-1],"split_indices":[3,3,7,3,3,4,9,5,20,1,3,20,0,13,20,0,0,0,0,0,0,0,0,0,0,0,0,0,0],"split_type":[0,0,0,0,0,0,0,0,0,0,0,0,0,0,0,0,0,0,0,0,0,0,0,0,0,0,0,0,0],"sum_hessian":[2.7985E4,2.6443E4,1.542E3,1.6652E4,9.791E3,2.97E2,1.245E3,1.4376E4,2.276E3,2.14E2,9.577E3,2.96E2,1E0,5.9E1,1.186E3,1.3311E4,1.065E3,5.93E2,1.683E3,5.3E1,1.61E2,7.622E3,1.955E3,1.84E2,1.12E2,4.9E1,1E1,6.75E2,5.11E2],"tree_param":{"num_deleted":"0","num_feature":"21","num_nodes":"29","size_leaf_vector":"1"}},{"base_weights":[-6.4891656E-3,-2.0761856E-1,3.6490698E0,-5.4606414E-1,3.5231408E-1,8.553529E0,2.654646E0,-5.8219373E-1,-1.4519429E-1,4.4983587E0,2.0100287E-1,1.4319615E1,6.391778E0,1.6494207E0,4.3958845E0,-2.4500756E-2,-3.3550303E-2,-1.0247588E-2,1.9418715E-1,9.312667E-2,7.255323E-1,-2.1216364E-3,5.798855E-2,8.847949E-1,3.8368967E-1,5.0124395E-1,1.880444E-1,3.7023047E-1,5.2712597E-2,3.671308E-1,1.7576861E-1],"categories":[],"categories_nodes":[],"categories_segments":[],"categories_sizes":[],"default_left":[0,0,0,0,0,0,0,0,0,0,0,0,0,0,0,0,0,0,0,0,0,0,0,0,0,0,0,0,0,0,0],"id":10,"left_children":[1,3,5,7,9,11,13,15,17,19,21,23,25,27,29,-1,-1,-1,-1,-1,-1,-1,-1,-1,-1,-1,-1,-1,-1,-1,-1],"loss_changes":[2.0527197E4,5.0151084E3,7.078369E3,2.3880225E2,6.253707E3,2.9623574E3,2.1141582E3,1.2353467E2,3.2943216E2,9.236088E3,2.2453406E3,1.345124E3,1.6827896E3,2.6296814E3,1.1236104E3,0E0,0E0,0E0,0E0,0E0,0E0,0E0,0E0,0E0,0E0,0E0,0E0,0E0,0E0,0E0,0E0],"parents":[2147483647,0,0,1,1,2,2,3,3,4,4,5,5,6,6,7,7,8,8,9,9,10,10,11,11,12,12,13,13,14,14],"right_children":[2,4,6,8,10,12,14,16,18,20,22,24,26,28,30,-1,-1,-1,-1,-1,-1,-1,-1,-1,-1,-1,-1,-1,-1,-1,-1],"split_conditions":[4.8058E-1,2.86213E-1,4.8585E-1,1.68988E-1,2.88805E-1,7E0,2.02676E-1,7.4074E-2,3.7965214E1,1.77156E-1,4.12608E-1,1.4E1,2.958333E0,1.41973E-1,4.3478E-2,-2.4500756E-2,-3.3550303E-2,-1.0247588E-2,1.9418715E-1,9.312667E-2,7.255323E-1,-2.1216364E-3,5.798855E-2,8.847949E-1,3.8368967E-1,5.0124395E-1,1.880444E-1,3.7023047E-1,5.2712597E-2,3.671308E-1,1.7576861E-1],"split_indices":[3,3,3,2,3,12,2,6,8,2,3,19,17,11,6,0,0,0,0,0,0,0,0,0,0,0,0,0,0,0,0],"split_type":[0,0,0,0,0,0,0,0,0,0,0,0,0,0,0,0,0,0,0,0,0,0,0,0,0,0,0,0,0,0,0],"sum_hessian":[2.7917E4,2.6462E4,1.455E3,1.6493E4,9.969E3,2.44E2,1.211E3,1.5129E4,1.364E3,3.5E2,9.619E3,6.5E1,1.79E2,7.69E2,4.42E2,7.427E3,7.702E3,1.345E3,1.9E1,2.78E2,7.2E1,7.672E3,1.947E3,4.2E1,2.3E1,7.4E1,1.05E2,7.1E1,6.98E2,1E2,3.42E2],"tree_param":{"num_deleted":"0","num_feature":"21","num_nodes":"31","size_leaf_vector":"1"}},{"base_weights":[-7.854348E-3,-2.1783648E-1,3.3388288E0,-5.040257E-1,2.7480158E-1,2.122714E0,6.7216854E0,-5.4220545E-1,-1.6745651E-1,5.2280045E0,1.5943465E-1,5.769543E-1,3.3635302E0,4.820729E0,1.2861851E1,-2.997959E-2,-1.5679646E-2,-1.8402612E-2,1.0721748E-1,1.18790425E-1,7.1711266E-1,7.0812427E-3,5.300793E-1,-3.4820512E-2,8.63614E-2,1.5394332E-1,1.0935963E0,1.24340855E-1,4.1126895E-1,8.5369396E-1,3.9787683E-1],"categories":[],"categories_nodes":[],"categories_segments":[],"categories_sizes":[],"default_left":[0,0,0,0,0,0,0,0,0,0,0,0,0,0,0,0,0,0,0,0,0,0,0,0,0,0,0,0,0,0,0],"id":11,"left_children":[1,3,5,7,9,11,13,15,17,19,21,23,25,27,29,-1,-1,-1,-1,-1,-1,-1,-1,-1,-1,-1,-1,-1,-1,-1,-1],"loss_changes":[1.955668E4,3.692043E3,6.7449355E3,2.127583E2,5.4980947E3,2.3188442E3,5.0037266E3,1.9497363E2,7.8404346E2,5.658967E3,1.7475692E3,7.9215045E2,3.4679375E3,2.6256143E3,1.9711582E3,0E0,0E0,0E0,0E0,0E0,0E0,0E0,0E0,0E0,0E0,0E0,0E0,0E0,0E0,0E0,0E0],"parents":[2147483647,0,0,1,1,2,2,3,3,4,4,5,5,6,6,7,7,8,8,9,9,10,10,11,11,12,12,13,13,14,14],"right_children":[2,4,6,8,10,12,14,16,18,20,22,24,26,28,30,-1,-1,-1,-1,-1,-1,-1,-1,-1,-1,-1,-1,-1,-1,-1,-1],"split_conditions":[4.71028E-1,2.86882E-1,2.22981E-1,1.6625E-1,2.88805E-1,1.64085E-1,1.85185E-1,5.17857E-1,2.16216E-1,1.77156E-1,1E0,4.80769E-1,2.28E2,3.652381E0,5.99245E-1,-2.997959E-2,-1.5679646E-2,-1.8402612E-2,1.0721748E-1,1.18790425E-1,7.1711266E-1,7.0812427E-3,5.300793E-1,-3.4820512E-2,8.63614E-2,1.5394332E-1,1.0935963E0,1.24340855E-1,4.1126895E-1,8.5369396E-1,3.9787683E-1],"split_indices":[3,3,2,2,3,2,5,5,5,2,5,5,1,7,9,0,0,0,0,0,0,0,0,0,0,0,0,0,0,0,0],"split_type":[0,0,0,0,0,0,0,0,0,0,0,0,0,0,0,0,0,0,0,0,0,0,0,0,0,0,0,0,0,0,0],"sum_hessian":[2.7827E4,2.6185E4,1.642E3,1.6563E4,9.622E3,1.209E3,4.33E2,1.4875E4,1.688E3,2.18E2,9.404E3,5.39E2,6.7E2,3.32E2,1.01E2,1.1889E4,2.986E3,1.554E3,1.34E2,1.67E2,5.1E1,9.389E3,1.5E1,2.56E2,2.83E2,6.61E2,9E0,1.98E2,1.34E2,5.3E1,4.8E1],"tree_param":{"num_deleted":"0","num_feature":"21","num_nodes":"31","size_leaf_vector":"1"}},{"base_weights":[1.1560759E-3,-2.0228413E-1,3.2760584E0,-4.921201E-1,2.9766867E-1,1.6719795E0,5.7017546E0,-5.2847904E-1,-9.588471E-2,7.1907086E0,1.619104E-1,7.9815984E-2,2.8787088E0,7.446878E0,3.3419776E0,-3.0034605E-2,-2.1302447E-2,-1.0029315E-2,1.21494174E-1,1.6641508E-1,8.4466213E-1,-1.2503421E-3,4.929573E-2,-3.3909284E-2,5.823415E-2,5.568352E-1,1.1377521E-1,2.9750237E-1,6.311558E-1,3.0885887E-1,6.8739004E-2],"categories":[],"categories_nodes":[],"categories_segments":[],"categories_sizes":[],"default_left":[0,0,0,0,0,0,0,0,0,0,0,0,0,0,0,0,0,0,0,0,0,0,0,0,0,0,0,0,0,0,0],"id":12,"left_children":[1,3,5,7,9,11,13,15,17,19,21,23,25,27,29,-1,-1,-1,-1,-1,-1,-1,-1,-1,-1,-1,-1,-1,-1,-1,-1],"loss_changes":[1.8670232E4,3.8233013E3,6.367828E3,2.4057031E2,9.0600625E3,1.8980247E3,2.6601152E3,1.1290039E2,3.7204233E2,6.951625E3,1.4627582E3,3.5192517E2,2.7741274E3,2.822627E3,1.5476011E3,0E0,0E0,0E0,0E0,0E0,0E0,0E0,0E0,0E0,0E0,0E0,0E0,0E0,0E0,0E0,0E0],"parents":[2147483647,0,0,1,1,2,2,3,3,4,4,5,5,6,6,7,7,8,8,9,9,10,10,11,11,12,12,13,13,14,14],"right_children":[2,4,6,8,10,12,14,16,18,20,22,24,26,28,30,-1,-1,-1,-1,-1,-1,-1,-1,-1,-1,-1,-1,-1,-1,-1,-1],"split_conditions":[4.71028E-1,2.87526E-1,2.02676E-1,1.68988E-1,2.88805E-1,1.333333E0,4E0,7E0,5.3E1,1.76469E-1,4.12608E-1,8.95546E-1,1.41973E-1,6.27E0,1.3E1,-3.0034605E-2,-2.1302447E-2,-1.0029315E-2,1.21494174E-1,1.6641508E-1,8.4466213E-1,-1.2503421E-3,4.929573E-2,-3.3909284E-2,5.823415E-2,5.568352E-1,1.1377521E-1,2.9750237E-1,6.311558E-1,3.0885887E-1,6.8739004E-2],"split_indices":[3,3,2,2,3,7,20,16,1,2,3,10,11,7,12,0,0,0,0,0,0,0,0,0,0,0,0,0,0,0,0],"split_type":[0,0,0,0,0,0,0,0,0,0,0,0,0,0,0,0,0,0,0,0,0,0,0,0,0,0,0,0,0,0,0],"sum_hessian":[2.8021E4,2.6383E4,1.638E3,1.6701E4,9.682E3,9.87E2,6.51E2,1.5297E4,1.404E3,1.86E2,9.496E3,4.26E2,5.61E2,3.73E2,2.78E2,8.969E3,6.328E3,1.349E3,5.5E1,1.34E2,5.2E1,7.741E3,1.755E3,2.51E2,1.75E2,3.7E1,5.24E2,2.91E2,8.2E1,1.13E2,1.65E2],"tree_param":{"num_deleted":"0","num_feature":"21","num_nodes":"31","size_leaf_vector":"1"}},{"base_weights":[2.4885397E-2,-1.8113057E-1,3.2829933E0,-4.6496737E-1,3.083957E-1,2.7568048E-1,4.098364E0,-5.0798315E-1,-2.2766061E-1,7.398819E0,1.6763262E-1,1.5787402E-1,1.0524243E0,1.1523711E1,3.7136767E0,-3.28048E-2,-2.2670947E-2,-1.4147292E-2,6.9207154E-2,6.260815E-1,8.606736E-3,-1.1503929E-3,5.035473E-2,5.6426294E-2,-5.509304E-2,3.8138548E-1,1.1367493E0,2.8182724E-1,1.49146E-1],"categories":[],"categories_nodes":[],"categories_segments":[],"categories_sizes":[],"default_left":[0,0,0,0,0,0,0,0,0,0,0,0,0,0,0,0,0,0,0,0,0,0,0,0,0,0,0,0,0],"id":13,"left_children":[1,3,5,7,9,11,13,15,17,19,21,23,-1,25,27,-1,-1,-1,-1,-1,-1,-1,-1,-1,-1,-1,-1,-1,-1],"loss_changes":[1.8780725E4,3.6566353E3,4.079121E3,1.6992822E2,9.639116E3,8.678696E2,3.6962832E3,1.1366211E2,2.2833229E2,6.9577793E3,1.5158789E3,4.3532465E2,0E0,2.6220498E3,1.734002E3,0E0,0E0,0E0,0E0,0E0,0E0,0E0,0E0,0E0,0E0,0E0,0E0,0E0,0E0],"parents":[2147483647,0,0,1,1,2,2,3,3,4,4,5,5,6,6,7,7,8,8,9,9,10,10,11,11,13,13,14,14],"right_children":[2,4,6,8,10,12,14,16,18,20,22,24,-1,26,28,-1,-1,-1,-1,-1,-1,-1,-1,-1,-1,-1,-1,-1,-1],"split_conditions":[4.71028E-1,2.87526E-1,1E0,6.08696E-1,2.88805E-1,3.33333E-1,9E0,1.72334E-1,8.71795E-1,5.3E1,4.12608E-1,5E-2,1.0524243E0,1E0,4.8585E-1,-3.28048E-2,-2.2670947E-2,-1.4147292E-2,6.9207154E-2,6.260815E-1,8.606736E-3,-1.1503929E-3,5.035473E-2,5.6426294E-2,-5.509304E-2,3.8138548E-1,1.1367493E0,2.8182724E-1,1.49146E-1],"split_indices":[3,3,7,5,3,4,0,3,6,0,3,6,0,13,3,0,0,0,0,0,0,0,0,0,0,0,0,0,0],"split_type":[0,0,0,0,0,0,0,0,0,0,0,0,0,0,0,0,0,0,0,0,0,0,0,0,0,0,0,0,0],"sum_hessian":[2.7978E4,2.6315E4,1.663E3,1.6657E4,9.658E3,3.55E2,1.308E3,1.41E4,2.557E3,1.87E2,9.471E3,3.54E2,1E0,6.3E1,1.245E3,3.793E3,1.0307E4,2.473E3,8.4E1,1.09E2,7.8E1,7.719E3,1.752E3,2E2,1.54E2,4.8E1,1.5E1,3.41E2,9.04E2],"tree_param":{"num_deleted":"0","num_feature":"21","num_nodes":"29","size_leaf_vector":"1"}},{"base_weights":[-2.79694E-3,-1.8974122E-1,3.0257251E0,-4.5682245E-1,2.6250914E-1,1.5498897E-1,3.8111846E0,-4.8708722E-1,-1.5705433E-1,5.54534E0,1.4059995E-1,1.3280247E1,3.6785793E-3,8.27449E0,3.2989962E0,-2.5954822E-2,-1.5166211E-2,-1.571579E-2,4.2777758E-2,5.4066396E-1,-1.3594404E-2,-2.7741063E-3,4.7154807E-2,-1.7579412E-2,8.970694E-1,2.6442954E-2,-7.210096E-2,5.4710394E-1,1.7169131E-1,6.0871315E-1,1.5574706E-1],"categories":[],"categories_nodes":[],"categories_segments":[],"categories_sizes":[],"default_left":[0,0,0,0,0,0,0,0,0,0,0,0,0,0,0,0,0,0,0,0,0,0,0,0,0,0,0,0,0,0,0],"id":14,"left_children":[1,3,5,7,9,11,13,15,17,19,21,23,25,27,29,-1,-1,-1,-1,-1,-1,-1,-1,-1,-1,-1,-1,-1,-1,-1,-1],"loss_changes":[1.5863382E4,3.1877039E3,3.6725557E3,1.5045337E2,6.310028E3,6.970329E2,2.8965645E3,8.848584E1,2.4279822E2,6.775441E3,1.5073569E3,2.604676E2,2.6498245E2,1.6540156E3,1.8390127E3,0E0,0E0,0E0,0E0,0E0,0E0,0E0,0E0,0E0,0E0,0E0,0E0,0E0,0E0,0E0,0E0],"parents":[2147483647,0,0,1,1,2,2,3,3,4,4,5,5,6,6,7,7,8,8,9,9,10,10,11,11,12,12,13,13,14,14],"right_children":[2,4,6,8,10,12,14,16,18,20,22,24,26,28,30,-1,-1,-1,-1,-1,-1,-1,-1,-1,-1,-1,-1,-1,-1,-1,-1],"split_conditions":[4.71028E-1,2.86882E-1,1E0,2.7096E-1,2.88805E-1,2.963E-2,9.623935E0,6.31579E-1,2.1E1,5.3E1,4.09422E-1,9.88E-4,4.571429E0,4E0,3.62283E-1,-2.5954822E-2,-1.5166211E-2,-1.571579E-2,4.2777758E-2,5.4066396E-1,-1.3594404E-2,-2.7741063E-3,4.7154807E-2,-1.7579412E-2,8.970694E-1,2.6442954E-2,-7.210096E-2,5.4710394E-1,1.7169131E-1,6.0871315E-1,1.5574706E-1],"split_indices":[3,3,7,3,3,8,8,5,19,0,3,8,17,20,10,0,0,0,0,0,0,0,0,0,0,0,0,0,0,0,0],"split_type":[0,0,0,0,0,0,0,0,0,0,0,0,0,0,0,0,0,0,0,0,0,0,0,0,0,0,0,0,0,0,0],"sum_hessian":[2.8017E4,2.6389E4,1.628E3,1.6591E4,9.798E3,3.5E2,1.278E3,1.5069E4,1.522E3,2.2E2,9.578E3,3E0,3.47E2,1.3E2,1.148E3,1.2832E4,2.237E3,1.318E3,2.04E2,1.15E2,1.05E2,7.698E3,1.88E3,1E0,2E0,2.55E2,9.2E1,8.3E1,4.7E1,2.2E1,1.126E3],"tree_param":{"num_deleted":"0","num_feature":"21","num_nodes":"31","size_leaf_vector":"1"}},{"base_weights":[1.2181463E-2,-1.6032438E-1,3.055259E0,-3.3678618E-1,4.1994932E-1,7.2795286E0,2.1650903E0,-4.3704557E-1,-7.687099E-2,8.2874715E-1,-1.1443712E-1,8.872896E0,1.6738836E0,3.2734755E-1,2.8829458E0,-1.7842736E-2,-2.6368788E-2,-4.5163045E-3,7.575416E-1,4.0034372E-2,7.360095E-1,-1.4465913E-2,6.836022E-2,8.983602E-1,4.0520898E-1,1.3262829E-1,-1.1901678E-1,1.3826258E-1,-3.860347E-2,1.3971615E-1,1.4121455E0],"categories":[],"categories_nodes":[],"categories_segments":[],"categories_sizes":[],"default_left":[0,0,0,0,0,0,0,0,0,0,0,0,0,0,0,0,0,0,0,0,0,0,0,0,0,0,0,0,0,0,0],"id":15,"left_children":[1,3,5,7,9,11,13,15,17,19,21,23,25,27,29,-1,-1,-1,-1,-1,-1,-1,-1,-1,-1,-1,-1,-1,-1,-1,-1],"loss_changes":[1.4697479E4,2.7132295E3,5.6322285E3,5.2943164E2,1.3499344E3,2.3163613E3,1.6375444E3,1.0601831E2,1.160432E3,1.3528704E3,6.9455426E2,1.2735537E3,2.4041373E2,9.402305E2,1.9280693E3,0E0,0E0,0E0,0E0,0E0,0E0,0E0,0E0,0E0,0E0,0E0,0E0,0E0,0E0,0E0,0E0],"parents":[2147483647,0,0,1,1,2,2,3,3,4,4,5,5,6,6,7,7,8,8,9,9,10,10,11,11,12,12,13,13,14,14],"right_children":[2,4,6,8,10,12,14,16,18,20,22,24,26,28,30,-1,-1,-1,-1,-1,-1,-1,-1,-1,-1,-1,-1,-1,-1,-1,-1],"split_conditions":[4.8058E-1,3.30333E-1,4.8585E-1,2.65976E-1,4E0,3.5E1,1.13E0,1.17647E-1,3.95324E0,9.82833E-1,6.75E-1,1.44187E-1,1.83E2,2E0,8.67804E-1,-1.7842736E-2,-2.6368788E-2,-4.5163045E-3,7.575416E-1,4.0034372E-2,7.360095E-1,-1.4465913E-2,6.836022E-2,8.983602E-1,4.0520898E-1,1.3262829E-1,-1.1901678E-1,1.3826258E-1,-3.860347E-2,1.3971615E-1,1.4121455E0],"split_indices":[3,3,3,3,20,12,7,6,9,5,5,9,0,20,5,0,0,0,0,0,0,0,0,0,0,0,0,0,0,0,0],"split_type":[0,0,0,0,0,0,0,0,0,0,0,0,0,0,0,0,0,0,0,0,0,0,0,0,0,0,0,0,0,0,0],"sum_hessian":[2.7996E4,2.6495E4,1.501E3,2.0317E4,6.178E3,2.6E2,1.241E3,1.4661E4,5.656E3,3.5E3,2.678E3,2.02E2,5.8E1,3.49E2,8.92E2,7.769E3,6.892E3,5.652E3,4E0,3.494E3,6E0,2.396E3,2.82E2,1.4E1,1.88E2,4.7E1,1.1E1,1.08E2,2.41E2,8.9E2,2E0],"tree_param":{"num_deleted":"0","num_feature":"21","num_nodes":"31","size_leaf_vector":"1"}},{"base_weights":[-3.888321E-3,-1.568493E-1,3.10063E0,-2.9738134E-1,6.5731215E-1,1.4465333E0,5.4119225E0,-4.2273462E-1,-1.281264E-2,-4.355951E-2,1.2192489E0,1.389339E0,1.1342952E0,7.770142E0,2.3433394E0,-2.356236E-2,-1.5823262E-2,-1.5655486E-3,4.591547E-1,-3.408537E-2,4.902881E-2,2.5315369E-2,2.5973675E-1,1.1020839E-1,3.381025E-2,5.698952E-1,2.661508E-1,3.798761E-2,4.0985155E-1],"categories":[],"categories_nodes":[],"categories_segments":[],"categories_sizes":[],"default_left":[0,0,0,0,0,0,0,0,0,0,0,0,0,0,0,0,0,0,0,0,0,0,0,0,0,0,0,0,0],"id":16,"left_children":[1,3,5,7,9,11,13,15,17,19,21,23,-1,25,27,-1,-1,-1,-1,-1,-1,-1,-1,-1,-1,-1,-1,-1,-1],"loss_changes":[1.3318694E4,3.0585288E3,5.0271963E3,8.131648E2,1.5498353E3,9.0264136E2,3.9545713E3,8.143506E1,1.186287E3,1.1456881E3,6.187458E3,4.4478064E2,0E0,2.6913809E3,2.2185317E3,0E0,0E0,0E0,0E0,0E0,0E0,0E0,0E0,0E0,0E0,0E0,0E0,0E0,0E0],"parents":[2147483647,0,0,1,1,2,2,3,3,4,4,5,5,6,6,7,7,8,8,9,9,10,10,11,11,13,13,14,14],"right_children":[2,4,6,8,10,12,14,16,18,20,22,24,-1,26,28,-1,-1,-1,-1,-1,-1,-1,-1,-1,-1,-1,-1,-1,-1],"split_conditions":[2.079E-1,3.71429E-1,4.8058E-1,2.78548E-1,1.44948E-1,1.83E2,4E0,3.30508E-1,9.82833E-1,5.95349E-1,4.19355E-1,2.1875E0,1.1342952E0,5.05843E-1,2.22222E-1,-2.356236E-2,-1.5823262E-2,-1.5655486E-3,4.591547E-1,-3.408537E-2,4.902881E-2,2.5315369E-2,2.5973675E-1,1.1020839E-1,3.381025E-2,5.698952E-1,2.661508E-1,3.798761E-2,4.0985155E-1],"split_indices":[2,3,3,3,2,0,20,5,5,5,5,17,0,3,5,0,0,0,0,0,0,0,0,0,0,0,0,0,0],"split_type":[0,0,0,0,0,0,0,0,0,0,0,0,0,0,0,0,0,0,0,0,0,0,0,0,0,0,0,0,0],"sum_hessian":[2.8045E4,2.6729E4,1.316E3,2.2795E4,3.934E3,7.68E2,5.48E2,1.5824E4,6.971E3,1.751E3,2.183E3,7.67E2,1E0,3.09E2,2.39E2,1.0862E4,4.962E3,6.958E3,1.3E1,1.079E3,6.72E2,1.852E3,3.31E2,3.57E2,4.1E2,1.23E2,1.86E2,1.89E2,5E1],"tree_param":{"num_deleted":"0","num_feature":"21","num_nodes":"29","size_leaf_vector":"1"}},{"base_weights":[-2.3829262E-3,-1.504058E-1,2.5594256E0,-3.263076E-1,3.1451055E-1,1.8595365E0,3.7218337E0,-3.991814E-1,3.2076186E-1,-1.5988778E-1,1.839258E0,1.5278335E0,4.734502E0,7.3073463E0,2.8310173E0,-1.0625413E-2,-2.3217795E-2,4.02728E-2,-1.51397465E-2,-1.7730877E-2,1.6057929E-2,7.8025185E-2,4.0912387E-1,2.6009768E-2,1.3930061E-1,3.012418E-1,-2.9952025E-2,1.6456209E-1,6.1509067E-1,5.4085064E-1,1.16325356E-1],"categories":[],"categories_nodes":[],"categories_segments":[],"categories_sizes":[],"default_left":[0,0,0,0,0,0,0,0,0,0,0,0,0,0,0,0,0,0,0,0,0,0,0,0,0,0,0,0,0,0,0],"id":17,"left_children":[1,3,5,7,9,11,13,15,17,19,21,23,25,27,29,-1,-1,-1,-1,-1,-1,-1,-1,-1,-1,-1,-1,-1,-1,-1,-1],"loss_changes":[1.0565829E4,2.1542598E3,1.2313135E3,9.012958E2,5.2307485E3,9.006272E2,1.8031064E3,2.0888257E2,5.850672E2,5.168198E2,3.0214639E3,1.0825103E3,6.7804956E2,2.2260996E3,1.8241526E3,0E0,0E0,0E0,0E0,0E0,0E0,0E0,0E0,0E0,0E0,0E0,0E0,0E0,0E0,0E0,0E0],"parents":[2147483647,0,0,1,1,2,2,3,3,4,4,5,5,6,6,7,7,8,8,9,9,10,10,11,11,12,12,13,13,14,14],"right_children":[2,4,6,8,10,12,14,16,18,20,22,24,26,28,30,-1,-1,-1,-1,-1,-1,-1,-1,-1,-1,-1,-1,-1,-1,-1,-1],"split_conditions":[2.02676E-1,3.6E1,1.4E1,1.76469E-1,1.33698E-1,3.18145E-1,4.375E-2,2E0,4E0,1.11865E-1,2.24E2,2.666667E0,1.5E1,1.2E1,3.46662E-1,-1.0625413E-2,-2.3217795E-2,4.02728E-2,-1.51397465E-2,-1.7730877E-2,1.6057929E-2,7.8025185E-2,4.0912387E-1,2.6009768E-2,1.3930061E-1,3.012418E-1,-2.9952025E-2,1.6456209E-1,6.1509067E-1,5.4085064E-1,1.16325356E-1],"split_indices":[2,16,16,2,2,2,6,20,20,2,1,7,0,15,9,0,0,0,0,0,0,0,0,0,0,0,0,0,0,0,0],"split_type":[0,0,0,0,0,0,0,0,0,0,0,0,0,0,0,0,0,0,0,0,0,0,0,0,0,0,0,0,0,0,0],"sum_hessian":[2.7861E4,2.634E4,1.521E3,1.911E4,7.23E3,9.51E2,5.7E2,1.7176E4,1.934E3,5.515E3,1.715E3,8.54E2,9.7E1,1.12E2,4.58E2,4.446E3,1.273E4,1.088E3,8.46E2,3.926E3,1.589E3,1.644E3,7.1E1,4.75E2,3.79E2,7.8E1,1.9E1,6.3E1,4.9E1,2.6E1,4.32E2],"tree_param":{"num_deleted":"0","num_feature":"21","num_nodes":"31","size_leaf_vector":"1"}},{"base_weights":[-1.9132236E-2,-1.614365E-1,2.5818865E0,-3.685782E-1,1.8927222E-1,6.4888988E0,1.7718494E0,-5.105616E-1,-3.2854655E-1,5.390162E0,9.236502E-2,4.9819264E0,1.0978073E1,2.6919894E0,5.39207E-1,-2.583971E-2,1.6975592E-1,5.5135813E-2,-1.694991E-2,5.097901E-1,-2.0340405E-2,-3.2864083E-3,3.498213E-2,1.2984103E0,2.3093033E-1,1.0516709E0,3.3559892E-1,4.731425E-2,1.8999524E-1,-6.078902E-2,6.4596556E-2],"categories":[],"categories_nodes":[],"categories_segments":[],"categories_sizes":[],"default_left":[0,0,0,0,0,0,0,0,0,0,0,0,0,0,0,0,0,0,0,0,0,0,0,0,0,0,0,0,0,0,0],"id":18,"left_children":[1,3,5,7,9,11,13,15,17,19,21,23,25,27,29,-1,-1,-1,-1,-1,-1,-1,-1,-1,-1,-1,-1,-1,-1,-1,-1],"loss_changes":[1.0403461E4,1.9360234E3,4.6028174E3,9.5059326E1,4.987122E3,1.6365732E3,1.3698005E3,9.14082E1,1.9591858E2,5.0464736E3,9.3284467E2,1.3211362E3,2.5184414E3,1.3347964E3,6.858596E2,0E0,0E0,0E0,0E0,0E0,0E0,0E0,0E0,0E0,0E0,0E0,0E0,0E0,0E0,0E0,0E0],"parents":[2147483647,0,0,1,1,2,2,3,3,4,4,5,5,6,6,7,7,8,8,9,9,10,10,11,11,12,12,13,13,14,14],"right_children":[2,4,6,8,10,12,14,16,18,20,22,24,26,28,30,-1,-1,-1,-1,-1,-1,-1,-1,-1,-1,-1,-1,-1,-1,-1,-1],"split_conditions":[4.8058E-1,2.87526E-1,4.8585E-1,1.53586E-1,2.88805E-1,5.83E0,4E0,2.41E2,1E0,5.2E1,4.09422E-1,4.5142E-2,7.511111E0,1E1,1.253333E0,-2.583971E-2,1.6975592E-1,5.5135813E-2,-1.694991E-2,5.097901E-1,-2.0340405E-2,-3.2864083E-3,3.498213E-2,1.2984103E0,2.3093033E-1,1.0516709E0,3.3559892E-1,4.731425E-2,1.8999524E-1,-6.078902E-2,6.4596556E-2],"split_indices":[3,3,3,3,3,7,20,0,1,0,3,8,7,19,7,0,0,0,0,0,0,0,0,0,0,0,0,0,0,0,0],"split_type":[0,0,0,0,0,0,0,0,0,0,0,0,0,0,0,0,0,0,0,0,0,0,0,0,0,0,0,0,0,0,0],"sum_hessian":[2.8105E4,2.6648E4,1.457E3,1.6753E4,9.895E3,2.49E2,1.208E3,3.682E3,1.3071E4,1.8E2,9.715E3,1.88E2,6.1E1,6.91E2,5.17E2,3.677E3,5E0,9.4E1,1.2977E4,9.8E1,8.2E1,7.709E3,2.006E3,2E0,1.86E2,1.7E1,4.4E1,2.69E2,4.22E2,1.55E2,3.62E2],"tree_param":{"num_deleted":"0","num_feature":"21","num_nodes":"31","size_leaf_vector":"1"}},{"base_weights":[1.3082506E-2,-1.446292E-1,2.5708184E0,-3.7213007E-1,1.5773298E-1,4.9676725E-1,3.516334E0,-4.003923E-1,-1.3010255E-1,3.3242226E-2,1.0294969E0,2.3814697E0,-5.384689E-1,5.2350564E0,2.6464572E0,-2.2251207E-2,-1.6375307E-2,-7.969128E-3,5.7010716E-1,1.1751073E-2,-2.178005E-2,4.87017E-2,1.3395437E0,3.3078548E-1,3.116799E-2,-4.1597735E-2,2.0260791E-1,1.0666249E-1,3.1951958E-1,2.2837745E-1,8.014362E-2],"categories":[],"categories_nodes":[],"categories_segments":[],"categories_sizes":[],"default_left":[0,0,0,0,0,0,0,0,0,0,0,0,0,0,0,0,0,0,0,0,0,0,0,0,0,0,0,0,0,0,0],"id":19,"left_children":[1,3,5,7,9,11,13,15,17,19,21,23,25,27,29,-1,-1,-1,-1,-1,-1,-1,-1,-1,-1,-1,-1,-1,-1,-1,-1],"loss_changes":[1.1286275E4,1.8128887E3,3.184955E3,1.02818115E2,1.2280521E3,9.963497E2,1.6546514E3,4.3659912E1,5.333007E2,9.369542E2,1.9942292E3,1.3432869E3,4.4797482E2,1.3266436E3,1.4822617E3,0E0,0E0,0E0,0E0,0E0,0E0,0E0,0E0,0E0,0E0,0E0,0E0,0E0,0E0,0E0,0E0],"parents":[2147483647,0,0,1,1,2,2,3,3,4,4,5,5,6,6,7,7,8,8,9,9,10,10,11,11,12,12,13,13,14,14],"right_children":[2,4,6,8,10,12,14,16,18,20,22,24,26,28,30,-1,-1,-1,-1,-1,-1,-1,-1,-1,-1,-1,-1,-1,-1,-1,-1],"split_conditions":[4.71028E-1,2.69178E-1,1.64085E-1,1.64085E-1,1.87769E-1,1.79867E-1,4.9522E-1,7E0,8.4E1,4.571429E0,1.9E2,5.2E1,8.3E1,4.8058E-1,4.6875E-2,-2.2251207E-2,-1.6375307E-2,-7.969128E-3,5.7010716E-1,1.1751073E-2,-2.178005E-2,4.87017E-2,1.3395437E0,3.3078548E-1,3.116799E-2,-4.1597735E-2,2.0260791E-1,1.0666249E-1,3.1951958E-1,2.2837745E-1,8.014362E-2],"split_indices":[3,3,2,2,2,11,3,16,0,17,0,15,15,3,6,0,0,0,0,0,0,0,0,0,0,0,0,0,0,0,0],"split_type":[0,0,0,0,0,0,0,0,0,0,0,0,0,0,0,0,0,0,0,0,0,0,0,0,0,0,0,0,0,0,0],"sum_hessian":[2.7977E4,2.6353E4,1.624E3,1.5038E4,1.1315E4,5.09E2,1.115E3,1.3465E4,1.573E3,9.902E3,1.413E3,1.8E2,3.29E2,3.73E2,7.42E2,8.348E3,5.117E3,1.57E3,3E0,6.923E3,2.979E3,1.411E3,2E0,5.2E1,1.28E2,3.1E2,1.9E1,1.02E2,2.71E2,2.6E2,4.82E2],"tree_param":{"num_deleted":"0","num_feature":"21","num_nodes":"31","size_leaf_vector":"1"}},{"base_weights":[-1.9419273E-2,-1.4882793E-1,2.2064393E0,-2.5702944E-1,4.3195552E-1,1.4925299E0,4.786639E0,-3.6306694E-1,1.9510852E-1,-1.1279397E-1,2.4555275E0,2.1720314E0,5.77455E-1,2.754808E0,7.6946106E0,-2.2896847E-2,-1.025465E-2,-4.119284E-3,1.9808294E-1,-2.4608746E-2,1.2370681E-2,6.550824E-2,3.7971568E-1,-4.2732246E-2,1.3079444E-1,4.7451425E-1,2.1783983E-2,6.361887E-2,3.0195203E-1,1.6658609E-1,4.9805865E-1],"categories":[],"categories_nodes":[],"categories_segments":[],"categories_sizes":[],"default_left":[0,0,0,0,0,0,0,0,0,0,0,0,0,0,0,0,0,0,0,0,0,0,0,0,0,0,0,0,0,0,0],"id":20,"left_children":[1,3,5,7,9,11,13,15,17,19,21,23,25,27,29,-1,-1,-1,-1,-1,-1,-1,-1,-1,-1,-1,-1,-1,-1,-1,-1],"loss_changes":[8.0419785E3,1.6581877E3,2.8185278E3,1.066432E3,4.5683735E3,7.467649E2,1.9404277E3,2.6992676E2,4.417324E3,4.4643997E2,5.1636455E3,9.291902E2,6.453656E2,9.514398E2,1.3116826E3,0E0,0E0,0E0,0E0,0E0,0E0,0E0,0E0,0E0,0E0,0E0,0E0,0E0,0E0,0E0,0E0],"parents":[2147483647,0,0,1,1,2,2,3,3,4,4,5,5,6,6,7,7,8,8,9,9,10,10,11,11,12,12,13,13,14,14],"right_children":[2,4,6,8,10,12,14,16,18,20,22,24,26,28,30,-1,-1,-1,-1,-1,-1,-1,-1,-1,-1,-1,-1,-1,-1,-1,-1],"split_conditions":[2.02676E-1,6.3E1,1.85185E-1,1.64085E-1,1.22151E-1,4E0,2.28086E-1,3.05263E-1,3.33333E-1,6.88889E-1,5.95349E-1,2.079E-1,1.5115E-2,6.66327E-1,3E0,-2.2896847E-2,-1.025465E-2,-4.119284E-3,1.9808294E-1,-2.4608746E-2,1.2370681E-2,6.550824E-2,3.7971568E-1,-4.2732246E-2,1.3079444E-1,4.7451425E-1,2.1783983E-2,6.361887E-2,3.0195203E-1,1.6658609E-1,4.9805865E-1],"split_indices":[2,16,5,2,2,20,2,5,5,5,5,2,9,9,16,0,0,0,0,0,0,0,0,0,0,0,0,0,0,0,0],"split_type":[0,0,0,0,0,0,0,0,0,0,0,0,0,0,0,0,0,0,0,0,0,0,0,0,0,0,0,0,0,0,0],"sum_hessian":[2.7917E4,2.6384E4,1.533E3,2.2241E4,4.143E3,1.202E3,3.31E2,1.8016E4,4.225E3,3.265E3,8.78E2,6.89E2,5.13E2,1.96E2,1.35E2,1.1255E4,6.761E3,3.936E3,2.89E2,1.59E3,1.675E3,7.19E2,1.59E2,8.8E1,6.01E2,7E0,5.06E2,1.36E2,6E1,4.7E1,8.8E1],"tree_param":{"num_deleted":"0","num_feature":"21","num_nodes":"31","size_leaf_vector":"1"}},{"base_weights":[-1.8721247E-3,-1.6892216E-1,1.6248441E0,-3.1816164E-1,1.1662201E-1,2.4346445E0,5.116406E-1,-3.5525924E-1,-1.1667429E-1,6.487815E0,-1.7246554E-2,2.8145578E0,-2.1156764E-1,-6.235963E-1,1.048858E0,-1.0996122E-2,-2.0023314E-2,-7.9631535E-3,2.3208378E-1,3.654962E-2,5.8428377E-1,-1.1650917E-2,2.7585289E-2,6.533565E-2,1.8502955E-1,1.392298E-1,-3.9537605E-2,4.7421882E-1,-4.277522E-2,7.1510817E-3,1.0937913E-1],"categories":[],"categories_nodes":[],"categories_segments":[],"categories_sizes":[],"default_left":[0,0,0,0,0,0,0,0,0,0,0,0,0,0,0,0,0,0,0,0,0,0,0,0,0,0,0,0,0,0,0],"id":21,"left_children":[1,3,5,7,9,11,13,15,17,19,21,23,25,27,29,-1,-1,-1,-1,-1,-1,-1,-1,-1,-1,-1,-1,-1,-1,-1,-1],"loss_changes":[7.592502E3,1.0798025E3,2.3443857E3,1.2434485E2,7.418657E3,1.514624E3,6.6968036E2,8.5890625E1,5.254059E2,5.347704E3,1.0460767E3,1.7546768E3,3.3191483E2,8.355884E2,7.6815326E2,0E0,0E0,0E0,0E0,0E0,0E0,0E0,0E0,0E0,0E0,0E0,0E0,0E0,0E0,0E0,0E0],"parents":[2147483647,0,0,1,1,2,2,3,3,4,4,5,5,6,6,7,7,8,8,9,9,10,10,11,11,12,12,13,13,14,14],"right_children":[2,4,6,8,10,12,14,16,18,20,22,24,26,28,30,-1,-1,-1,-1,-1,-1,-1,-1,-1,-1,-1,-1,-1,-1,-1,-1],"split_conditions":[4.35146E-1,2.87526E-1,4E0,6.08696E-1,2.88805E-1,1.149306E0,1.253333E0,2E0,2.86213E-1,6.9444E-2,5.33835E-1,1E1,2.562904E1,1.43619E-1,2.30769E-1,-1.0996122E-2,-2.0023314E-2,-7.9631535E-3,2.3208378E-1,3.654962E-2,5.8428377E-1,-1.1650917E-2,2.7585289E-2,6.533565E-2,1.8502955E-1,1.392298E-1,-3.9537605E-2,4.7421882E-1,-4.277522E-2,7.1510817E-3,1.0937913E-1],"split_indices":[3,3,20,5,3,10,7,20,3,6,5,19,8,8,5,0,0,0,0,0,0,0,0,0,0,0,0,0,0,0,0],"split_type":[0,0,0,0,0,0,0,0,0,0,0,0,0,0,0,0,0,0,0,0,0,0,0,0,0,0,0,0,0,0,0],"sum_hessian":[2.7938E4,2.5337E4,2.601E3,1.664E4,8.697E3,1.505E3,1.096E3,1.4052E4,2.588E3,1.78E2,8.519E3,1.316E3,1.89E2,3.52E2,7.44E2,3.52E3,1.0532E4,2.566E3,2.2E1,8.5E1,9.3E1,6.177E3,2.342E3,4.88E2,8.28E2,3E1,1.59E2,7E0,3.45E2,4.15E2,3.29E2],"tree_param":{"num_deleted":"0","num_feature":"21","num_nodes":"31","size_leaf_vector":"1"}},{"base_weights":[-3.9605107E-3,-1.2225099E-1,2.150144E0,-1.895316E-1,6.5872777E-1,5.2199507E0,1.505433E0,-3.5498282E-1,1.2612367E-1,6.2298506E-1,1.2771223E0,3.2617383E0,1.0499474E1,-2.5145945E-1,2.177119E0,-2.1154491E-2,-1.1226262E-2,-8.189125E-3,1.488819E-1,1.1808291E-2,1.13657296E-1,6.4378923E-1,1.3786553E-1,7.8511304E-1,1.8915854E-1,-4.6161514E-2,1.3037479E-1,7.678329E-2,2.6191387E-1],"categories":[],"categories_nodes":[],"categories_segments":[],"categories_sizes":[],"default_left":[0,0,0,0,0,0,0,0,0,0,0,0,0,0,0,0,0,0,0,0,0,0,0,0,0,0,0,0,0],"id":22,"left_children":[1,3,5,7,9,11,13,15,17,19,-1,21,23,25,27,-1,-1,-1,-1,-1,-1,-1,-1,-1,-1,-1,-1,-1,-1],"loss_changes":[7.146666E3,1.3971313E3,2.881684E3,1.2784739E3,1.859856E3,2.581375E3,1.4260837E3,1.4260803E2,6.960235E3,1.3443905E3,0E0,8.665215E2,2.316754E3,6.4579584E2,1.7081333E3,0E0,0E0,0E0,0E0,0E0,0E0,0E0,0E0,0E0,0E0,0E0,0E0,0E0,0E0],"parents":[2147483647,0,0,1,1,2,2,3,3,4,4,5,5,6,6,7,7,8,8,9,9,11,11,12,12,13,13,14,14],"right_children":[2,4,6,8,10,12,14,16,18,20,-1,22,24,26,28,-1,-1,-1,-1,-1,-1,-1,-1,-1,-1,-1,-1,-1,-1],"split_conditions":[4.8058E-1,1.82845E-1,4.8585E-1,3.91304E-1,1.9E2,4.858974E0,1.5607E-1,1.51224E-1,1.33698E-1,1.73077E-1,1.2771223E0,6.3646E-2,4E0,7.02247E-1,3.875E-1,-2.1154491E-2,-1.1226262E-2,-8.189125E-3,1.488819E-1,1.1808291E-2,1.13657296E-1,6.4378923E-1,1.3786553E-1,7.8511304E-1,1.8915854E-1,-4.6161514E-2,1.3037479E-1,7.678329E-2,2.6191387E-1],"split_indices":[3,2,3,5,0,7,2,2,2,5,0,9,20,5,5,0,0,0,0,0,0,0,0,0,0,0,0,0,0],"split_type":[0,0,0,0,0,0,0,0,0,0,0,0,0,0,0,0,0,0,0,0,0,0,0,0,0,0,0,0,0],"sum_hessian":[2.8045E4,2.6586E4,1.459E3,2.4478E4,2.108E3,2.52E2,1.207E3,1.606E4,8.418E3,2.106E3,2E0,1.85E2,6.7E1,3.34E2,8.73E2,1.055E4,5.51E3,7.642E3,7.76E2,1.707E3,3.99E2,8E0,1.77E2,3.7E1,3E1,2.71E2,6.3E1,7.23E2,1.5E2],"tree_param":{"num_deleted":"0","num_feature":"21","num_nodes":"29","size_leaf_vector":"1"}},{"base_weights":[-3.873516E-3,-1.2060993E-1,2.129981E0,-1.8787745E-1,8.40905E-1,5.1104856E0,1.5038654E0,-3.5679543E-1,4.822805E-2,7.4334437E-1,1.1997817E1,6.6206694E0,-5.494609E-1,-9.507929E-2,2.374273E0,-1.51292235E-2,-2.6608545E-2,-1.0576198E-2,9.053207E-2,9.703777E-2,1.53667275E-2,8.993369E-2,1.0348617E0,2.4236901E-1,5.646257E-1,-9.8872E-2,1.6475569E-1,1.0670636E-1,-4.8957065E-2,8.522051E-2,4.676608E-1],"categories":[],"categories_nodes":[],"categories_segments":[],"categories_sizes":[],"default_left":[0,0,0,0,0,0,0,0,0,0,0,0,0,0,0,0,0,0,0,0,0,0,0,0,0,0,0,0,0,0,0],"id":23,"left_children":[1,3,5,7,9,11,13,15,17,19,21,23,25,27,29,-1,-1,-1,-1,-1,-1,-1,-1,-1,-1,-1,-1,-1,-1,-1,-1],"loss_changes":[6.9827373E3,1.7191891E3,2.7056826E3,9.9073755E2,1.8828524E3,2.157623E3,1.6744812E3,1.375138E2,4.7435493E3,8.994746E2,1.2936714E3,1.5938818E3,3.0297437E2,8.3966125E2,3.625832E3,0E0,0E0,0E0,0E0,0E0,0E0,0E0,0E0,0E0,0E0,0E0,0E0,0E0,0E0,0E0,0E0],"parents":[2147483647,0,0,1,1,2,2,3,3,4,4,5,5,6,6,7,7,8,8,9,9,10,10,11,11,12,12,13,13,14,14],"right_children":[2,4,6,8,10,12,14,16,18,20,22,24,26,28,30,-1,-1,-1,-1,-1,-1,-1,-1,-1,-1,-1,-1,-1,-1,-1,-1],"split_conditions":[4.8058E-1,1.87769E-1,4.8585E-1,3.05263E-1,6.1E1,3.5E1,1.85185E-1,2.91546E-1,1.36196E-1,2E0,2.6E1,1.90476E-1,6.769231E0,4.41695E-1,2.28086E-1,-1.51292235E-2,-2.6608545E-2,-1.0576198E-2,9.053207E-2,9.703777E-2,1.53667275E-2,8.993369E-2,1.0348617E0,2.4236901E-1,5.646257E-1,-9.8872E-2,1.6475569E-1,1.0670636E-1,-4.8957065E-2,8.522051E-2,4.676608E-1],"split_indices":[3,2,3,5,12,12,5,3,2,20,15,5,17,9,2,0,0,0,0,0,0,0,0,0,0,0,0,0,0,0,0],"split_type":[0,0,0,0,0,0,0,0,0,0,0,0,0,0,0,0,0,0,0,0,0,0,0,0,0,0,0,0,0,0,0],"sum_hessian":[2.803E4,2.6577E4,1.453E3,2.484E4,1.737E3,2.51E2,1.202E3,1.448E4,1.036E4,1.723E3,1.4E1,1.98E2,5.3E1,4.24E2,7.78E2,1.1063E4,3.417E3,9.03E3,1.33E3,4.59E2,1.264E3,7E0,7E0,1.45E2,5.3E1,3.9E1,1.4E1,1.2E2,3.04E2,7.11E2,6.7E1],"tree_param":{"num_deleted":"0","num_feature":"21","num_nodes":"31","size_leaf_vector":"1"}},{"base_weights":[-2.305125E-4,-1.1920946E-1,1.8863542E0,-2.7732757E-1,1.5511009E-1,3.743057E0,1.2549917E0,-2.1177343E-1,-3.5710493E-1,5.398734E0,4.587462E-2,9.6772325E-1,5.686365E0,1.1984038E0,1.5037789E1,-1.2282448E-2,1.4318655E-2,5.9782253E-3,-1.898644E-2,5.7470757E-1,7.3760755E-2,-1.2393322E-2,2.298293E-2,2.2594042E-1,1.8669324E-2,3.4837607E-1,1.7055387E-2,1.2201039E-1,3.5268143E-2,1.3278042E0,-7.465508E-2],"categories":[],"categories_nodes":[],"categories_segments":[],"categories_sizes":[],"default_left":[0,0,0,0,0,0,0,0,0,0,0,0,0,0,0,0,0,0,0,0,0,0,0,0,0,0,0,0,0,0,0],"id":24,"left_children":[1,3,5,7,9,11,13,15,17,19,21,23,25,27,29,-1,-1,-1,-1,-1,-1,-1,-1,-1,-1,-1,-1,-1,-1,-1,-1],"loss_changes":[6.299803E3,1.1451833E3,1.9471035E3,8.7512085E1,5.529465E3,2.270481E3,9.5222327E2,1.5525262E2,8.149768E1,4.694394E3,1.1496897E3,3.676573E2,1.6959546E3,7.574812E2,9.916892E2,0E0,0E0,0E0,0E0,0E0,0E0,0E0,0E0,0E0,0E0,0E0,0E0,0E0,0E0,0E0,0E0],"parents":[2147483647,0,0,1,1,2,2,3,3,4,4,5,5,6,6,7,7,8,8,9,9,10,10,11,11,12,12,13,13,14,14],"right_children":[2,4,6,8,10,12,14,16,18,20,22,24,26,28,30,-1,-1,-1,-1,-1,-1,-1,-1,-1,-1,-1,-1,-1,-1,-1,-1],"split_conditions":[4.71028E-1,2.87526E-1,4.8585E-1,4E0,2.88805E-1,4.8058E-1,9.82833E-1,2.7615E-1,4.9383E-2,3E0,3.91304E-1,1.6393E-2,3.5E1,3.2609E-2,7.35672E-1,-1.2282448E-2,1.4318655E-2,5.9782253E-3,-1.898644E-2,5.7470757E-1,7.3760755E-2,-1.2393322E-2,2.298293E-2,2.2594042E-1,1.8669324E-2,3.4837607E-1,1.7055387E-2,1.2201039E-1,3.5268143E-2,1.3278042E0,-7.465508E-2],"split_indices":[3,3,3,20,3,3,5,3,8,20,5,6,12,6,10,0,0,0,0,0,0,0,0,0,0,0,0,0,0,0,0],"split_type":[0,0,0,0,0,0,0,0,0,0,0,0,0,0,0,0,0,0,0,0,0,0,0,0,0,0,0,0,0,0,0],"sum_hessian":[2.8064E4,2.64E4,1.664E3,1.6747E4,9.653E3,4.21E2,1.243E3,9.195E3,7.552E3,1.96E2,9.457E3,1.74E2,2.47E2,1.239E3,4E0,8.61E3,5.85E2,3.42E2,7.21E3,7.6E1,1.2E2,5.531E3,3.926E3,2.4E1,1.5E2,1.99E2,4.8E1,3.51E2,8.88E2,2E0,2E0],"tree_param":{"num_deleted":"0","num_feature":"21","num_nodes":"31","size_leaf_vector":"1"}},{"base_weights":[3.706723E-2,-7.37516E-2,2.2791445E0,-1.5965155E-1,6.153037E-1,1.2788717E0,3.6779256E0,-5.4053175E-3,-3.4991616E-1,-4.7770342E-1,1.0544951E0,1.8384829E0,-3.47068E-1,7.414657E0,2.148979E0,-9.203448E-3,1.9201057E-2,-1.9974664E-2,1.2123937E-3,-4.9366713E-2,3.9759688E-2,3.8303275E-2,5.362804E-1,5.9037216E-2,2.7746946E-1,-2.7524892E-2,9.932152E-1,3.1598204E-1,8.094759E-1,3.0793223E-1,5.242282E-2],"categories":[],"categories_nodes":[],"categories_segments":[],"categories_sizes":[],"default_left":[0,0,0,0,0,0,0,0,0,0,0,0,0,0,0,0,0,0,0,0,0,0,0,0,0,0,0,0,0,0,0],"id":25,"left_children":[1,3,5,7,9,11,13,15,17,19,21,23,25,27,29,-1,-1,-1,-1,-1,-1,-1,-1,-1,-1,-1,-1,-1,-1,-1,-1],"loss_changes":[6.952947E3,1.5784539E3,1.8393926E3,6.95859E2,1.4195004E3,7.0125635E2,3.120649E3,9.112426E2,1.9693628E2,5.508892E2,5.874702E3,1.3920294E3,8.250312E2,1.425457E3,1.718919E3,0E0,0E0,0E0,0E0,0E0,0E0,0E0,0E0,0E0,0E0,0E0,0E0,0E0,0E0,0E0,0E0],"parents":[2147483647,0,0,1,1,2,2,3,3,4,4,5,5,6,6,7,7,8,8,9,9,10,10,11,11,12,12,13,13,14,14],"right_children":[2,4,6,8,10,12,14,16,18,20,22,24,26,28,30,-1,-1,-1,-1,-1,-1,-1,-1,-1,-1,-1,-1,-1,-1,-1,-1],"split_conditions":[2.079E-1,4.01179E-1,4.8058E-1,4E0,1.31336E-1,1.5E1,4.8585E-1,2.86213E-1,6.75E-1,6.88889E-1,6.42857E-1,1E1,1.83E2,2.66667E-1,4.41695E-1,-9.203448E-3,1.9201057E-2,-1.9974664E-2,1.2123937E-3,-4.9366713E-2,3.9759688E-2,3.8303275E-2,5.362804E-1,5.9037216E-2,2.7746946E-1,-2.7524892E-2,9.932152E-1,3.1598204E-1,8.094759E-1,3.0793223E-1,5.242282E-2],"split_indices":[2,3,3,20,2,14,3,3,5,5,5,14,0,5,9,0,0,0,0,0,0,0,0,0,0,0,0,0,0,0,0],"split_type":[0,0,0,0,0,0,0,0,0,0,0,0,0,0,0,0,0,0,0,0,0,0,0,0,0,0,0,0,0,0,0],"sum_hessian":[2.7982E4,2.6665E4,1.317E3,2.371E4,2.955E3,7.69E2,5.48E2,1.3095E4,1.0615E4,8.47E2,2.108E3,5.72E2,1.97E2,1.58E2,3.9E2,8.977E3,4.118E3,9.373E3,1.242E3,6.05E2,2.42E2,2.048E3,6E1,4.87E2,8.5E1,1.96E2,1E0,1.42E2,1.6E1,8.3E1,3.07E2],"tree_param":{"num_deleted":"0","num_feature":"21","num_nodes":"31","size_leaf_vector":"1"}}]},"name":"gbtree"},"learner_model_param":{"base_score":"2.220287E0","boost_from_average":"1","num_class":"0","num_feature":"21","num_target":"1"},"objective":{"name":"reg:squarederror","reg_loss_param":{"scale_pos_weight":"1"}}},"version":[2,0,3]}