{"learner":{"attributes":{"best_iteration":"5","best_score":"1.3034993778625759","scikit_learn":"{\"_estimator_type\": \"regressor\"}"},"feature_names":["n_early_buyers","n_reliable_wallets","avg_wallet_score","max_wallet_score","pct_high_score_wallets","pct_negative_wallets","pct_new_wallets","avg_cooccurrence_score","total_volume_sol","avg_buy_size_sol","std_buy_size_sol","concentration_top5","n_tier1_buyers","creator_is_buyer","buys_in_first_20s","buys_20s_to_60s","buys_60s_to_180s","acceleration_ratio","time_to_5th_buy","hour_utc","day_of_week"],"feature_types":["int","int","float","float","float","float","float","float","float","float","float","float","int","int","int","int","int","float","float","int","int"],"gradient_booster":{"model":{"gbtree_model_param":{"num_parallel_tree":"1","num_trees":"26"},"iteration_indptr":[0,1,2,3,4,5,6,7,8,9,10,11,12,13,14,15,16,17,18,19,20,21,22,23,24,25,26],"tree_info":[0,0,0,0,0,0,0,0,0,0,0,0,0,0,0,0,0,0,0,0,0,0,0,0,0,0],"trees":[{"base_weights":[7.0771617E-3,-3.3598462E-1,6.2102656E0,-8.431126E-1,5.837386E-1,9.313821E0,4.8397036E0,-9.199152E-1,-5.0048184E-1,1.0678474E0,-4.627725E-2,4.4355006E0,1.1493921E1,6.0879183E0,3.1499434E0,-5.318668E-2,-4.2595305E-2,-1.43288765E-2,-3.8637076E-2,4.0382057E-2,1.2236851E-1,3.7443635E-1,-4.1619223E-3,7.242371E-1,1.8172622E-1,7.0128745E-1,2.2155209E-1,1.7429377E-1,3.7678835E-1,1.0438534E-1,2.5087747E-1],"categories":[],"categories_nodes":[],"categories_segments":[],"categories_sizes":[],"default_left":[0,0,0,0,0,0,0,0,0,0,0,0,0,0,0,0,0,0,0,0,0,0,0,0,0,0,0,0,0,0,0],"id":0,"left_children":[1,3,5,7,9,11,13,15,17,19,21,23,25,27,29,-1,-1,-1,-1,-1,-1,-1,-1,-1,-1,-1,-1,-1,-1,-1,-1],"loss_changes":[5.9530777E4,1.2364285E4,6.1907227E3,4.4918262E2,2.8737236E3,4.7136016E3,2.130082E3,1.3560742E2,1.8212018E2,1.910564E3,1.141092E3,1.0742434E3,5.4633906E3,2.1776387E3,8.524946E2,0E0,0E0,0E0,0E0,0E0,0E0,0E0,0E0,0E0,0E0,0E0,0E0,0E0,0E0,0E0,0E0],"parents":[2147483647,0,0,1,1,2,2,3,3,4,4,5,5,6,6,7,7,8,8,9,9,10,10,11,11,12,12,13,13,14,14],"right_children":[2,4,6,8,10,12,14,16,18,20,22,24,26,28,30,-1,-1,-1,-1,-1,-1,-1,-1,-1,-1,-1,-1,-1,-1,-1,-1],"split_conditions":[5.22935E-1,3.02964E-1,5.40657E-1,2.66192E-1,4E0,5.31028E-1,4E0,1.70071E-1,4E0,4.5459E-1,3.8189E-2,1.6393E-2,3.5E1,1E1,6.2075E-1,-5.318668E-2,-4.2595305E-2,-1.43288765E-2,-3.8637076E-2,4.0382057E-2,1.2236851E-1,3.7443635E-1,-4.1619223E-3,7.242371E-1,1.8172622E-1,7.0128745E-1,2.2155209E-1,1.7429377E-1,3.7678835E-1,1.0438534E-1,2.5087747E-1],"split_indices":[3,3,3,3,20,3,20,3,20,3,9,6,12,19,3,0,0,0,0,0,0,0,0,0,0,0,0,0,0,0,0],"split_type":[0,0,0,0,0,0,0,0,0,0,0,0,0,0,0,0,0,0,0,0,0,0,0,0,0,0,0,0,0,0,0],"sum_hessian":[2.7972E4,2.6507E4,1.465E3,1.7086E4,9.421E3,4.47E2,1.018E3,1.3956E4,3.13E3,5.327E3,4.094E3,1.39E2,3.08E2,5.84E2,4.34E2,4.476E3,9.48E3,1.754E3,1.376E3,4.483E3,8.44E2,1.9E1,4.075E3,9E0,1.3E2,2.26E2,8.2E1,2.1E2,3.74E2,2.78E2,1.56E2],"tree_param":{"num_deleted":"0","num_feature":"21","num_nodes":"31","size_leaf_vector":"1"}},{"base_weights":[-1.4511122E-2,-3.3088204E-1,5.82764E0,-7.9233885E-1,5.7486546E-1,4.10635E0,1.0226742E1,-8.2817465E-1,2.0901981E-1,2.4569456E-1,2.6019866E0,1.3051064E0,5.3703637E0,1.3050688E1,6.5726275E0,-4.5346763E-2,-2.9871264E-2,5.685865E-1,6.7679146E-3,1.1773149E-2,1.0006567E0,7.4136174E-1,9.185016E-2,3.9041262E-2,3.9239657E-1,6.095411E-1,2.4639598E-1,7.889192E-1,5.0423473E-1,2.1398063E-1,7.942236E-1],"categories":[],"categories_nodes":[],"categories_segments":[],"categories_sizes":[],"default_left":[0,0,0,0,0,0,0,0,0,0,0,0,0,0,0,0,0,0,0,0,0,0,0,0,0,0,0,0,0,0,0],"id":1,"left_children":[1,3,5,7,9,11,13,15,17,19,21,23,25,27,29,-1,-1,-1,-1,-1,-1,-1,-1,-1,-1,-1,-1,-1,-1,-1,-1],"loss_changes":[5.202566E4,1.1160913E4,1.0907305E4,6.349697E2,6.0134585E3,3.6789746E3,4.103746E3,3.098506E2,5.0168527E2,1.5637578E3,1.1747069E4,1.1087131E3,2.1035957E3,1.6854727E3,3.7540645E3,0E0,0E0,0E0,0E0,0E0,0E0,0E0,0E0,0E0,0E0,0E0,0E0,0E0,0E0,0E0,0E0],"parents":[2147483647,0,0,1,1,2,2,3,3,4,4,5,5,6,6,7,7,8,8,9,9,10,10,11,11,12,12,13,13,14,14],"right_children":[2,4,6,8,10,12,14,16,18,20,22,24,26,28,30,-1,-1,-1,-1,-1,-1,-1,-1,-1,-1,-1,-1,-1,-1,-1,-1],"split_conditions":[5.22935E-1,3.08003E-1,2.30851E-1,1.87185E-1,1.9339E-1,1.193333E0,4E0,4.7E1,1.88192E-1,3.95324E0,3.1879E-1,2.61E2,1.41973E-1,5.67296E-1,2.22222E-1,-4.5346763E-2,-2.9871264E-2,5.685865E-1,6.7679146E-3,1.1773149E-2,1.0006567E0,7.4136174E-1,9.185016E-2,3.9041262E-2,3.9239657E-1,6.095411E-1,2.4639598E-1,7.889192E-1,5.0423473E-1,2.1398063E-1,7.942236E-1],"split_indices":[3,3,2,2,2,7,20,1,3,9,3,1,11,9,5,0,0,0,0,0,0,0,0,0,0,0,0,0,0,0,0],"split_type":[0,0,0,0,0,0,0,0,0,0,0,0,0,0,0,0,0,0,0,0,0,0,0,0,0,0,0,0,0,0,0],"sum_hessian":[2.8146E4,2.6701E4,1.445E3,1.7689E4,9.012E3,1.04E3,4.05E2,1.7078E4,6.11E2,7.754E3,1.258E3,3.24E2,7.16E2,2.27E2,1.78E2,1.273E4,4.348E3,3E0,6.08E2,7.751E3,3E0,7.3E1,1.185E3,3.01E2,2.3E1,4.2E1,6.74E2,1.16E2,1.11E2,1.44E2,3.4E1],"tree_param":{"num_deleted":"0","num_feature":"21","num_nodes":"31","size_leaf_vector":"1"}},{"base_weights":[1.1184357E-2,-2.9545522E-1,5.69009E0,-7.222739E-1,6.4668816E-1,4.0168357E0,9.943872E0,-8.3321804E-1,-3.572435E-1,1.0311855E1,4.1526443E-1,9.9782544E-1,5.2395124E0,8.153822E0,1.5181438E1,-4.363593E-2,-2.2097258E-2,-3.0806566E-2,-3.079101E-3,3.0936971E-2,8.482612E-1,1.1214233E-3,8.1280366E-2,-4.4806447E-2,1.2706886E-1,4.1260716E-1,1.9598573E-1,3.0407315E-1,6.099142E-1,9.9094707E-1,5.170584E-1],"categories":[],"categories_nodes":[],"categories_segments":[],"categories_sizes":[],"default_left":[0,0,0,0,0,0,0,0,0,0,0,0,0,0,0,0,0,0,0,0,0,0,0,0,0,0,0,0,0,0,0],"id":2,"left_children":[1,3,5,7,9,11,13,15,17,19,21,23,25,27,29,-1,-1,-1,-1,-1,-1,-1,-1,-1,-1,-1,-1,-1,-1,-1,-1],"loss_changes":[4.8845574E4,1.0702202E4,1.0188137E4,7.414629E2,1.855626E4,3.8078574E3,3.673293E3,2.1670312E2,3.268778E2,1.2500928E4,3.8536177E3,8.763789E2,2.8900605E3,2.4738164E3,2.084621E3,0E0,0E0,0E0,0E0,0E0,0E0,0E0,0E0,0E0,0E0,0E0,0E0,0E0,0E0,0E0,0E0],"parents":[2147483647,0,0,1,1,2,2,3,3,4,4,5,5,6,6,7,7,8,8,9,9,10,10,11,11,12,12,13,13,14,14],"right_children":[2,4,6,8,10,12,14,16,18,20,22,24,26,28,30,-1,-1,-1,-1,-1,-1,-1,-1,-1,-1,-1,-1,-1,-1,-1,-1],"split_conditions":[5.22935E-1,3.17708E-1,2.30851E-1,2.66192E-1,3.1879E-1,1.13E0,1.85185E-1,7.99065E-1,3.09278E-1,3.05655E-1,4.36016E-1,7.15431E1,5.40657E-1,4.266667E0,5.77625E-1,-4.363593E-2,-2.2097258E-2,-3.0806566E-2,-3.079101E-3,3.0936971E-2,8.482612E-1,1.1214233E-3,8.1280366E-2,-4.4806447E-2,1.2706886E-1,4.1260716E-1,1.9598573E-1,3.0407315E-1,6.099142E-1,9.9094707E-1,5.170584E-1],"split_indices":[3,3,2,3,3,7,5,5,5,11,3,8,3,7,9,0,0,0,0,0,0,0,0,0,0,0,0,0,0,0,0],"split_type":[0,0,0,0,0,0,0,0,0,0,0,0,0,0,0,0,0,0,0,0,0,0,0,0,0,0,0,0,0,0,0],"sum_hessian":[2.8048E4,2.6612E4,1.436E3,1.8315E4,8.297E3,1.032E3,4.04E2,1.4045E4,4.27E3,1.93E2,8.104E3,2.98E2,7.34E2,3.03E2,1.01E2,1.2756E4,1.289E3,2.276E3,1.994E3,7.9E1,1.14E2,6.119E3,1.985E3,1.34E2,1.64E2,2.22E2,5.12E2,2.02E2,1.01E2,5E1,5.1E1],"tree_param":{"num_deleted":"0","num_feature":"21","num_nodes":"31","size_leaf_vector":"1"}},{"base_weights":[-1.4247335E-3,-9.7336926E-2,5.395355E0,-4.9708715E-1,3.3301055E-1,1.4019881E0,6.5236535E0,-6.2179774E-1,1.4660382E-1,8.663607E0,3.0143481E-1,1.9202185E1,8.898145E-1,3.4715326E0,8.127704E0,-3.718595E-2,-2.2329628E-2,4.9885225E-2,-8.566073E-3,3.5351467E-1,1.0794683E0,2.137631E-3,4.7732823E-2,1.1628107E0,2.7735314E-1,2.3739982E-2,7.5593644E-1,7.7655435E-2,3.72536E-1,1.4131469E0,3.841803E-1],"categories":[],"categories_nodes":[],"categories_segments":[],"categories_sizes":[],"default_left":[0,0,0,0,0,0,0,0,0,0,0,0,0,0,0,0,0,0,0,0,0,0,0,0,0,0,0,0,0,0,0],"id":3,"left_children":[1,3,5,7,9,11,13,15,17,19,21,23,25,27,29,-1,-1,-1,-1,-1,-1,-1,-1,-1,-1,-1,-1,-1,-1,-1,-1],"loss_changes":[1.44953545E4,4.7336123E3,2.1941465E3,1.1452148E3,3.4829934E3,9.766439E2,1.8370684E3,2.5493457E2,6.2684906E2,8.7709595E2,2.230791E3,3.7071045E1,6.2467914E2,1.00371924E3,2.0093984E3,0E0,0E0,0E0,0E0,0E0,0E0,0E0,0E0,0E0,0E0,0E0,0E0,0E0,0E0,0E0,0E0],"parents":[2147483647,0,0,1,1,2,2,3,3,4,4,5,5,6,6,7,7,8,8,9,9,10,10,11,11,12,12,13,13,14,14],"right_children":[2,4,6,8,10,12,14,16,18,20,22,24,26,28,30,-1,-1,-1,-1,-1,-1,-1,-1,-1,-1,-1,-1,-1,-1,-1,-1],"split_conditions":[3.165E-3,8.43333E-1,1.13E0,1.24E2,2E0,4E0,1E1,2.1E1,2E0,9.28571E-1,3.44828E-1,2E0,9.8E1,5.384615E0,3.817E-3,-3.718595E-2,-2.2329628E-2,4.9885225E-2,-8.566073E-3,3.5351467E-1,1.0794683E0,2.137631E-3,4.7732823E-2,1.1628107E0,2.7735314E-1,2.3739982E-2,7.5593644E-1,7.7655435E-2,3.72536E-1,1.4131469E0,3.841803E-1],"split_indices":[4,7,7,1,1,0,19,0,20,6,5,1,12,17,4,0,0,0,0,0,0,0,0,0,0,0,0,0,0,0,0],"split_type":[0,0,0,0,0,0,0,0,0,0,0,0,0,0,0,0,0,0,0,0,0,0,0,0,0,0,0,0,0,0,0],"sum_hessian":[2.8002E4,2.7514E4,4.88E2,1.4264E4,1.325E4,1.08E2,3.8E2,1.1949E4,2.315E3,4.9E1,1.3201E4,2E0,1.06E2,1.32E2,2.48E2,7.044E3,4.905E3,6.29E2,1.686E3,4.5E1,4E0,9.457E3,3.744E3,1E0,1E0,1.04E2,2E0,9E1,4.2E1,4E0,2.44E2],"tree_param":{"num_deleted":"0","num_feature":"21","num_nodes":"31","size_leaf_vector":"1"}},{"base_weights":[4.7384584E-3,-2.8480086E-1,5.4644723E0,-6.9663066E-1,5.2546036E-1,1.693493E0,6.962954E0,-7.324166E-1,2.4006125E-1,2.2061372E-1,2.0174382E0,5.8268547E-2,3.446423E0,1.0414729E1,5.3275514E0,-3.919517E-2,-2.0669522E-2,1.6810493E-1,3.0996993E-3,2.9230649E-2,-1.2638867E-2,6.198427E-1,7.044404E-2,-6.5709758E-3,3.9119127E-1,7.267692E-1,1.4456657E-1,6.7118204E-1,3.2667083E-1,2.0862745E-1,4.1281375E-1],"categories":[],"categories_nodes":[],"categories_segments":[],"categories_sizes":[],"default_left":[0,0,0,0,0,0,0,0,0,0,0,0,0,0,0,0,0,0,0,0,0,0,0,0,0,0,0,0,0,0,0],"id":4,"left_children":[1,3,5,7,9,11,13,15,17,19,21,23,25,27,29,-1,-1,-1,-1,-1,-1,-1,-1,-1,-1,-1,-1,-1,-1,-1,-1],"loss_changes":[4.422781E4,8.866168E3,7.9501055E3,5.906719E2,4.0720527E3,1.1521058E3,5.6347188E3,2.7838574E2,3.6059186E2,1.2814746E3,9.577252E3,3.088922E2,1.1521191E3,3.684457E3,2.2860703E3,0E0,0E0,0E0,0E0,0E0,0E0,0E0,0E0,0E0,0E0,0E0,0E0,0E0,0E0,0E0,0E0],"parents":[2147483647,0,0,1,1,2,2,3,3,4,4,5,5,6,6,7,7,8,8,9,9,10,10,11,11,12,12,13,13,14,14],"right_children":[2,4,6,8,10,12,14,16,18,20,22,24,26,28,30,-1,-1,-1,-1,-1,-1,-1,-1,-1,-1,-1,-1,-1,-1,-1,-1],"split_conditions":[5.22935E-1,3.08003E-1,1.67324E-1,1.86005E-1,1.87185E-1,6.1E1,5.40657E-1,3.9E1,1.99996E-1,4E0,3.1879E-1,8.3E1,1.1494E-2,4E0,6.45508E-1,-3.919517E-2,-2.0669522E-2,1.6810493E-1,3.0996993E-3,2.9230649E-2,-1.2638867E-2,6.198427E-1,7.044404E-2,-6.5709758E-3,3.9119127E-1,7.267692E-1,1.4456657E-1,6.7118204E-1,3.2667083E-1,2.0862745E-1,4.1281375E-1],"split_indices":[3,3,2,2,2,16,3,16,3,20,3,15,6,20,3,0,0,0,0,0,0,0,0,0,0,0,0,0,0,0,0],"split_type":[0,0,0,0,0,0,0,0,0,0,0,0,0,0,0,0,0,0,0,0,0,0,0,0,0,0,0,0,0,0,0],"sum_hessian":[2.7976E4,2.6568E4,1.408E3,1.7615E4,8.953E3,4.01E2,1.007E3,1.6967E4,6.48E2,7.435E3,1.518E3,2.08E2,1.93E2,3.22E2,6.85E2,1.4608E4,2.359E3,3.4E1,6.14E2,4.203E3,3.232E3,8.3E1,1.435E3,2.04E2,4E0,8E0,1.85E2,1.8E2,1.42E2,4.93E2,1.92E2],"tree_param":{"num_deleted":"0","num_feature":"21","num_nodes":"31","size_leaf_vector":"1"}},{"base_weights":[1.155603E-2,-2.2177981E-1,4.8189464E0,-3.456573E-1,1.340471E0,3.7841887E0,8.247545E0,-5.736388E-1,4.1313714E-1,4.383235E-1,3.903615E0,5.016294E0,2.113283E0,2.007569E0,9.114483E0,-3.721547E-2,-1.6937213E-2,-3.8566687E-3,1.3296066E-1,-1.8261386E-2,5.3774636E-2,1.7710721E-1,8.267223E-1,9.0506636E-2,2.9687563E-1,1.500517E-1,3.634017E-2,2.8212166E-1,-3.0415893E-2,5.746373E-1,3.126069E-1],"categories":[],"categories_nodes":[],"categories_segments":[],"categories_sizes":[],"default_left":[0,0,0,0,0,0,0,0,0,0,0,0,0,0,0,0,0,0,0,0,0,0,0,0,0,0,0,0,0,0,0],"id":5,"left_children":[1,3,5,7,9,11,13,15,17,19,21,23,25,27,29,-1,-1,-1,-1,-1,-1,-1,-1,-1,-1,-1,-1,-1,-1,-1,-1],"loss_changes":[3.1551027E4,5.1918438E3,4.5879824E3,4.2999307E3,4.555899E3,2.052248E3,1.6100117E3,7.6598047E2,6.324309E3,7.47398E2,2.283623E3,1.6905107E3,5.2339124E2,3.6475137E2,1.7253027E3,0E0,0E0,0E0,0E0,0E0,0E0,0E0,0E0,0E0,0E0,0E0,0E0,0E0,0E0,0E0,0E0],"parents":[2147483647,0,0,1,1,2,2,3,3,4,4,5,5,6,6,7,7,8,8,9,9,10,10,11,11,12,12,13,13,14,14],"right_children":[2,4,6,8,10,12,14,16,18,20,22,24,26,28,30,-1,-1,-1,-1,-1,-1,-1,-1,-1,-1,-1,-1,-1,-1,-1,-1],"split_conditions":[2.13983E-1,1.83921E-1,1.70213E-1,4.6E1,1.79104E-1,4E0,5E-1,9E0,1.35402E-1,1.7857E-2,1.19908875E2,4.1935E-2,6.70312E-1,7.5246E-2,5.99245E-1,-3.721547E-2,-1.6937213E-2,-3.8566687E-3,1.3296066E-1,-1.8261386E-2,5.3774636E-2,1.7710721E-1,8.267223E-1,9.0506636E-2,2.9687563E-1,1.500517E-1,3.634017E-2,2.8212166E-1,-3.0415893E-2,5.746373E-1,3.126069E-1],"split_indices":[2,2,5,16,5,20,7,16,2,5,8,6,10,8,9,0,0,0,0,0,0,0,0,0,0,0,0,0,0,0,0],"split_type":[0,0,0,0,0,0,0,0,0,0,0,0,0,0,0,0,0,0,0,0,0,0,0,0,0,0,0,0,0,0,0],"sum_hessian":[2.8125E4,2.6824E4,1.301E3,2.4854E4,1.97E3,1.001E3,3E2,1.9112E4,5.742E3,1.458E3,5.12E2,5.75E2,4.26E2,3.7E1,2.63E2,1.1068E4,8.044E3,4.714E3,1.028E3,6.45E2,8.13E2,4.99E2,1.3E1,1.29E2,4.46E2,2.59E2,1.67E2,1.5E1,2.2E1,1.42E2,1.21E2],"tree_param":{"num_deleted":"0","num_feature":"21","num_nodes":"31","size_leaf_vector":"1"}},{"base_weights":[1.41671365E-2,-2.618297E-1,5.1132517E0,-6.335343E-1,5.642426E-1,8.175635E0,3.7497823E0,-7.1832895E-1,-3.582581E-1,1.049196E1,3.3772677E-1,2.728341E0,1.05521345E1,8.520205E-1,4.4577017E0,-4.2595956E-2,-3.2623976E-2,-2.9957533E-2,-5.406724E-4,9.2641324E-1,9.909534E-2,4.698475E-4,6.843117E-2,1.0702818E-2,2.9817265E-1,7.984988E-1,3.9996803E-1,3.137336E-2,1.1159981E0,6.170172E-1,2.01244E-1],"categories":[],"categories_nodes":[],"categories_segments":[],"categories_sizes":[],"default_left":[0,0,0,0,0,0,0,0,0,0,0,0,0,0,0,0,0,0,0,0,0,0,0,0,0,0,0,0,0,0,0],"id":6,"left_children":[1,3,5,7,9,11,13,15,17,19,21,23,25,27,29,-1,-1,-1,-1,-1,-1,-1,-1,-1,-1,-1,-1,-1,-1,-1,-1],"loss_changes":[3.9220848E4,8.118274E3,5.9444336E3,4.2535986E2,1.8447736E4,5.6672266E3,2.0311729E3,1.2206299E2,3.5955505E2,1.2478537E4,2.7155647E3,1.0968124E3,4.1043906E3,9.308519E2,2.6695195E3,0E0,0E0,0E0,0E0,0E0,0E0,0E0,0E0,0E0,0E0,0E0,0E0,0E0,0E0,0E0,0E0],"parents":[2147483647,0,0,1,1,2,2,3,3,4,4,5,5,6,6,7,7,8,8,9,9,10,10,11,11,12,12,13,13,14,14],"right_children":[2,4,6,8,10,12,14,16,18,20,22,24,26,28,30,-1,-1,-1,-1,-1,-1,-1,-1,-1,-1,-1,-1,-1,-1,-1,-1],"split_conditions":[5.22935E-1,3.17708E-1,5.40657E-1,2.66192E-1,3.1879E-1,5.31028E-1,8.56667E-1,1.71708E-1,3.58974E-1,5.5E1,4.36016E-1,2.6E1,9E0,3.33333E-1,1.41973E-1,-4.2595956E-2,-3.2623976E-2,-2.9957533E-2,-5.406724E-4,9.2641324E-1,9.909534E-2,4.698475E-4,6.843117E-2,1.0702818E-2,2.9817265E-1,7.984988E-1,3.9996803E-1,3.137336E-2,1.1159981E0,6.170172E-1,2.01244E-1],"split_indices":[3,3,3,3,3,3,7,3,5,0,3,15,12,4,11,0,0,0,0,0,0,0,0,0,0,0,0,0,0,0,0],"split_type":[0,0,0,0,0,0,0,0,0,0,0,0,0,0,0,0,0,0,0,0,0,0,0,0,0,0,0,0,0,0,0],"sum_hessian":[2.7867E4,2.6437E4,1.43E3,1.8233E4,8.204E3,4.39E2,9.91E2,1.3938E4,4.295E3,1.82E2,8.022E3,1.34E2,3.05E2,1.95E2,7.96E2,4.598E3,9.34E3,2.536E3,1.759E3,9.3E1,8.9E1,6.085E3,1.937E3,7.6E1,5.8E1,9.6E1,2.09E2,1.94E2,1E0,4E1,7.56E2],"tree_param":{"num_deleted":"0","num_feature":"21","num_nodes":"31","size_leaf_vector":"1"}},{"base_weights":[-8.492908E-3,-2.4590924E-1,4.9496417E0,-5.8192533E-1,4.904455E-1,9.922927E0,3.4972458E0,-6.702437E-1,-2.8110972E-1,8.53987E0,3.057478E-1,-1.1735492E0,1.1658671E1,2.3254488E0,7.104334E0,-3.4631304E-2,-8.860881E-3,5.1903326E-2,-1.6733767E-2,8.884665E-1,6.1623283E-2,-1.4020486E-3,6.4172275E-2,-8.5311525E-2,7.907048E-2,7.3408043E-1,3.5642552E-1,5.2020725E-2,2.031211E-1,2.595548E-1,6.3030136E-1],"categories":[],"categories_nodes":[],"categories_segments":[],"categories_sizes":[],"default_left":[0,0,0,0,0,0,0,0,0,0,0,0,0,0,0,0,0,0,0,0,0,0,0,0,0,0,0,0,0,0,0],"id":7,"left_children":[1,3,5,7,9,11,13,15,17,19,21,23,25,27,29,-1,-1,-1,-1,-1,-1,-1,-1,-1,-1,-1,-1,-1,-1,-1,-1],"loss_changes":[3.2998863E4,6.619454E3,9.2181875E3,4.8785742E2,1.24604795E4,5.58001E3,4.180668E3,1.5657568E2,2.9508078E2,1.2657456E4,2.6747556E3,6.139885E1,3.3189375E3,1.6720574E3,2.4923896E3,0E0,0E0,0E0,0E0,0E0,0E0,0E0,0E0,0E0,0E0,0E0,0E0,0E0,0E0,0E0,0E0],"parents":[2147483647,0,0,1,1,2,2,3,3,4,4,5,5,6,6,7,7,8,8,9,9,10,10,11,11,12,12,13,13,14,14],"right_children":[2,4,6,8,10,12,14,16,18,20,22,24,26,28,30,-1,-1,-1,-1,-1,-1,-1,-1,-1,-1,-1,-1,-1,-1,-1,-1],"split_conditions":[5.31028E-1,3.17708E-1,5.40657E-1,2.66696E-1,3.1879E-1,1.59635E-1,2.30851E-1,1.79538E-1,1E0,4.4E1,4.36016E-1,1.48491E-1,4E0,3.75E-1,1.85185E-1,-3.4631304E-2,-8.860881E-3,5.1903326E-2,-1.6733767E-2,8.884665E-1,6.1623283E-2,-1.4020486E-3,6.4172275E-2,-8.5311525E-2,7.907048E-2,7.3408043E-1,3.5642552E-1,5.2020725E-2,2.031211E-1,2.595548E-1,6.3030136E-1],"split_indices":[3,3,3,3,3,2,2,2,19,1,3,2,20,5,5,0,0,0,0,0,0,0,0,0,0,0,0,0,0,0,0],"split_type":[0,0,0,0,0,0,0,0,0,0,0,0,0,0,0,0,0,0,0,0,0,0,0,0,0,0,0,0,0,0,0],"sum_hessian":[2.8031E4,2.6751E4,1.28E3,1.8369E4,8.382E3,2.88E2,9.92E2,1.4199E4,4.17E3,1.87E2,8.195E3,3.9E1,2.49E2,7.5E2,2.42E2,1.3582E4,6.17E2,1.62E2,4.008E3,8.2E1,1.05E2,6.11E3,2.085E3,3.3E1,6E0,1.48E2,1.01E2,4.32E2,3.18E2,1.81E2,6.1E1],"tree_param":{"num_deleted":"0","num_feature":"21","num_nodes":"31","size_leaf_vector":"1"}},{"base_weights":[4.5275157E-3,-2.6663747E-1,3.0644085E0,-5.616587E-1,2.1474177E-1,4.138774E0,1.5855045E0,-6.518978E-1,-2.3325078E-1,-1.8696114E-1,1.2753011E0,3.3412564E0,6.672627E0,6.8373054E-1,3.1025045E0,-3.5838585E-2,-2.219256E-2,-1.9493913E-2,6.918839E-2,-3.3274E-2,1.0648373E-2,3.594523E-3,2.2589777E-1,1.3030729E-1,3.9538476E-1,2.879573E-1,6.083975E-1,2.1628069E-2,2.1556862E-1,2.605358E-1,9.240516E-2],"categories":[],"categories_nodes":[],"categories_segments":[],"categories_sizes":[],"default_left":[0,0,0,0,0,0,0,0,0,0,0,0,0,0,0,0,0,0,0,0,0,0,0,0,0,0,0,0,0,0,0],"id":8,"left_children":[1,3,5,7,9,11,13,15,17,19,21,23,25,27,29,-1,-1,-1,-1,-1,-1,-1,-1,-1,-1,-1,-1,-1,-1,-1,-1],"loss_changes":[2.3239139E4,3.6539363E3,3.6160918E3,4.7258887E2,4.1655312E3,2.6451504E3,1.3125183E3,1.6856738E2,8.7178674E2,1.3573615E3,1.0481104E4,3.356371E3,1.5111836E3,5.4847076E2,9.371167E2,0E0,0E0,0E0,0E0,0E0,0E0,0E0,0E0,0E0,0E0,0E0,0E0,0E0,0E0,0E0,0E0],"parents":[2147483647,0,0,1,1,2,2,3,3,4,4,5,5,6,6,7,7,8,8,9,9,10,10,11,11,12,12,13,13,14,14],"right_children":[2,4,6,8,10,12,14,16,18,20,22,24,26,28,30,-1,-1,-1,-1,-1,-1,-1,-1,-1,-1,-1,-1,-1,-1,-1,-1],"split_conditions":[1.94804E-1,5.5E1,4E0,1.64356E-1,1.37755E-1,2.52339E-1,1.11111E-1,3.55556E-1,2.12766E-1,5.17857E-1,3.82812E-1,7.8E1,1.76471E-1,3.39148E-1,1.2E1,-3.5838585E-2,-2.219256E-2,-1.9493913E-2,6.918839E-2,-3.3274E-2,1.0648373E-2,3.594523E-3,2.2589777E-1,1.3030729E-1,3.9538476E-1,2.879573E-1,6.083975E-1,2.1628069E-2,2.1556862E-1,2.605358E-1,9.240516E-2],"split_indices":[2,1,20,2,2,2,5,5,5,5,5,0,5,2,12,0,0,0,0,0,0,0,0,0,0,0,0,0,0,0,0],"split_type":[0,0,0,0,0,0,0,0,0,0,0,0,0,0,0,0,0,0,0,0,0,0,0,0,0,0,0,0,0,0,0],"sum_hessian":[2.8006E4,2.5727E4,2.279E3,1.5951E4,9.776E3,1.319E3,9.6E2,1.2512E4,3.439E3,7.091E3,2.685E3,1.005E3,3.14E2,6.03E2,3.57E2,9.536E3,2.976E3,3.136E3,3.03E2,3.228E3,3.863E3,1.959E3,7.26E2,8.67E2,1.38E2,2.71E2,4.3E1,5.65E2,3.8E1,1.32E2,2.25E2],"tree_param":{"num_deleted":"0","num_feature":"21","num_nodes":"31","size_leaf_vector":"1"}},{"base_weights":[-7.0688124E-3,-2.326808E-1,4.1797647E0,-5.3380454E-1,4.3472824E-1,4.7627178E-1,4.993938E0,-6.08631E-1,-2.8720134E-1,9.444112E0,2.3506066E-1,3.1154254E-1,1.0744104E0,1.2339628E1,4.6007633E0,-3.1856667E-2,-1.2420084E-2,7.05456E-3,-2.2200633E-2,1.7742272E-1,9.742214E-1,1.7101727E-5,6.7023866E-2,1.0226228E-1,-2.6120765E-2,4.682692E-1,1.2233375E0,2.975403E-1,1.4109637E-1],"categories":[],"categories_nodes":[],"categories_segments":[],"categories_sizes":[],"default_left":[0,0,0,0,0,0,0,0,0,0,0,0,0,0,0,0,0,0,0,0,0,0,0,0,0,0,0,0,0],"id":9,"left_children":[1,3,5,7,9,11,13,15,17,19,21,23,-1,25,27,-1,-1,-1,-1,-1,-1,-1,-1,-1,-1,-1,-1,-1,-1],"loss_changes":[2.6436547E4,5.337262E3,4.312494E3,3.3750488E2,1.4851147E4,8.897771E2,3.3310117E3,1.4398584E2,2.8630328E2,1.0526635E4,2.0961921E3,3.7409396E2,0E0,1.8989307E3,2.6608867E3,0E0,0E0,0E0,0E0,0E0,0E0,0E0,0E0,0E0,0E0,0E0,0E0,0E0,0E0],"parents":[2147483647,0,0,1,1,2,2,3,3,4,4,5,5,6,6,7,7,8,8,9,9,10,10,11,11,13,13,14,14],"right_children":[2,4,6,8,10,12,14,16,18,20,22,24,-1,26,28,-1,-1,-1,-1,-1,-1,-1,-1,-1,-1,-1,-1,-1,-1],"split_conditions":[5.22935E-1,3.17708E-1,8.56667E-1,2.66192E-1,3.1879E-1,3.33333E-1,2.92392E-1,8.83777E-1,2E0,4.73369E-1,4.5459E-1,2E0,1.0744104E0,1E0,4E0,-3.1856667E-2,-1.2420084E-2,7.05456E-3,-2.2200633E-2,1.7742272E-1,9.742214E-1,1.7101727E-5,6.7023866E-2,1.0226228E-1,-2.6120765E-2,4.682692E-1,1.2233375E0,2.975403E-1,1.4109637E-1],"split_indices":[3,3,7,3,3,4,9,5,20,11,3,20,0,13,20,0,0,0,0,0,0,0,0,0,0,0,0,0,0],"split_type":[0,0,0,0,0,0,0,0,0,0,0,0,0,0,0,0,0,0,0,0,0,0,0,0,0,0,0,0,0],"sum_hessian":[2.7985E4,2.6555E4,1.43E3,1.8299E4,8.256E3,2.58E2,1.172E3,1.4038E4,4.261E3,1.78E2,8.078E3,2.57E2,1E0,5.8E1,1.114E3,1.3008E4,1.03E3,1.142E3,3.119E3,1.13E2,6.5E1,6.664E3,1.414E3,8.3E1,1.74E2,4.8E1,1E1,6.32E2,4.82E2],"tree_param":{"num_deleted":"0","num_feature":"21","num_nodes":"29","size_leaf_vector":"1"}},{"base_weights":[-5.4792864E-3,-2.0555545E-1,4.055262E0,-5.096825E-1,4.596219E-1,7.7613215E0,2.880273E0,-5.6178945E-1,-1.2547638E-1,9.859786E0,2.3951024E-1,1.8650307E1,6.507065E0,2.204152E0,4.9133797E0,-2.3505766E-2,-3.262658E-2,9.401953E-2,-1.0583484E-2,1.1775073E-1,8.78951E-1,-1.2136691E-3,5.9515305E-2,1.1716408E0,3.6949047E-1,1.3361993E-2,4.002273E-1,1.9338258E-1,1.7116083E-2,2.2096096E-1,6.428632E-1],"categories":[],"categories_nodes":[],"categories_segments":[],"categories_sizes":[],"default_left":[0,0,0,0,0,0,0,0,0,0,0,0,0,0,0,0,0,0,0,0,0,0,0,0,0,0,0,0,0,0,0],"id":10,"left_children":[1,3,5,7,9,11,13,15,17,19,21,23,25,27,29,-1,-1,-1,-1,-1,-1,-1,-1,-1,-1,-1,-1,-1,-1,-1,-1],"loss_changes":[2.2683023E4,5.3829907E3,5.686498E3,3.654912E2,1.7272436E4,4.1807812E3,1.3596719E3,1.334497E2,3.7764902E2,1.10234375E4,2.0463416E3,1.5501455E3,2.6515615E3,2.321541E3,9.1671826E2,0E0,0E0,0E0,0E0,0E0,0E0,0E0,0E0,0E0,0E0,0E0,0E0,0E0,0E0,0E0,0E0],"parents":[2147483647,0,0,1,1,2,2,3,3,4,4,5,5,6,6,7,7,8,8,9,9,10,10,11,11,12,12,13,13,14,14],"right_children":[2,4,6,8,10,12,14,16,18,20,22,24,26,28,30,-1,-1,-1,-1,-1,-1,-1,-1,-1,-1,-1,-1,-1,-1,-1,-1],"split_conditions":[5.30195E-1,3.17708E-1,5.40657E-1,2.90278E-1,3.1879E-1,3.3349E-1,2.30851E-1,8.3333E-2,1E0,5.8824E-2,4.48597E-1,3.029412E0,1.62182E-1,4.8951E-2,2.3E1,-2.3505766E-2,-3.262658E-2,9.401953E-2,-1.0583484E-2,1.1775073E-1,8.78951E-1,-1.2136691E-3,5.9515305E-2,1.1716408E0,3.6949047E-1,1.3361993E-2,4.002273E-1,1.9338258E-1,1.7116083E-2,2.2096096E-1,6.428632E-1],"split_indices":[3,3,3,3,3,10,2,6,19,6,3,17,2,6,19,0,0,0,0,0,0,0,0,0,0,0,0,0,0,0,0],"split_type":[0,0,0,0,0,0,0,0,0,0,0,0,0,0,0,0,0,0,0,0,0,0,0,0,0,0,0,0,0,0,0],"sum_hessian":[2.7917E4,2.6607E4,1.31E3,1.8259E4,8.348E3,3.14E2,9.96E2,1.6078E4,2.181E3,1.9E2,8.158E3,3.1E1,2.83E2,7.49E2,2.47E2,8.001E3,8.077E3,8.9E1,2.092E3,9.7E1,9.3E1,6.387E3,1.771E3,2.1E1,1E1,5.5E1,2.28E2,3.95E2,3.54E2,2.34E2,1.3E1],"tree_param":{"num_deleted":"0","num_feature":"21","num_nodes":"31","size_leaf_vector":"1"}},{"base_weights":[-8.762759E-3,-2.1073405E-1,3.7115743E0,-5.046093E-1,3.3053282E-1,2.391306E0,7.080024E0,-5.2823573E-1,1.2350368E-1,1.4046533E-1,1.2943192E0,3.6579356E-1,3.4961345E0,5.3154254E0,1.2235208E1,-3.0520925E-2,-1.8534722E-2,6.7265205E-2,-1.6444419E-2,-1.3450344E-2,2.8976535E-2,6.0658064E-2,1.2902423E0,-4.0770426E-2,1.1803626E-1,1.6050234E-1,7.4678516E-1,1.4984533E-1,4.7871122E-1,8.2171863E-1,3.7696946E-1],"categories":[],"categories_nodes":[],"categories_segments":[],"categories_sizes":[],"default_left":[0,0,0,0,0,0,0,0,0,0,0,0,0,0,0,0,0,0,0,0,0,0,0,0,0,0,0,0,0,0,0],"id":11,"left_children":[1,3,5,7,9,11,13,15,17,19,21,23,25,27,29,-1,-1,-1,-1,-1,-1,-1,-1,-1,-1,-1,-1,-1,-1,-1,-1],"loss_changes":[2.0910777E4,4.198844E3,6.35599E3,2.539497E2,1.7014183E3,2.3059385E3,3.6009863E3,2.1324658E2,3.4368954E2,1.3952882E3,3.0122056E3,8.620173E2,2.134961E3,2.953288E3,1.8873848E3,0E0,0E0,0E0,0E0,0E0,0E0,0E0,0E0,0E0,0E0,0E0,0E0,0E0,0E0,0E0,0E0],"parents":[2147483647,0,0,1,1,2,2,3,3,4,4,5,5,6,6,7,7,8,8,9,9,10,10,11,11,12,12,13,13,14,14],"right_children":[2,4,6,8,10,12,14,16,18,20,22,24,26,28,30,-1,-1,-1,-1,-1,-1,-1,-1,-1,-1,-1,-1,-1,-1,-1,-1],"split_conditions":[5.22935E-1,3.02964E-1,2.30851E-1,1.86005E-1,1.87185E-1,1.61377E-1,1.85185E-1,3.09278E-1,1.375E0,3.91304E-1,1.9E2,5.57895E-1,2.28E2,4.266667E0,5.99245E-1,-3.0520925E-2,-1.8534722E-2,6.7265205E-2,-1.6444419E-2,-1.3450344E-2,2.8976535E-2,6.0658064E-2,1.2902423E0,-4.0770426E-2,1.1803626E-1,1.6050234E-1,7.4678516E-1,1.4984533E-1,4.7871122E-1,8.2171863E-1,3.7696946E-1],"split_indices":[3,3,2,2,2,2,5,5,17,5,0,5,1,7,9,0,0,0,0,0,0,0,0,0,0,0,0,0,0,0,0],"split_type":[0,0,0,0,0,0,0,0,0,0,0,0,0,0,0,0,0,0,0,0,0,0,0,0,0,0,0,0,0,0,0],"sum_hessian":[2.7827E4,2.6395E4,1.432E3,1.7107E4,9.288E3,1.03E3,4.02E2,1.6487E4,6.2E2,7.759E3,1.529E3,3.64E2,6.66E2,3.01E2,1.01E2,1.0833E4,5.654E3,1.67E2,4.53E2,4.015E3,3.744E3,1.525E3,4E0,2.29E2,1.35E2,6.51E2,1.5E1,1.96E2,1.05E2,5.2E1,4.9E1],"tree_param":{"num_deleted":"0","num_feature":"21","num_nodes":"31","size_leaf_vector":"1"}},{"base_weights":[5.783567E-4,-1.9489084E-1,3.6653154E0,-4.838246E-1,3.7336513E-1,1.901858E0,5.870817E0,-5.138887E-1,-4.5851532E-2,1.9184754E0,2.0818697E-1,-4.0454757E-1,2.9271982E0,7.8588004E0,3.24236E0,-2.9573157E-2,-1.8675758E-2,-8.780744E-3,5.699035E-2,2.9300705E-3,4.2455107E-1,-2.6784115E-3,5.0775617E-2,-5.31616E-2,1.2268865E-1,8.255928E-1,1.1361195E-1,3.230075E-1,6.3191795E-1,2.9058686E-1,7.229932E-2],"categories":[],"categories_nodes":[],"categories_segments":[],"categories_sizes":[],"default_left":[0,0,0,0,0,0,0,0,0,0,0,0,0,0,0,0,0,0,0,0,0,0,0,0,0,0,0,0,0,0,0],"id":12,"left_children":[1,3,5,7,9,11,13,15,17,19,21,23,25,27,29,-1,-1,-1,-1,-1,-1,-1,-1,-1,-1,-1,-1,-1,-1,-1,-1],"loss_changes":[2.0074082E4,4.368247E3,5.5077637E3,2.3220752E2,2.2884E3,1.869416E3,3.2664766E3,1.7949805E2,1.7467174E2,1.0585579E4,1.7123936E3,4.619953E2,4.8293574E3,2.3115605E3,1.2516445E3,0E0,0E0,0E0,0E0,0E0,0E0,0E0,0E0,0E0,0E0,0E0,0E0,0E0,0E0,0E0,0E0],"parents":[2147483647,0,0,1,1,2,2,3,3,4,4,5,5,6,6,7,7,8,8,9,9,10,10,11,11,12,12,13,13,14,14],"right_children":[2,4,6,8,10,12,14,16,18,20,22,24,26,28,30,-1,-1,-1,-1,-1,-1,-1,-1,-1,-1,-1,-1,-1,-1,-1,-1],"split_conditions":[5.22935E-1,3.08003E-1,2.05773E-1,1.77978E-1,3.1879E-1,1.47605E-1,4E0,3.09278E-1,6.1E1,3.17708E-1,4.36016E-1,7.8E1,1.41973E-1,6.27E0,1.3E1,-2.9573157E-2,-1.8675758E-2,-8.780744E-3,5.699035E-2,2.9300705E-3,4.2455107E-1,-2.6784115E-3,5.0775617E-2,-5.31616E-2,1.2268865E-1,8.255928E-1,1.1361195E-1,3.230075E-1,6.3191795E-1,2.9058686E-1,7.229932E-2],"split_indices":[3,3,2,2,3,2,20,5,18,3,3,15,11,7,12,0,0,0,0,0,0,0,0,0,0,0,0,0,0,0,0],"split_type":[0,0,0,0,0,0,0,0,0,0,0,0,0,0,0,0,0,0,0,0,0,0,0,0,0,0,0,0,0,0,0],"sum_hessian":[2.8021E4,2.6603E4,1.418E3,1.7636E4,8.967E3,7.89E2,6.29E2,1.6503E4,1.133E3,8.65E2,8.102E3,2.43E2,5.46E2,3.57E2,2.72E2,1.0627E4,5.876E3,1.022E3,1.11E2,6.75E2,1.9E2,6.119E3,1.983E3,1.98E2,4.5E1,2.4E1,5.22E2,2.78E2,7.9E1,1.11E2,1.61E2],"tree_param":{"num_deleted":"0","num_feature":"21","num_nodes":"31","size_leaf_vector":"1"}},{"base_weights":[2.595396E-2,-1.7128831E-1,3.6532528E0,-4.4017485E-1,4.224801E-1,-1.9140898E-1,4.428107E0,-4.8928562E-1,-7.718884E-2,8.596893E0,2.2613668E-1,-3.624817E-1,1.0302048E0,6.891071E0,3.2261624E0,-2.0498544E-2,-2.8970351E-2,-9.095327E-3,5.2264094E-2,8.1977576E-1,7.010506E-2,8.5415704E-5,6.29113E-2,9.051415E-2,-6.2863566E-2,1.5090091E0,3.3172694E-1,1.5634637E-1,1.4422549E0],"categories":[],"categories_nodes":[],"categories_segments":[],"categories_sizes":[],"default_left":[0,0,0,0,0,0,0,0,0,0,0,0,0,0,0,0,0,0,0,0,0,0,0,0,0,0,0,0,0],"id":13,"left_children":[1,3,5,7,9,11,13,15,17,19,21,23,-1,25,27,-1,-1,-1,-1,-1,-1,-1,-1,-1,-1,-1,-1,-1,-1],"loss_changes":[2.0018387E4,4.236986E3,4.299619E3,3.255818E2,1.3274553E4,8.719517E2,3.5331445E3,1.1476587E2,2.5619785E2,1.0862248E4,1.8713374E3,4.7276453E2,0E0,2.147709E3,1.9665293E3,0E0,0E0,0E0,0E0,0E0,0E0,0E0,0E0,0E0,0E0,0E0,0E0,0E0,0E0],"parents":[2147483647,0,0,1,1,2,2,3,3,4,4,5,5,6,6,7,7,8,8,9,9,10,10,11,11,13,13,14,14],"right_children":[2,4,6,8,10,12,14,16,18,20,22,24,-1,26,28,-1,-1,-1,-1,-1,-1,-1,-1,-1,-1,-1,-1,-1,-1],"split_conditions":[5.22935E-1,3.17708E-1,8.56667E-1,2.90278E-1,3.1879E-1,3.33333E-1,5.40657E-1,1.02041E-1,2.2E1,5.3E1,4.5459E-1,2E0,1.0302048E0,1.5757E-2,8.46154E-1,-2.0498544E-2,-2.8970351E-2,-9.095327E-3,5.2264094E-2,8.1977576E-1,7.010506E-2,8.5415704E-5,6.29113E-2,9.051415E-2,-6.2863566E-2,1.5090091E0,3.3172694E-1,1.5634637E-1,1.4422549E0],"split_indices":[3,3,7,3,3,4,3,6,19,0,3,20,0,10,5,0,0,0,0,0,0,0,0,0,0,0,0,0,0],"split_type":[0,0,0,0,0,0,0,0,0,0,0,0,0,0,0,0,0,0,0,0,0,0,0,0,0,0,0,0,0],"sum_hessian":[2.7978E4,2.6536E4,1.442E3,1.8265E4,8.271E3,2.42E2,1.2E3,1.6088E4,2.177E3,1.93E2,8.078E3,2.41E2,1E0,3.92E2,8.08E2,8.56E3,7.528E3,1.992E3,1.85E2,9.2E1,1.01E2,6.636E3,1.442E3,7E1,1.71E2,3E0,3.89E2,8.06E2,2E0],"tree_param":{"num_deleted":"0","num_feature":"21","num_nodes":"29","size_leaf_vector":"1"}},{"base_weights":[-1.3109106E-3,-1.7955923E-1,3.3450286E0,-4.2987025E-1,3.6917025E-1,1.8500214E-2,4.1715155E0,-4.754231E-1,-1.15111284E-1,7.6233478E0,1.9808206E-1,1.2851071E1,-1.648883E-1,6.528985E0,3.0590537E0,-2.5516707E-2,-1.2894359E-2,9.72208E-2,-9.779469E-3,7.271356E-1,1.2741621E-2,-4.0849365E-4,5.872945E-2,-3.7287116E-2,8.815962E-1,-2.7120396E-2,1.4995946E-1,4.310661E-1,1.8951279E-1,1.4792462E-1,1.3941798E0],"categories":[],"categories_nodes":[],"categories_segments":[],"categories_sizes":[],"default_left":[0,0,0,0,0,0,0,0,0,0,0,0,0,0,0,0,0,0,0,0,0,0,0,0,0,0,0,0,0,0,0],"id":14,"left_children":[1,3,5,7,9,11,13,15,17,19,21,23,25,27,29,-1,-1,-1,-1,-1,-1,-1,-1,-1,-1,-1,-1,-1,-1,-1,-1],"loss_changes":[1.671276E4,3.654024E3,3.8957266E3,2.618894E2,1.0341853E4,6.681159E2,2.9566738E3,1.2106738E2,3.8342123E2,9.785499E3,1.6400623E3,2.7316626E2,3.360872E2,2.0474375E3,1.8472129E3,0E0,0E0,0E0,0E0,0E0,0E0,0E0,0E0,0E0,0E0,0E0,0E0,0E0,0E0,0E0,0E0],"parents":[2147483647,0,0,1,1,2,2,3,3,4,4,5,5,6,6,7,7,8,8,9,9,10,10,11,11,12,12,13,13,14,14],"right_children":[2,4,6,8,10,12,14,16,18,20,22,24,26,28,30,-1,-1,-1,-1,-1,-1,-1,-1,-1,-1,-1,-1,-1,-1,-1,-1],"split_conditions":[5.22935E-1,3.17708E-1,1E0,2.88733E-1,3.1879E-1,2.963E-2,5.40657E-1,6.66667E-1,1E0,5.5E1,4.5459E-1,9.88E-4,2.67E2,4E0,8.67804E-1,-2.5516707E-2,-1.2894359E-2,9.72208E-2,-9.779469E-3,7.271356E-1,1.2741621E-2,-4.0849365E-4,5.872945E-2,-3.7287116E-2,8.815962E-1,-2.7120396E-2,1.4995946E-1,4.310661E-1,1.8951279E-1,1.4792462E-1,1.3941798E0],"split_indices":[3,3,7,3,3,8,3,5,19,0,3,8,0,20,5,0,0,0,0,0,0,0,0,0,0,0,0,0,0,0,0],"split_type":[0,0,0,0,0,0,0,0,0,0,0,0,0,0,0,0,0,0,0,0,0,0,0,0,0,0,0,0,0,0,0],"sum_hessian":[2.8017E4,2.6601E4,1.416E3,1.8268E4,8.333E3,2.82E2,1.134E3,1.5958E4,2.31E3,1.91E2,8.142E3,3E0,2.79E2,3.62E2,7.72E2,1.375E4,2.208E3,8.6E1,2.224E3,9.8E1,9.3E1,6.723E3,1.419E3,1E0,2E0,2.5E2,2.9E1,2.04E2,1.58E2,7.7E2,2E0],"tree_param":{"num_deleted":"0","num_feature":"21","num_nodes":"31","size_leaf_vector":"1"}},{"base_weights":[1.2897491E-2,-2.3683217E-1,2.1951394E0,-4.0815172E-1,1.3254276E-1,1.2442305E0,3.3128293E0,-5.6648463E-1,-3.521455E-1,1.10921666E-1,8.302093E0,3.9116404E0,8.8779914E-1,6.447276E0,2.3167467E0,-2.862673E-2,8.676749E-2,8.014731E-3,-1.9319389E-2,2.062103E-2,-1.429608E-2,6.4245147E-1,1.5002102E-1,7.330527E-1,1.6682307E-1,4.2802002E-2,1.1115301E0,4.0840888E-1,5.237369E-2,1.122204E-1,9.9201834E-1],"categories":[],"categories_nodes":[],"categories_segments":[],"categories_sizes":[],"default_left":[0,0,0,0,0,0,0,0,0,0,0,0,0,0,0,0,0,0,0,0,0,0,0,0,0,0,0,0,0,0,0],"id":15,"left_children":[1,3,5,7,9,11,13,15,17,19,21,23,25,27,29,-1,-1,-1,-1,-1,-1,-1,-1,-1,-1,-1,-1,-1,-1,-1,-1],"loss_changes":[1.5258061E4,1.589866E3,3.0514883E3,1.519956E2,1.4052671E3,1.4749409E3,4.1094463E3,6.3424072E1,2.2257678E2,9.5024133E2,4.6768115E2,1.0825432E3,9.116261E2,2.9464697E3,1.2281802E3,0E0,0E0,0E0,0E0,0E0,0E0,0E0,0E0,0E0,0E0,0E0,0E0,0E0,0E0,0E0,0E0],"parents":[2147483647,0,0,1,1,2,2,3,3,4,4,5,5,6,6,7,7,8,8,9,9,10,10,11,11,12,12,13,13,14,14],"right_children":[2,4,6,8,10,12,14,16,18,20,22,24,26,28,30,-1,-1,-1,-1,-1,-1,-1,-1,-1,-1,-1,-1,-1,-1,-1,-1],"split_conditions":[4.5459E-1,3.02964E-1,5.31028E-1,1.70071E-1,9.82833E-1,1.7699E-2,5.40657E-1,1.32E2,7.69111E-1,4E0,3.5E-1,3.83408E-1,9.54545E-1,9.7E1,9.82833E-1,-2.862673E-2,8.676749E-2,8.014731E-3,-1.9319389E-2,2.062103E-2,-1.429608E-2,6.4245147E-1,1.5002102E-1,7.330527E-1,1.6682307E-1,4.2802002E-2,1.1115301E0,4.0840888E-1,5.237369E-2,1.122204E-1,9.9201834E-1],"split_indices":[3,3,3,3,5,6,3,16,8,20,6,9,5,0,5,0,0,0,0,0,0,0,0,0,0,0,0,0,0,0,0],"split_type":[0,0,0,0,0,0,0,0,0,0,0,0,0,0,0,0,0,0,0,0,0,0,0,0,0,0,0,0,0,0,0],"sum_hessian":[2.7996E4,2.5122E4,2.874E3,1.7162E4,7.96E3,1.554E3,1.32E3,4.482E3,1.268E4,7.94E3,2E1,1.82E2,1.372E3,3.17E2,1.003E3,4.471E3,1.1E1,7.94E2,1.1886E4,4.512E3,3.428E3,1E1,1E1,8E0,1.74E2,1.371E3,1E0,2.4E2,7.7E1,1E3,3E0],"tree_param":{"num_deleted":"0","num_feature":"21","num_nodes":"31","size_leaf_vector":"1"}},{"base_weights":[-3.6273177E-3,-1.6411482E-1,3.2202437E0,-3.905951E-1,3.3332694E-1,1.8204182E0,6.5410967E0,-4.5953888E-1,-2.506642E-1,7.9157386E0,1.5790053E-1,4.6419897E0,1.1201087E0,4.5839396E0,1.2915853E1,-2.4285082E-2,-1.0692974E-3,-1.808699E-2,7.87093E-2,8.0169004E-1,5.633063E-2,6.635101E-3,4.539487E-1,-1.9069621E-2,3.4322903E-1,2.5043938E-2,1.7907046E-1,1.137123E-1,4.8874614E-1,2.9878753E-1,8.088792E-1],"categories":[],"categories_nodes":[],"categories_segments":[],"categories_sizes":[],"default_left":[0,0,0,0,0,0,0,0,0,0,0,0,0,0,0,0,0,0,0,0,0,0,0,0,0,0,0,0,0,0,0],"id":16,"left_children":[1,3,5,7,9,11,13,15,17,19,21,23,25,27,29,-1,-1,-1,-1,-1,-1,-1,-1,-1,-1,-1,-1,-1,-1,-1,-1],"loss_changes":[1.4511276E4,3.0100874E3,6.17075E3,1.7700073E2,1.1117518E4,1.8462876E3,4.856496E3,1.4096509E2,1.2293147E3,1.0398585E4,1.8356172E3,2.079293E3,1.1443379E3,3.6106113E3,1.9859082E3,0E0,0E0,0E0,0E0,0E0,0E0,0E0,0E0,0E0,0E0,0E0,0E0,0E0,0E0,0E0,0E0],"parents":[2147483647,0,0,1,1,2,2,3,3,4,4,5,5,6,6,7,7,8,8,9,9,10,10,11,11,12,12,13,13,14,14],"right_children":[2,4,6,8,10,12,14,16,18,20,22,24,26,28,30,-1,-1,-1,-1,-1,-1,-1,-1,-1,-1,-1,-1,-1,-1,-1,-1],"split_conditions":[5.30195E-1,3.17708E-1,2.30851E-1,3.33333E-1,3.1879E-1,5.40657E-1,1.85185E-1,1.84929E-1,1.42399E-1,5.3E1,9.82833E-1,1.6173E-1,6.45508E-1,4.356667E0,1E1,-2.4285082E-2,-1.0692974E-3,-1.808699E-2,7.87093E-2,8.0169004E-1,5.633063E-2,6.635101E-3,4.539487E-1,-1.9069621E-2,3.4322903E-1,2.5043938E-2,1.7907046E-1,1.137123E-1,4.8874614E-1,2.9878753E-1,8.088792E-1],"split_indices":[3,3,2,5,3,3,5,2,2,0,5,2,3,7,19,0,0,0,0,0,0,0,0,0,0,0,0,0,0,0,0],"split_type":[0,0,0,0,0,0,0,0,0,0,0,0,0,0,0,0,0,0,0,0,0,0,0,0,0,0,0,0,0,0,0],"sum_hessian":[2.8045E4,2.6716E4,1.329E3,1.8358E4,8.358E3,9.36E2,3.93E2,1.2297E4,6.061E3,1.88E2,8.17E3,1.85E2,7.51E2,3.02E2,9.1E1,1.1604E4,6.93E2,5.714E3,3.47E2,8.5E1,1.03E2,8.148E3,2.2E1,5.7E1,1.28E2,6.01E2,1.5E2,2.1E2,9.2E1,3E1,6.1E1],"tree_param":{"num_deleted":"0","num_feature":"21","num_nodes":"31","size_leaf_vector":"1"}},{"base_weights":[-1.2536356E-3,-1.5194675E-1,2.6013408E0,-3.3234093E-1,3.2440463E-1,3.4400747E0,1.4392804E0,-3.8853043E-1,3.5926396E-1,-1.6981286E-1,1.9586594E0,1.7720649E0,4.5177197E0,7.739636E-1,2.6248076E0,-2.1712339E-2,-6.9102193E-3,8.851172E-3,1.3961136E-1,-1.8984562E-2,1.8740667E-2,8.346706E-2,4.245834E-1,5.11402E-2,2.2954379E-1,-6.471858E-4,2.4560575E-1,2.1054927E-1,1.757862E-2,5.858615E-1,9.451235E-2],"categories":[],"categories_nodes":[],"categories_segments":[],"categories_sizes":[],"default_left":[0,0,0,0,0,0,0,0,0,0,0,0,0,0,0,0,0,0,0,0,0,0,0,0,0,0,0,0,0,0,0],"id":17,"left_children":[1,3,5,7,9,11,13,15,17,19,21,23,25,27,29,-1,-1,-1,-1,-1,-1,-1,-1,-1,-1,-1,-1,-1,-1,-1,-1],"loss_changes":[1.0927679E4,2.2633591E3,1.4814053E3,7.425388E2,5.843878E3,1.5828008E3,5.0355798E2,2.0214355E2,6.362058E2,6.352224E2,3.1612227E3,7.324009E2,9.5961523E2,5.9664777E2,1.5140066E3,0E0,0E0,0E0,0E0,0E0,0E0,0E0,0E0,0E0,0E0,0E0,0E0,0E0,0E0,0E0,0E0],"parents":[2147483647,0,0,1,1,2,2,3,3,4,4,5,5,6,6,7,7,8,8,9,9,10,10,11,11,12,12,13,13,14,14],"right_children":[2,4,6,8,10,12,14,16,18,20,22,24,26,28,30,-1,-1,-1,-1,-1,-1,-1,-1,-1,-1,-1,-1,-1,-1,-1,-1],"split_conditions":[2.08168E-1,3.6E1,4E0,1.84929E-1,1.3627E-1,3E0,1.5E1,1.6626E-1,3.7E1,1.14014E-1,2.24E2,2.97801E-1,3E0,1.43619E-1,2.7888E-2,-2.1712339E-2,-6.9102193E-3,8.851172E-3,1.3961136E-1,-1.8984562E-2,1.8740667E-2,8.346706E-2,4.245834E-1,5.11402E-2,2.2954379E-1,-6.471858E-4,2.4560575E-1,2.1054927E-1,1.757862E-2,5.858615E-1,9.451235E-2],"split_indices":[2,16,20,2,2,16,16,2,12,2,1,2,12,8,6,0,0,0,0,0,0,0,0,0,0,0,0,0,0,0,0],"split_type":[0,0,0,0,0,0,0,0,0,0,0,0,0,0,0,0,0,0,0,0,0,0,0,0,0,0,0,0,0,0,0],"sum_hessian":[2.7861E4,2.6337E4,1.524E3,1.9103E4,7.234E3,8.84E2,6.4E2,1.7668E4,1.435E3,5.555E3,1.679E3,3.48E2,5.36E2,4.11E2,2.29E2,1.4939E4,2.729E3,1.336E3,9.9E1,4.01E3,1.545E3,1.609E3,7E1,2.76E2,7.2E1,4.3E1,4.93E2,4.4E1,3.67E2,1.6E1,2.13E2],"tree_param":{"num_deleted":"0","num_feature":"21","num_nodes":"31","size_leaf_vector":"1"}},{"base_weights":[-1.925355E-2,-1.6246144E-1,2.668174E0,-3.4808823E-1,2.4983558E-1,3.7903407E0,1.1508831E0,-5.040184E-1,-2.9732183E-1,5.9641576E0,1.142537E-1,1.8099284E0,5.0881977E0,-1.0860114E0,1.9694933E0,-2.545696E-2,1.4343266E-1,8.526349E-3,-1.6344557E-2,7.386362E-2,6.8815273E-1,-4.542839E-3,3.8291402E-2,6.6011325E-2,1.1933892E0,2.0611314E-1,5.8682567E-1,-6.36704E-2,4.6664706E-1,5.111412E-1,8.8761695E-2],"categories":[],"categories_nodes":[],"categories_segments":[],"categories_sizes":[],"default_left":[0,0,0,0,0,0,0,0,0,0,0,0,0,0,0,0,0,0,0,0,0,0,0,0,0,0,0,0,0,0,0],"id":18,"left_children":[1,3,5,7,9,11,13,15,17,19,21,23,25,27,29,-1,-1,-1,-1,-1,-1,-1,-1,-1,-1,-1,-1,-1,-1,-1,-1],"loss_changes":[1.0817332E4,2.0423799E3,2.4168105E3,1.4551245E2,6.4181924E3,2.0907197E3,1.1118125E3,7.948877E1,1.9212671E2,6.6982764E3,1.0817899E3,3.479065E3,3.117586E3,3.3013824E2,6.937112E2,0E0,0E0,0E0,0E0,0E0,0E0,0E0,0E0,0E0,0E0,0E0,0E0,0E0,0E0,0E0,0E0],"parents":[2147483647,0,0,1,1,2,2,3,3,4,4,5,5,6,6,7,7,8,8,9,9,10,10,11,11,12,12,13,13,14,14],"right_children":[2,4,6,8,10,12,14,16,18,20,22,24,26,28,30,-1,-1,-1,-1,-1,-1,-1,-1,-1,-1,-1,-1,-1,-1,-1,-1],"split_conditions":[5.22935E-1,3.17708E-1,4E0,1.70071E-1,3.1879E-1,1E1,1.253333E0,2.32E2,7.69111E-1,4.4105E-1,4.36016E-1,6.23037E-1,5.83E0,1.32E2,1.25989E-1,-2.545696E-2,1.4343266E-1,8.526349E-3,-1.6344557E-2,7.386362E-2,6.8815273E-1,-4.542839E-3,3.8291402E-2,6.6011325E-2,1.1933892E0,2.0611314E-1,5.8682567E-1,-6.36704E-2,4.6664706E-1,5.111412E-1,8.8761695E-2],"split_indices":[3,3,20,3,3,19,7,1,8,11,3,6,7,15,11,0,0,0,0,0,0,0,0,0,0,0,0,0,0,0,0],"split_type":[0,0,0,0,0,0,0,0,0,0,0,0,0,0,0,0,0,0,0,0,0,0,0,0,0,0,0,0,0,0,0],"sum_hessian":[2.8105E4,2.6684E4,1.421E3,1.84E4,8.284E3,8.16E2,6.05E2,4.517E3,1.3883E4,1.91E2,8.093E3,3.24E2,4.92E2,1.62E2,4.43E2,4.511E3,6E0,8.25E2,1.3058E4,1.22E2,6.9E1,6.156E3,1.937E3,3.18E2,6E0,4.31E2,6.1E1,1.6E2,2E0,9E0,4.34E2],"tree_param":{"num_deleted":"0","num_feature":"21","num_nodes":"31","size_leaf_vector":"1"}},{"base_weights":[1.3244182E-2,-1.4750049E-1,2.6150682E0,-3.6242217E-1,1.9040981E-1,4.3303582E-1,3.537857E0,-3.986795E-1,-1.4851016E-1,4.0862063E-1,-3.2233018E-1,2.803423E0,-8.435428E-1,5.027942E0,2.5924928E0,-2.2510586E-2,-1.6334275E-2,-8.346402E-3,2.3160408E-1,-9.436656E-3,3.5426147E-2,-3.563057E-2,8.4825335E-3,3.5186645E-1,4.3899782E-2,-5.8925457E-2,2.3837416E-1,1.2037801E-1,3.511393E-1,2.3948722E-1,7.592905E-2],"categories":[],"categories_nodes":[],"categories_segments":[],"categories_sizes":[],"default_left":[0,0,0,0,0,0,0,0,0,0,0,0,0,0,0,0,0,0,0,0,0,0,0,0,0,0,0,0,0,0,0],"id":19,"left_children":[1,3,5,7,9,11,13,15,17,19,21,23,25,27,29,-1,-1,-1,-1,-1,-1,-1,-1,-1,-1,-1,-1,-1,-1,-1,-1],"loss_changes":[1.1701605E4,1.9137905E3,3.2765361E3,1.248645E2,1.1463977E3,1.4699678E3,1.5984883E3,5.0947266E1,2.0645418E2,1.2876685E3,5.874822E2,1.3796744E3,5.99542E2,2.2987656E3,1.6492036E3,0E0,0E0,0E0,0E0,0E0,0E0,0E0,0E0,0E0,0E0,0E0,0E0,0E0,0E0,0E0,0E0],"parents":[2147483647,0,0,1,1,2,2,3,3,4,4,5,5,6,6,7,7,8,8,9,9,10,10,11,11,12,12,13,13,14,14],"right_children":[2,4,6,8,10,12,14,16,18,20,22,24,26,28,30,-1,-1,-1,-1,-1,-1,-1,-1,-1,-1,-1,-1,-1,-1,-1,-1],"split_conditions":[5.064E-1,2.90278E-1,1.66807E-1,1.64356E-1,4.571429E0,1.79867E-1,5.40657E-1,7E0,3.7E1,1.14014E-1,1.60472E-1,5.2E1,8.3E1,5.31028E-1,4.6875E-2,-2.2510586E-2,-1.6334275E-2,-8.346402E-3,2.3160408E-1,-9.436656E-3,3.5426147E-2,-3.563057E-2,8.4825335E-3,3.5186645E-1,4.3899782E-2,-5.8925457E-2,2.3837416E-1,1.2037801E-1,3.511393E-1,2.3948722E-1,7.592905E-2],"split_indices":[3,3,2,2,17,11,3,16,15,2,2,15,15,3,6,0,0,0,0,0,0,0,0,0,0,0,0,0,0,0,0],"split_type":[0,0,0,0,0,0,0,0,0,0,0,0,0,0,0,0,0,0,0,0,0,0,0,0,0,0,0,0,0,0,0],"sum_hessian":[2.7977E4,2.635E4,1.627E3,1.6106E4,1.0244E4,4.84E2,1.143E3,1.3771E4,2.335E3,7.186E3,3.058E3,1.69E2,3.15E2,4.42E2,7.01E2,8.023E3,5.748E3,2.327E3,8E0,2.402E3,4.784E3,1.705E3,1.353E3,5.2E1,1.17E2,2.98E2,1.7E1,1.92E2,2.5E2,2.29E2,4.72E2],"tree_param":{"num_deleted":"0","num_feature":"21","num_nodes":"31","size_leaf_vector":"1"}},{"base_weights":[-1.9931577E-2,-1.4943688E-1,2.3754783E0,-3.5078418E-1,1.9200402E-1,1.6926148E0,4.7720084E0,-4.2754173E-1,9.80794E-2,-1.2217878E-1,3.2629993E0,2.532723E0,5.7826674E-1,1.9732109E0,5.8729715E0,-2.1614214E-2,1.4817157E-1,-1.0961846E-2,7.643263E-2,-1.477206E-2,3.2272093E-2,1.256241E-1,2.911482E-1,1.1993152E-1,8.106331E-1,4.0286285E-1,2.1736892E-2,1.1007505E-2,3.173698E-1,9.233109E-1,2.5421017E-1],"categories":[],"categories_nodes":[],"categories_segments":[],"categories_sizes":[],"default_left":[0,0,0,0,0,0,0,0,0,0,0,0,0,0,0,0,0,0,0,0,0,0,0,0,0,0,0,0,0,0,0],"id":20,"left_children":[1,3,5,7,9,11,13,15,17,19,21,23,25,27,29,-1,-1,-1,-1,-1,-1,-1,-1,-1,-1,-1,-1,-1,-1,-1,-1],"loss_changes":[8.661029E3,1.8210015E3,2.335395E3,5.741089E2,9.481053E3,1.0433044E3,9.6520654E2,2.301106E2,1.1052354E3,1.185884E3,1.7375928E3,1.1277754E3,5.128272E2,6.964099E2,2.160939E3,0E0,0E0,0E0,0E0,0E0,0E0,0E0,0E0,0E0,0E0,0E0,0E0,0E0,0E0,0E0,0E0],"parents":[2147483647,0,0,1,1,2,2,3,3,4,4,5,5,6,6,7,7,8,8,9,9,10,10,11,11,12,12,13,13,14,14],"right_children":[2,4,6,8,10,12,14,16,18,20,22,24,26,28,30,-1,-1,-1,-1,-1,-1,-1,-1,-1,-1,-1,-1,-1,-1,-1,-1],"split_conditions":[2.10818E-1,3.44828E-1,1.85185E-1,1.77978E-1,1.46037E-1,4E0,3E0,2.08E2,1.73077E-1,1.21821E-1,5.38462E-1,1.11111E-1,1.5115E-2,2.79323E-1,2.5316E-2,-2.1614214E-2,1.4817157E-1,-1.0961846E-2,7.643263E-2,-1.477206E-2,3.2272093E-2,1.256241E-1,2.911482E-1,1.1993152E-1,8.106331E-1,4.0286285E-1,2.1736892E-2,1.1007505E-2,3.173698E-1,9.233109E-1,2.5421017E-1],"split_indices":[2,5,5,2,2,20,16,1,5,2,5,4,9,2,6,0,0,0,0,0,0,0,0,0,0,0,0,0,0,0,0],"split_type":[0,0,0,0,0,0,0,0,0,0,0,0,0,0,0,0,0,0,0,0,0,0,0,0,0,0,0,0,0,0,0],"sum_hessian":[2.7917E4,2.6486E4,1.431E3,1.6661E4,9.825E3,1.115E3,3.16E2,1.4228E4,2.433E3,8.914E3,9.11E2,6.35E2,4.8E2,9E1,2.26E2,1.4209E4,1.9E1,1.992E3,4.41E2,7.273E3,1.641E3,7.06E2,2.05E2,6.3E2,5E0,8E0,4.72E2,6.5E1,2.5E1,1.2E1,2.14E2],"tree_param":{"num_deleted":"0","num_feature":"21","num_nodes":"31","size_leaf_vector":"1"}},{"base_weights":[-2.783674E-3,-1.2629458E-1,2.3316097E0,-3.0625817E-1,2.7227846E-1,3.2933059E0,9.756437E-1,-3.556506E-1,-9.479346E-2,6.4599967E0,1.2177411E-1,8.947972E0,2.961577E0,1.262966E1,8.531917E-1,-1.0676459E-2,-2.0157939E-2,-1.3301109E-2,3.0838108E-2,3.851475E-2,6.8642825E-1,-2.7052767E-3,4.7852643E-2,2.1248937E-1,1.0756917E0,5.852586E-2,2.0099337E-1,3.3958938E-2,1.2176875E0,-5.733782E-2,7.839013E-2],"categories":[],"categories_nodes":[],"categories_segments":[],"categories_sizes":[],"default_left":[0,0,0,0,0,0,0,0,0,0,0,0,0,0,0,0,0,0,0,0,0,0,0,0,0,0,0,0,0,0,0],"id":21,"left_children":[1,3,5,7,9,11,13,15,17,19,21,23,25,27,29,-1,-1,-1,-1,-1,-1,-1,-1,-1,-1,-1,-1,-1,-1,-1,-1],"loss_changes":[8.0557524E3,1.9034741E3,1.8276416E3,1.9091736E2,7.6869175E3,1.5135459E3,8.226265E2,9.997742E1,4.2209164E2,8.0951973E3,1.1841344E3,2.565224E3,1.4680684E3,8.241103E2,8.292958E2,0E0,0E0,0E0,0E0,0E0,0E0,0E0,0E0,0E0,0E0,0E0,0E0,0E0,0E0,0E0,0E0],"parents":[2147483647,0,0,1,1,2,2,3,3,4,4,5,5,6,6,7,7,8,8,9,9,10,10,11,11,12,12,13,13,14,14],"right_children":[2,4,6,8,10,12,14,16,18,20,22,24,26,28,30,-1,-1,-1,-1,-1,-1,-1,-1,-1,-1,-1,-1,-1,-1,-1,-1],"split_conditions":[5.22935E-1,3.17708E-1,4E0,5.33835E-1,3.1879E-1,3.3349E-1,6.3646E-2,2E0,9.3E-1,7.1429E-2,6.31579E-1,8E0,1E1,3.333E-3,1.253333E0,-1.0676459E-2,-2.0157939E-2,-1.3301109E-2,3.0838108E-2,3.851475E-2,6.8642825E-1,-2.7052767E-3,4.7852643E-2,2.1248937E-1,1.0756917E0,5.852586E-2,2.0099337E-1,3.3958938E-2,1.2176875E0,-5.733782E-2,7.839013E-2],"split_indices":[3,3,20,5,3,10,9,20,7,6,5,16,19,7,7,0,0,0,0,0,0,0,0,0,0,0,0,0,0,0,0],"split_type":[0,0,0,0,0,0,0,0,0,0,0,0,0,0,0,0,0,0,0,0,0,0,0,0,0,0,0,0,0,0,0],"sum_hessian":[2.7938E4,2.6535E4,1.403E3,1.8281E4,8.254E3,8.2E2,5.83E2,1.4819E4,3.462E3,1.95E2,8.059E3,4.4E1,7.76E2,5E0,5.78E2,3.714E3,1.1105E4,2.791E3,6.71E2,1.1E2,8.5E1,6.658E3,1.401E3,3.3E1,1.1E1,2.89E2,4.87E2,3E0,2E0,1.52E2,4.26E2],"tree_param":{"num_deleted":"0","num_feature":"21","num_nodes":"31","size_leaf_vector":"1"}},{"base_weights":[-5.3127706E-3,-1.2450911E-1,2.236441E0,-1.9068132E-1,6.8745655E-1,-1.7349507E-1,2.9660106E0,-3.5559556E-1,1.2560926E-1,6.307753E-1,1.4771835E1,-8.537025E-1,3.31893E0,4.250018E0,1.2586377E0,-1.973558E-2,-2.0689091E-3,-5.279378E-3,1.8417759E-1,1.4580644E-2,1.0240878E-1,1.1649883E0,2.094825E-2,-9.407925E-2,1.4557618E-3,1.020998E0,1.687504E-2,8.369712E-2,2.9474115E-1,3.7462566E-2,2.2606857E-1],"categories":[],"categories_nodes":[],"categories_segments":[],"categories_sizes":[],"default_left":[0,0,0,0,0,0,0,0,0,0,0,0,0,0,0,0,0,0,0,0,0,0,0,0,0,0,0,0,0,0,0],"id":22,"left_children":[1,3,5,7,9,11,13,15,17,19,21,23,25,27,29,-1,-1,-1,-1,-1,-1,-1,-1,-1,-1,-1,-1,-1,-1,-1,-1],"loss_changes":[7.494418E3,1.4310029E3,2.49015E3,1.2845046E3,1.5929108E3,7.867725E2,2.3776572E3,1.989248E2,6.943006E3,9.608605E2,9.694402E2,2.514137E2,2.7463254E3,2.6171611E3,7.744246E2,0E0,0E0,0E0,0E0,0E0,0E0,0E0,0E0,0E0,0E0,0E0,0E0,0E0,0E0,0E0,0E0],"parents":[2147483647,0,0,1,1,2,2,3,3,4,4,5,5,6,6,7,7,8,8,9,9,10,10,11,11,12,12,13,13,14,14],"right_children":[2,4,6,8,10,12,14,16,18,20,22,24,26,28,30,-1,-1,-1,-1,-1,-1,-1,-1,-1,-1,-1,-1,-1,-1,-1,-1],"split_conditions":[5.22935E-1,1.88143E-1,1.59998E-1,3.91304E-1,7.6E1,7.02247E-1,4E0,1.73443E-1,1.42399E-1,1.73077E-1,5.37281E-1,1.32635E-1,2.7E1,1E1,4.23529E-1,-1.973558E-2,-2.0689091E-3,-5.279378E-3,1.8417759E-1,1.4580644E-2,1.0240878E-1,1.1649883E0,2.094825E-2,-9.407925E-2,1.4557618E-3,1.020998E0,1.687504E-2,8.369712E-2,2.9474115E-1,3.7462566E-2,2.2606857E-1],"split_indices":[3,2,2,5,16,5,20,2,2,5,9,2,12,19,5,0,0,0,0,0,0,0,0,0,0,0,0,0,0,0,0],"split_type":[0,0,0,0,0,0,0,0,0,0,0,0,0,0,0,0,0,0,0,0,0,0,0,0,0,0,0,0,0,0,0],"sum_hessian":[2.8045E4,2.663E4,1.415E3,2.4624E4,2.006E3,3.29E2,1.086E3,1.6185E4,8.439E3,1.999E3,7E0,2.76E2,5.3E1,6.19E2,4.67E2,1.4393E4,1.792E3,7.925E3,5.14E2,1.614E3,3.85E2,4E0,3E0,1.27E2,1.49E2,7E0,4.6E1,2.42E2,3.77E2,4.05E2,6.2E1],"tree_param":{"num_deleted":"0","num_feature":"21","num_nodes":"31","size_leaf_vector":"1"}},{"base_weights":[-2.1330204E-3,-1.1522283E-1,2.314E0,-1.8502799E-1,9.9366283E-1,4.606175E0,1.5615666E0,-3.571825E-1,5.7569627E-2,9.4860506E-1,1.8543053E1,-5.953449E-1,5.799635E0,6.281281E-2,2.4337306E0,-1.5455705E-2,-2.7548125E-2,-1.0744251E-2,8.947057E-2,1.5676245E-2,7.691637E-2,-3.913736E-2,1.2622951E0,3.4566438E-1,-6.217761E-2,1.8266384E-1,4.830362E-1,7.372941E-2,-8.107453E-2,8.634542E-2,3.9473733E-1],"categories":[],"categories_nodes":[],"categories_segments":[],"categories_sizes":[],"default_left":[0,0,0,0,0,0,0,0,0,0,0,0,0,0,0,0,0,0,0,0,0,0,0,0,0,0,0,0,0,0,0],"id":23,"left_children":[1,3,5,7,9,11,13,15,17,19,21,23,25,27,29,-1,-1,-1,-1,-1,-1,-1,-1,-1,-1,-1,-1,-1,-1,-1,-1],"loss_changes":[7.3424546E3,2.0690125E3,2.2435522E3,1.0501832E3,1.2341445E3,2.0023657E3,1.2860916E3,1.3683032E2,4.925538E3,5.9126074E2,5.379127E2,3.0549323E2,2.1359736E3,8.655534E2,2.3872666E3,0E0,0E0,0E0,0E0,0E0,0E0,0E0,0E0,0E0,0E0,0E0,0E0,0E0,0E0,0E0,0E0],"parents":[2147483647,0,0,1,1,2,2,3,3,4,4,5,5,6,6,7,7,8,8,9,9,10,10,11,11,12,12,13,13,14,14],"right_children":[2,4,6,8,10,12,14,16,18,20,22,24,26,28,30,-1,-1,-1,-1,-1,-1,-1,-1,-1,-1,-1,-1,-1,-1,-1,-1],"split_conditions":[5.30195E-1,1.94804E-1,5.40657E-1,3.05263E-1,7.4E1,1.6173E-1,1.85185E-1,3.1879E-1,1.37755E-1,1.3E1,3.61679E-1,1.17889E-1,1.81818E-1,5.65383E-1,2.30851E-1,-1.5455705E-2,-2.7548125E-2,-1.0744251E-2,8.947057E-2,1.5676245E-2,7.691637E-2,-3.913736E-2,1.2622951E0,3.4566438E-1,-6.217761E-2,1.8266384E-1,4.830362E-1,7.372941E-2,-8.107453E-2,8.634542E-2,3.9473733E-1],"split_indices":[3,2,3,5,15,2,5,3,2,19,3,11,5,9,2,0,0,0,0,0,0,0,0,0,0,0,0,0,0,0,0],"split_type":[0,0,0,0,0,0,0,0,0,0,0,0,0,0,0,0,0,0,0,0,0,0,0,0,0,0,0,0,0,0,0],"sum_hessian":[2.803E4,2.6726E4,1.304E3,2.5144E4,1.582E3,3.21E2,9.83E2,1.4707E4,1.0437E4,1.579E3,3E0,6E1,2.61E2,3.62E2,6.21E2,1.1786E4,2.921E3,9.019E3,1.418E3,7.61E2,8.18E2,1E0,2E0,4E0,5.6E1,1.69E2,9.2E1,1.97E2,1.65E2,5.51E2,7E1],"tree_param":{"num_deleted":"0","num_feature":"21","num_nodes":"31","size_leaf_vector":"1"}},{"base_weights":[1.405851E-3,-1.2171065E-1,1.9314007E0,-2.791622E-1,1.7580694E-1,6.5311317E0,1.694753E0,-2.1350785E-1,-3.5846126E-1,8.274382E-1,-6.394471E-2,1.0103293E1,1.190924E0,2.4095778E0,7.4885607E-1,2.8976178E-2,-1.1327348E-2,5.455989E-3,-1.8994017E-2,1.243796E-1,2.48231E-2,-1.0342386E-2,4.052261E-2,3.1570894E-1,9.135505E-1,-2.9932711E-2,5.8451045E-1,1.4219652E-1,-1.4879674E-2,1.14434294E-1,1.5884288E-2],"categories":[],"categories_nodes":[],"categories_segments":[],"categories_sizes":[],"default_left":[0,0,0,0,0,0,0,0,0,0,0,0,0,0,0,0,0,0,0,0,0,0,0,0,0,0,0,0,0,0,0],"id":24,"left_children":[1,3,5,7,9,11,13,15,17,19,21,23,25,27,29,-1,-1,-1,-1,-1,-1,-1,-1,-1,-1,-1,-1,-1,-1,-1,-1],"loss_changes":[6.6688774E3,1.2359502E3,1.8209023E3,8.974829E1,1.426586E3,1.5522065E3,1.0813887E3,9.775528E1,7.8289795E1,1.3482666E3,8.3436017E2,1.4011055E3,6.458343E2,1.0732378E3,4.5804782E2,0E0,0E0,0E0,0E0,0E0,0E0,0E0,0E0,0E0,0E0,0E0,0E0,0E0,0E0,0E0,0E0],"parents":[2147483647,0,0,1,1,2,2,3,3,4,4,5,5,6,6,7,7,8,8,9,9,10,10,11,11,12,12,13,13,14,14],"right_children":[2,4,6,8,10,12,14,16,18,20,22,24,26,28,30,-1,-1,-1,-1,-1,-1,-1,-1,-1,-1,-1,-1,-1,-1,-1,-1],"split_conditions":[5.064E-1,3.02964E-1,3.3349E-1,4E0,2E0,3.029412E0,4E0,2.85714E-1,4.9383E-2,3.22477E-1,6.66667E-1,8.5714E-2,1E0,1.177738E0,1.2E1,2.8976178E-2,-1.1327348E-2,5.455989E-3,-1.8994017E-2,1.243796E-1,2.48231E-2,-1.0342386E-2,4.052261E-2,3.1570894E-1,9.135505E-1,-2.9932711E-2,5.8451045E-1,1.4219652E-1,-1.4879674E-2,1.14434294E-1,1.5884288E-2],"split_indices":[3,3,10,20,20,17,20,17,8,3,5,5,13,10,12,0,0,0,0,0,0,0,0,0,0,0,0,0,0,0,0],"split_type":[0,0,0,0,0,0,0,0,0,0,0,0,0,0,0,0,0,0,0,0,0,0,0,0,0,0,0,0,0,0,0],"sum_hessian":[2.8064E4,2.6382E4,1.682E3,1.7252E4,9.13E3,8.1E1,1.601E3,9.44E3,7.812E3,2.455E3,6.675E3,4.8E1,3.3E1,9.11E2,6.9E2,1.52E2,9.288E3,3.42E2,7.47E3,4.07E2,2.048E3,5.738E3,9.37E2,3.4E1,1.4E1,2.9E1,4E0,7.85E2,1.26E2,1.5E2,5.4E2],"tree_param":{"num_deleted":"0","num_feature":"21","num_nodes":"31","size_leaf_vector":"1"}},{"base_weights":[3.6363177E-2,-1.1337927E-1,1.6881497E0,-2.9941815E-1,2.3377576E-1,9.391141E-1,3.391674E0,-2.8916484E-1,-2.6000135E0,-1.0369693E-1,3.0768259E0,8.968327E-1,1.7764889E1,6.8416123E0,1.8592639E0,-1.7732257E-2,4.777832E-3,-1.3478045E-1,1.0946166E-1,-1.5042849E-2,2.934326E-2,4.5049316E-1,1.3545994E-1,9.7081445E-2,2.424958E-2,-5.2205294E-2,1.2191294E0,4.871896E-1,1.4180313E-1,2.4551271E-1,6.369964E-2],"categories":[],"categories_nodes":[],"categories_segments":[],"categories_sizes":[],"default_left":[0,0,0,0,0,0,0,0,0,0,0,0,0,0,0,0,0,0,0,0,0,0,0,0,0,0,0,0,0,0,0],"id":25,"left_children":[1,3,5,7,9,11,13,15,17,19,21,23,25,27,29,-1,-1,-1,-1,-1,-1,-1,-1,-1,-1,-1,-1,-1,-1,-1,-1],"loss_changes":[6.921578E3,1.6571749E3,2.9647915E3,3.9332178E2,8.590291E3,1.1344302E3,3.7408516E3,4.19047E2,3.9780853E1,1.0899314E3,2.0476787E3,6.935465E2,5.2334705E2,2.5065781E3,8.7407263E2,0E0,0E0,0E0,0E0,0E0,0E0,0E0,0E0,0E0,0E0,0E0,0E0,0E0,0E0,0E0,0E0],"parents":[2147483647,0,0,1,1,2,2,3,3,4,4,5,5,6,6,7,7,8,8,9,9,10,10,11,11,12,12,13,13,14,14],"right_children":[2,4,6,8,10,12,14,16,18,20,22,24,26,28,30,-1,-1,-1,-1,-1,-1,-1,-1,-1,-1,-1,-1,-1,-1,-1,-1],"split_conditions":[1.94804E-1,3.82812E-1,5.31028E-1,8.772E-3,1.37755E-1,1.3142508E2,5.40657E-1,1.72864E-1,1.91943E-1,1.14014E-1,1.35743E-1,2E0,9.8E1,4E0,4.23371E-1,-1.7732257E-2,4.777832E-3,-1.3478045E-1,1.0946166E-1,-1.5042849E-2,2.934326E-2,4.5049316E-1,1.3545994E-1,9.7081445E-2,2.424958E-2,-5.2205294E-2,1.2191294E0,4.871896E-1,1.4180313E-1,2.4551271E-1,6.369964E-2],"split_indices":[2,5,3,4,2,8,3,2,2,2,11,20,0,20,9,0,0,0,0,0,0,0,0,0,0,0,0,0,0,0,0],"split_type":[0,0,0,0,0,0,0,0,0,0,0,0,0,0,0,0,0,0,0,0,0,0,0,0,0,0,0,0,0,0,0],"sum_hessian":[2.7982E4,2.5657E4,2.325E3,1.6705E4,8.952E3,1.616E3,7.09E2,1.6632E4,7.3E1,8.003E3,9.49E2,1.613E3,3E0,2.17E2,4.92E2,1.4213E4,2.419E3,7.2E1,1E0,6.226E3,1.777E3,5.4E1,8.95E2,4.55E2,1.158E3,1E0,2E0,1.25E2,9.2E1,7.8E1,4.14E2],"tree_param":{"num_deleted":"0","num_feature":"21","num_nodes":"31","size_leaf_vector":"1"}}]},"name":"gbtree"},"learner_model_param":{"base_score":"2.220287E0","boost_from_average":"1","num_class":"0","num_feature":"21","num_target":"1"},"objective":{"name":"reg:squarederror","reg_loss_param":{"scale_pos_weight":"1"}}},"version":[2,0,3]}